,hsa00250,hsa00790,hsa04610,hsa00020,hsa04614,hsa05340,hsa04215,hsa00380,hsa05020,hsa04750,hsa05223,hsa04611,hsa04514,hsa05220,hsa04512,hsa04660,hsa05171,hsa04510,hsa03060,hsa00620,hsa05100,hsa04929,hsa04928,hsa04927,hsa04926,hsa04925,hsa04923,hsa00830,hsa04921,hsa04920,hsa04710,hsa04662,hsa04664,hsa04666,hsa04350,hsa00330,hsa00130,hsa05133,hsa05132,hsa00240,hsa00010,hsa00051,hsa05135,hsa05134,hsa00563,hsa00562,hsa00561,hsa00565,hsa00564,hsa05032,hsa05235,hsa05030,hsa05031,hsa05230,hsa05231,hsa05034,hsa04726,hsa04728,hsa04520,hsa05218,hsa05330,hsa05332,hsa04724,hsa04930,hsa04931,hsa04932,hsa04933,hsa04934,hsa04935,hsa04911,hsa05219,hsa03460,hsa00650,hsa00140,hsa04110,hsa04114,hsa00410,hsa05414,hsa04066,hsa05416,hsa04630,hsa05410,hsa00360,hsa05412,hsa00910,hsa05415,hsa04960,hsa00471,hsa04213,hsa04730,hsa04913,hsa04530,hsa04122,hsa04918,hsa05222,hsa04062,hsa05322,hsa05221,hsa05320,hsa05321,hsa00480,hsa04659,hsa03008,hsa04658,hsa00760,hsa04216,hsa04912,hsa04976,hsa05226,hsa00310,hsa04014,hsa00640,hsa04120,hsa00400,hsa05211,hsa05224,hsa04940,hsa04971,hsa04145,hsa00500,hsa04146,hsa04310,hsa04140,hsa04142,hsa03410,hsa04973,hsa05146,hsa04962,hsa01040,hsa04540,hsa05033,hsa04068,hsa05143,hsa04668,hsa05017,hsa05215,hsa05166,hsa04720,hsa04713,hsa00770,hsa03015,hsa03013,hsa03010,hsa04810,hsa04130,hsa00670,hsa05144,hsa04136,hsa04137,hsa04727,hsa04623,hsa04115,hsa05120,hsa04950,hsa00270,hsa00512,hsa00513,hsa00510,hsa00340,hsa04152,hsa00100,hsa00514,hsa00515,hsa00511,hsa00450,hsa04714,hsa04922,hsa04550,hsa05417,hsa02010,hsa05217,hsa00970,hsa04071,hsa04613,hsa05225,hsa05214,hsa04261,hsa03050,hsa05310,hsa00740,hsa03022,hsa03020,hsa04390,hsa04392,hsa04211,hsa05142,hsa04141,hsa03040,hsa00071,hsa05150,hsa04961,hsa00072,hsa04360,hsa04621,hsa04622,hsa04964,hsa03430,hsa04024,hsa04370,hsa04978,hsa04371,hsa00440,hsa04915,hsa05418,hsa04270,hsa04217,hsa04625,hsa00260,hsa00980,hsa00983,hsa00982,hsa04020,hsa00190,hsa00750,hsa04640,hsa00860,hsa04979,hsa04657,hsa05152,hsa03030,hsa03018,hsa00592,hsa04924,hsa00590,hsa00591,hsa00900,hsa04966,hsa04974,hsa04975,hsa04015,hsa04977,hsa04970,hsa04972,hsa04010,hsa00062,hsa04650,hsa05140,hsa00061,hsa05145,hsa00430,hsa00120,hsa04260,hsa04070,hsa04072,hsa00232,hsa00230,hsa03320,hsa05131,hsa05130,hsa03440,hsa05205,hsa05204,hsa04917,hsa05323,hsa05206,hsa04612,hsa05203,hsa05202,hsa05160,hsa04012,hsa04670,hsa04620,hsa05012,hsa00603,hsa00600,hsa00601,hsa04910,hsa00604,hsa04380,hsa00053,hsa00052,hsa00280,hsa05170,hsa04916,hsa04144,hsa00524,hsa00350,hsa04022,hsa00520,hsa04210,hsa04064,hsa00220,hsa00030,hsa04060,hsa04061,hsa04218,hsa04672,hsa04725,hsa03420,hsa05163,hsa04330,hsa03450,hsa05169,hsa05216,hsa04742,hsa05110,hsa05164,hsa05212,hsa05213,hsa05210,hsa04744,hsa04721,hsa04150,hsa04919,hsa00630,hsa00920,hsa04723,hsa00040,hsa05161,hsa05162,hsa04722,hsa00730,hsa05167,hsa00531,hsa00532,hsa00533,hsa00534,hsa04914,hsa04340
GSE1145,1.0454647817158333,0.35681627732581983,1.8342867027291547,0.6762030769743511,1.2797915816718626,0.5946939351135617,-1.2489982317430228,-1.6760229297933469,2.0029495998721742,1.0859443545458272,-0.9641666094217882,1.0663474826879933,1.2413554623949277,-1.4113204685388394,1.1856049609392894,-0.6739733105392582,-0.6328223068089861,0.7927522319878573,-1.645426618088802,0.6343465203547796,-1.0673933428059992,1.0857719400622208,1.3188373825841637,1.2261949058278299,1.7848444785344495,1.9907073852057615,1.0533165580909598,0.9496827425730173,0.9081353764200336,0.9527177473290327,-0.8262949188100494,0.22185993795015932,0.6219065246540539,-0.7530016905218005,-0.7213075675767507,0.6327077979314965,0.8415142319158639,0.7871791235415536,-1.699244984137191,-1.2991574968022779,0.8037508304980585,-0.7256177492164806,-0.604891513889745,0.7791886062928782,0.8877117473889852,-1.0694098032061634,0.9841489691221982,0.9837364947069397,0.978768475677681,1.348105417635008,-0.9999038645261032,1.5854693809832563,1.5895292630437245,-1.3254283176660218,-0.605108927779743,0.8762461732310259,2.2284333846539974,1.7362220641399388,-1.7982409869863192,-1.0393330041534183,1.0258869697071455,1.3510520561356645,2.03307329870441,0.46695152424452147,0.8348592839529395,1.7364229915779381,1.0447008679575362,1.310930629916773,1.0832826343615318,0.9280352260309659,0.5534377790012611,-1.5459298179091725,1.2686037906625773,1.2829248328094691,-2.0938200573256687,-1.0470359141674963,0.9460118076979083,1.7579469513679398,-1.0457176262187144,0.35164322997212183,0.45067795438202823,1.6378898348281918,0.9004168526147247,0.9077719585148616,0.6328524322113993,2.376073532147477,0.6309121056287349,1.130745328281972,-0.925996877807857,0.8843830579246895,1.7109796376784214,-1.1118768021807508,0.9258321778757626,0.9858935259402472,0.3852326649117763,1.4804824363451952,0.36750392984976754,-0.743364300423301,1.351381503106216,0.3167787638614872,1.0742090858733853,-0.8317729961210727,-3.627749463546574,0.504001342396616,-1.2191022463503536,-1.5437882660015687,0.9477444773992467,1.522368505220945,-0.6959406893654615,-1.5739836110309453,1.5350371287936557,0.8218347400904581,-2.246819073394679,0.30250942528543495,-1.6027011553382862,-0.7937212058277922,1.5014526570255908,0.7657359125403131,0.6832249402421805,0.5735987060995191,1.011561946519294,-0.47526813362498593,-1.8702722125588036,0.7146183784034924,-1.3354520862907437,1.6270098609415882,1.670349722880515,0.41532086932351725,0.6900978071880973,0.29012651782592785,0.7215537655052386,-0.8472879482577591,0.8535461402261406,0.9616102343219879,-1.1905060662727927,0.6508397780435318,0.9974860571398559,-0.6613615316930177,1.6791077860644326,0.4704332358163797,-2.867403956138289,-3.979257508322987,-2.1394805906668837,0.8034194419170323,-1.221358446769599,-0.9935668231109533,1.461588961226736,-1.3457053212289956,-1.5539278327765833,1.8441052659398873,-0.9379563296792035,-1.3619345914568821,0.36196483150557096,0.40460002317361393,0.5063714418467646,1.2498342818484007,0.2995827073311091,0.7435536443119288,0.48664930544513574,-1.1731140461447223,0.8052937109987156,1.4262088602565577,1.2270338172431499,1.0343174695442856,-0.8618213793710844,1.998984629665433,1.4013923113399664,-0.4667118912473694,1.0985868391390068,0.718928158230518,0.32071406774291883,-1.160071566837943,0.6708784597704628,0.6108170280984763,0.8837157151624961,0.3594824192003078,1.6077933505527608,-0.9312834769657568,1.8150999237802334,0.4959269142564231,-2.12901100519307,-1.9051087462102962,-0.6412990403520739,-0.7237200865028118,-0.9115094696712385,1.215211135432347,-2.1394169072089735,-3.0293522231483285,0.7038095260953362,1.8848332339867357,0.61097039525362,1.0209760204998695,1.1763647914538442,0.567984493009551,0.3138260754573712,1.3539974519030784,-1.327222793163653,1.720711106510525,-0.0040754406503731066,0.7747613143733251,0.5405383266587811,-0.6095660665398589,1.330441834830006,1.0977828386051418,0.6704241030607002,-1.1366247729663133,-0.6330718486287743,0.6007518929155481,1.307770279169606,1.6499891566195812,1.6637321843135542,2.719940892388237,1.6981104361617891,-0.8625658612453365,1.170684366144731,1.531421916582697,0.9771568200861885,0.20290675773017763,1.3325776874335926,-1.1187434135431389,-2.6184849710225064,1.0590333075950111,1.9398435999826456,1.2585801063291648,1.0859762433871412,0.4994163214193006,0.41023097035261163,2.153446532225505,1.4641847576291473,1.177462158675872,0.976229280863418,1.9587080390106868,1.2591703139517791,-0.5978089985757333,0.8327473714120717,1.3861643704783009,0.8363784911017603,-0.9556085464721398,1.5221740313127519,0.8685040857812715,0.7236824463876266,1.5844466566328863,-0.7258406355389447,1.2325325033225867,-0.4953681186271823,0.9204095613367891,1.0110932544234372,-0.9469474705875942,-0.98787422478115,-1.079694001078638,-1.595860031460666,1.5357513372295553,-0.6696448432798446,1.4593316133255063,-1.130155386882461,0.6076902055690006,-0.6984514695830404,-0.6273417727554098,-0.7347145459156382,-0.7643422891223708,1.1864540841342857,0.7304614564288231,2.1664407635538057,0.7705812282682274,0.7885123393270481,1.356822452803125,-2.003916589496276,0.7644389674528482,0.3530550815509214,0.9468916639937748,0.5939840198067095,1.1499313302912988,0.5155142789799514,1.5768091377334972,-0.9813806809184322,0.3897568183455011,1.3010123330225278,1.3530015806881899,0.36709059131470023,-1.3618669906008836,0.3202822614722131,1.0499394002352325,-0.7245031963632699,1.7634957680209158,1.787112243344122,-0.8854594474110835,1.143116444766223,1.4872482451158695,-1.9877019814659218,1.723245349885805,-1.1139086840518537,-1.1911806374384324,-0.7981888905399689,-1.6615081051846632,1.7832455130011582,-1.4664896545235129,-1.1543077116013067,-1.4042473108415603,-1.113183600515689,-1.5989757056439948,1.2730502564830535,-0.8928595294036058,-2.2136374788922346,-1.2773556133642154,1.017258086961675,0.6583790518591549,2.5233331922575637,0.8670426746090335,0.8148665017105526,-1.430729320087461,-1.003599814571643,0.7193499235685412,1.0737360007686343,0.7284995277456681,1.0887296812587384,0.9961629593285656,1.4053606551121378,-0.9921158339545618,0.12340399565105818
GSE11906,1.3509173407066168,0.3810176920006078,3.2472004789282853,0.3919990591681626,1.9664062252418715,0.7140768269959722,-1.2510486293339678,-1.7276983542705384,3.59125943076054,1.8415482720056287,0.03579072823601165,2.448598802490786,2.1645851392165865,-1.9496297366118578,2.1282644401971615,1.0452250614408898,0.8862144416992092,1.7921877098782366,0.41964741355547236,-0.17494822950321115,0.7968699575407129,2.172505596756671,1.8640524976870563,1.1213289552927153,3.0576671348145,2.2297293609559095,1.8020517300393635,0.784442150284199,1.0978012108267678,1.089171262489331,-2.21772081186175,1.4046319761523183,1.5709480518467824,1.4442936057553872,-1.9378540102472273,0.9328932857090854,0.7111484379416707,2.1516607531456664,0.5382359789725558,0.30882916509956665,0.4075353633993263,0.10489665895034612,1.6152661521516714,1.2480646825609272,1.4809229675540316,0.617053375519977,1.184043312344852,1.3306089909952272,1.5544889054576148,1.453947696755354,0.8290215563780584,2.073202357453406,1.1424658576990157,0.871804765087367,1.2405894540793645,0.6015120403255924,2.3803881560316897,1.5587218199903663,-2.2014817679544363,0.40896280024580134,2.0011905334558615,2.5708651540052,1.7577667100362457,1.1007860632774225,1.4413234688564853,0.9792320790665843,1.7674335778169314,0.721251021601619,2.023092252115298,1.2407383308842548,0.9080765791649298,-3.4060544232458208,1.0528294996961953,0.7189190718410846,-3.4609912491378756,-2.418529942608201,0.8352771478733453,2.9136335054528892,0.9767382255018583,1.323457206627908,1.481524156801558,2.577695001231478,1.3686782813244516,1.5226768875568684,0.2879157093539966,2.0452036624191563,1.13369113832017,0.32468154354991213,0.35549939493807653,1.4400506075316737,1.511633233594327,0.6702049135395067,0.015917640675637983,1.6823922739667485,0.5241613222939339,2.568583927112463,0.9288166107488538,0.3987666394073478,2.353036923632545,0.7567469665711829,1.1580439185520874,0.7757528231332007,-3.416470724081803,0.5920676429192177,-1.531273418679841,-0.16459760415673702,1.629533640535027,1.7012430355628758,0.04525032193865423,-2.687929337876943,2.049046716761675,0.3299951406087444,-2.432723291529868,0.31410261241456033,0.3327655178294109,-2.1069691236358694,2.03839542619225,1.2431802836822272,2.8171918085631593,1.0895638441959445,0.9904038141904503,-2.584368544853827,-0.23204428298446286,2.0964893776522278,-2.1541864570971865,1.927316301347898,2.9834670400021364,0.8891782784390538,0.9990517661238311,1.3531519593888326,0.9759086433352637,-1.9379802284773566,1.7475038262832738,1.8284833556718503,0.15443136377646363,1.4679690403097925,0.3249699876769586,0.14299658717423755,1.4035179021599253,-0.09241074823834639,-3.8549210025836027,-4.565035727731418,-3.6507856455085266,2.639928781154869,0.20154899809031923,0.28709359742769747,1.914391119583513,-1.2068298777026256,-0.6225343767920584,1.8798175946617623,0.5613470783827856,-0.3316322795327937,1.3188198094824184,-0.44388745696756016,-1.5322699575225802,1.6895321428917827,0.9152549397683345,1.3591871438934877,0.3186353634426759,-0.14513027585154084,1.0948034231034007,2.2398442641581,1.9480767368048881,1.6838553323823302,-0.47285085898767515,1.5972494625835947,0.9069488835528532,-2.1233050570954894,1.368932105572944,0.3434604228295023,-1.44162837320658,0.05527314438618157,1.9396483515271215,1.3401849988287613,0.09269868023526251,0.7487726238992591,2.15310536441731,-0.09849815912969351,2.7678463635552264,1.0324176595613885,-3.471625655417747,-2.823315638646712,-2.367460265619594,-2.261480425228458,0.0020590115691819888,2.067582923108566,0.3998601080052829,-3.569330825833674,0.0553925075610525,2.726062691148448,1.4242475199546936,0.7074604699399417,1.984091571656875,1.2229270380105954,0.3630292505428101,1.2628400648834488,-2.3606502431004444,2.381725099820824,0.7196450961257523,0.739470778938602,0.6036294334336297,0.11068726268279555,1.9101207191980714,1.6221687178574435,1.4137497910791308,-1.503399310343752,0.7674490430664418,1.0431778231957138,1.1572968531712065,1.226551365412503,1.0555624629477123,3.5017729154428925,1.4191243440411965,-0.33069390327362524,2.6054635617326367,1.4515308749398075,1.8666432064036111,0.7935440004937461,1.9443180887798333,-2.30793286988409,-2.857459525681322,0.9318664136085636,1.9275172459834906,1.7820139426556834,0.8593748942870293,0.4452122508889002,0.832623924924059,2.4111175843265387,1.932412297479388,2.817983630870639,1.1622798863518644,2.4133670292301885,2.2346839942806853,1.1322064375047305,1.2862430276037555,2.9419573115634,2.067329743510723,-0.21832155080691937,2.5831961233568523,0.8884764031923451,0.14001328725925571,1.715599580669706,0.5073673700129112,3.154488109291289,-0.22583194062903658,0.8493779648802321,1.146578221318526,0.08357020515914435,2.1009886634142734,-2.9954412987968793,0.5456399239387866,1.1586376711496853,0.36443323285786067,2.555677461001415,-2.2205880817077244,2.0100109820281378,0.00021850277395358823,-1.910689150612847,0.39572097015131613,0.39436044471522963,2.1318661052715857,1.9139093090082004,2.9548742486955044,1.0329201079858257,1.3742232280289164,1.675500810193546,-1.5718634234677178,1.2035909266779174,1.488469551170898,0.8558888299511807,1.1279010999303587,0.47942393709760356,0.23146848547614798,1.4674157487542927,1.6244536307238813,0.3171964195416369,1.2740825004902285,1.6030998836183268,0.8812380210809954,0.23516732848686211,0.806716849098074,0.81254434344705,0.420916001934385,3.3345587326382007,2.8433337302242063,-1.4338850738809792,1.732411453837538,1.6954348584993264,-2.8283034754109786,2.5148902776707183,-2.3541466950049283,-1.7299993399540456,0.9773985437872565,-2.2682088214653175,2.1571308005215917,1.1967816612520656,0.21022977467025766,-2.1921084681773286,-2.0009153813280687,-2.461875742605493,0.788243395088683,1.05656411689831,-1.792584568465609,0.23031041465324167,0.669455781176746,0.5290258066948083,2.514186261803555,1.1368274809618288,0.7554871127669246,-0.4052814045541666,0.8317647888898645,0.8386062900253501,0.7260650904059506,1.3883027799053378,1.3532277542793618,1.5640099310984468,1.766739134088587,-1.828521573325384,-0.39026681042682543
GSE1297,-1.7697603506966226,-0.21202748140528788,3.55210883754572,-3.338559309649937,1.3124590604233866,1.71729349637951,-1.0145632993127949,-2.58461600544576,-2.7753933897707426,2.9082377456609496,1.6526918082657445,3.385755898675274,2.482163247810119,2.178061302655205,3.012569127714982,2.031850839312583,3.5935478209542726,3.399577323467404,-2.906066012365815,-2.6213370716509217,-0.04921720311756035,2.9221863257366203,4.045796827638116,2.2750892928029596,5.101627671517997,2.727805444027389,2.1340860319660595,0.8227481839412973,2.3727922165281283,2.837655005612862,0.36899806631912163,2.0624907240255914,2.5579796500128023,1.5188682626974872,3.1696606098150957,-2.316188736335202,-1.1986587528310968,3.4812841739504266,-1.1891447837749807,-1.760366977514485,-2.112252789549569,-0.9685700270025518,4.073182451524602,0.6795814774379264,1.017687293300185,-0.4650258258499653,-0.030172899232485614,0.8488867592356171,1.4471116611194013,1.719145643745261,1.9083418121118305,1.854916350280456,2.4820407312424373,-1.555810721530896,2.4043522456663133,4.472336004014148,3.0292454098090356,2.5589192252855746,1.6549192572885707,1.7220241242327243,1.6873871049841263,1.611865485512545,-0.29502967981501776,1.0914583115820113,3.1569263997865145,-0.4725643591558186,4.278142946277006,3.7945250293371044,3.977743107283747,-0.20122817842885984,3.0024469495723514,-0.4559708285205745,-1.7399253388046279,1.5747915828949224,1.9465349892654307,1.0377516491602155,-1.3655445586199666,3.0840753630618285,-0.8516611665083978,0.8923236287285011,4.6748356723649245,3.353224874807514,0.3879912336900232,2.1445021517615768,-0.7127625915177186,-1.3156575738174496,0.9403101725581648,-1.9302590428731925,-0.17060789808648313,2.3195742145148897,0.788130536225264,0.2795868729180626,-1.4469566273492651,1.9597557313436005,2.8764722178551794,5.688824595820145,2.4835058052511076,2.494628043517148,2.838020585694092,2.703588810911207,-1.6177976155949,3.2224855018835012,-2.445326588946063,2.455410472532878,-1.4716007880141708,-2.058810068495821,3.4073228827208504,2.2333221861629973,3.898209897680021,-0.8297830001215376,5.508622245407312,-2.278177484044355,0.07097465523590595,-0.4231644464792434,0.9273413622410264,3.6441049484812043,-0.5450412159992621,-0.0588081296140724,-0.6845182909336535,-0.2349784433681,-1.7846538753478018,3.2981766395567194,-0.5639290160973291,1.5098581868992804,0.6673925835711729,2.167880858171721,4.370785441012045,-0.36513315275988156,-1.763307044136585,2.295081049495628,-0.3784799749100726,3.1171867703255463,2.2877005468596847,4.74161657241524,-1.7191014205345456,3.362606401209993,3.576350759228751,1.6717713844289148,3.162794564379973,-0.9966058548044845,-2.5716255662677265,-4.970847456851819,-4.148453515502946,4.3317847092211075,-0.8601486293538309,-2.8620959411239584,3.3294840987483796,-1.054003646421083,-0.7768792070107025,-0.4212451409567578,2.130525005748827,1.1090444365417578,2.044854112002228,1.8819357404361827,-2.0766101290392722,1.1886334923741697,-0.8045539761385576,-0.374011805802196,-0.826967036678698,2.1502972120541886,-0.9160126886713457,1.429563799135907,1.1014160065236935,0.6973019405985795,-1.0894084998614748,-0.8037021116539943,-0.4221592544696472,4.205912060872491,3.9117805839924844,-1.1305295414323915,1.873719278794089,-2.4536740313841467,2.3482623770415554,3.312528424386933,2.475851999466337,1.7360173968120967,3.0535342646122476,-1.01573710092614,2.806663967615062,-0.9224442329305623,-0.6581576357041393,-0.5912361813743078,4.027108268121411,1.535902777047725,2.1024041302177294,4.434792463065191,-2.1869469568886033,-3.0446540689114725,-2.0278921180524327,4.068957398232901,1.1074186102807322,-1.8369517134170428,3.8945799118015283,2.7611751042881147,2.217058673793393,-1.7421280593410833,-1.7310447660196049,5.50183073224432,1.475338712532919,1.0045321217348986,2.283703341438672,-0.3317266932428082,4.817870448388381,2.51878989223618,2.920712710236769,-0.7395723103601608,2.9992689698422095,-1.468181968220183,-0.39244719397653843,-0.3787225030770061,-0.36977007209685264,3.604662588531395,-3.9782213642302358,-1.2654769918980866,3.332853396848532,-0.7166226092730686,0.9093142174647643,3.5076255142102437,3.1004650513477148,-1.776489591295543,-3.4755449031073806,1.2955897075594143,3.0614086032881405,1.3111623538812813,1.0525498659759147,-1.3969306658643201,-1.0389351969975666,2.154255647586584,0.8532151715343657,5.293823609417125,0.7709537186131852,2.438541300020462,2.002849410530204,4.634488658875053,-2.13777209338626,3.6193683908634315,2.819621436284832,-1.5145407354431322,3.0432399487430475,-0.2009313543976865,-0.5811826541966879,-1.8164139845068694,1.197160568019664,4.324561531553179,-0.5274460288341625,-1.652512894151768,0.9678771203389178,2.240676776388579,2.2633666621991377,-1.4911721251687697,2.932943847369509,-0.3881269180946874,2.0471561249564356,3.6233974922728387,3.7292647329671205,0.9277815113020255,2.4644245604719397,6.253227692583561,3.524259077793816,1.330152742167559,3.168429493536003,3.8043284396918295,-4.316122210730105,0.5322752535633564,0.787187593505791,1.1809723264611613,-0.03535554280066884,0.6306373673622337,4.268909795845945,-0.7700384000437974,0.4507569270982051,-2.6526690719332238,3.5856806608642,4.288338711213986,0.4259325631364663,-0.5051721237990477,-0.6262736989616448,2.7543304916057716,-0.5998069184272226,0.4287187584432223,3.8589270837604754,-1.6185978884582966,-0.9243304929600195,10.323540725917589,4.996455173826625,2.2105543763832483,2.8773986025888365,3.0724646935471918,-1.1554860993469964,6.685567392777926,2.175440279482881,-0.41066163882188234,3.8821789964617532,0.8388643186932636,2.201338144712367,-1.6602029574507509,1.9744175387310807,1.9037416512076772,1.6107079669586224,1.4349752561895337,1.9439865253635817,-1.3947323580542097,0.04063436466714787,2.2042794878760437,-2.04300602500824,-0.7755592768141737,-1.2541557732184434,0.9721274195187215,4.726172494288477,1.4638553260828318,2.001532164653451,-1.4359646601802218,4.858595185753401,0.7473595321246264,0.8589316152521939,0.5947527957358566,0.6261558644999611,1.6034324707521745,0.9826279050705875
GSE14762,-3.734822547563273,-0.8453896043573312,-0.5358134063376021,-3.660843958177119,-0.39851826316765965,1.3727519602814904,0.6778164507688479,-0.7592373574468158,-2.49403362217385,-1.4830984906313216,-0.4809582455300648,-0.19453879009078734,0.5075049988771636,-0.2790422264792542,-1.1814517799318551,-0.18298603946799558,4.189064567369568,-1.3577595020076039,1.4449442921290856,-4.457730636358014,-0.31359077090616266,-1.4093982485155858,-5.058519946598682,-1.1176249648162484,-1.4740589131075412,-5.906920321644228,-1.2777167101429996,-4.526151002068506,-2.349327194719698,-0.8018379989499133,-2.627004794104989,0.314206756401836,-0.6672288101013408,0.031467324018355385,-2.482831257035672,-4.237192862682283,-0.190670963318884,-0.02228684874276391,2.361905138831602,0.6261064536649391,-4.5293022546979165,-0.9220204007494799,1.2957486575746469,0.6195284595131313,-0.8553863180409745,-1.350080769855849,-4.201282423492463,-0.4659967318607651,-2.316237119880755,-0.8401479241037871,0.5790981425048698,-3.52335030108637,-5.026162514791747,-0.1659239762752567,-2.034370606892706,-0.5545861423806586,-6.346869760783518,-1.9684798180697456,-1.3565495370841547,0.15369401749675413,1.3963857189794067,1.9129552581997962,-6.3529790507910535,-0.5853814512628827,-1.5679421296602913,-2.2343606099525224,-0.28948153926555437,-2.7888483321304682,-2.3028022912366337,-1.646771993517146,-0.014631230990616442,1.7250132323464802,-3.7870732124467,-3.9250118078094576,1.1696085863542127,-2.1034986702017937,-3.2042867814625513,-1.2984544991128066,1.4545280515788221,2.6714259231099673,-1.276433800409907,-1.1828822456725163,-2.0400147645194204,-1.852458465238021,-2.102580729182736,-2.2080687181313747,-3.451632948522236,-2.543802202271426,-1.6379240032221338,-3.965220022392978,-3.8883661591337426,-1.6079462553554953,-2.363256124614635,-1.7319392655127255,0.7740966921383006,-2.0998236672285726,2.765749922846955,-0.444196886450089,0.618288275393314,0.2245861471058533,-0.4455600366122455,-0.3724740969520876,2.5354303350845844,0.24251369771473083,-0.17349848167768758,0.13063980930549426,-1.7052364128045079,-5.85407940230479,-3.193158924731614,-3.9184814763171074,-2.582560475478667,-4.18231971169251,2.3705812346850528,-0.20888450124251573,0.5067799410934904,-2.335313730078072,0.502781947501116,-1.3803019000701768,3.0603827489947606,-0.6811548981837628,-5.430793675951221,-5.422037795507863,0.37583279569719646,-1.505205617786429,0.5614596088374538,-1.1161250551782194,-0.3347343681974934,-1.1555859142535445,-0.08546381170906064,-0.6736955155212596,-1.4703407243227278,-0.9889497947912962,0.11444226418278933,-0.5458141482534534,-1.6378879050804716,-1.2148097278474659,1.9515055459993627,-2.110057868784596,-6.336402747290252,-2.456908512871829,0.12034974874292038,2.0933002338717293,0.6265060728806996,-1.9204992136508239,-0.7526492442768927,0.03985408838704909,0.8973909541230479,-0.4229494861447623,-0.44452439348415057,-5.529789844054798,1.1807919618103704,1.8061018402079234,0.1768280870213657,-3.42188965058086,-3.9874354104721825,-0.5355660039815738,0.23662510749836022,-0.5949676561008226,-2.4546448847904814,-1.774500301490697,0.09261916254781602,-0.6150879671246569,-0.9915530878269302,-2.0612086136166754,-0.32558079809831025,-7.330666271224427,-5.200002952778807,-6.378899705016551,-0.5825373407621683,-4.046655010827097,-3.4943774833102594,-1.1599056120608977,-0.626287523152573,1.0077318671709725,-5.832803195297632,-0.9328731444220281,-2.794160146640337,-0.3058473605591512,0.6347541877926002,1.1075511265939981,-0.13820834785549652,0.29263579000274687,-3.262458974204586,-3.274605628110531,-2.063933164264852,0.4154565812930747,2.325606489616244,-0.6587589518106268,-4.488960434286073,-0.11622051330192654,-1.174890133561536,-2.5040188661046083,-2.1280019049510073,0.7562998057853871,0.051103384968063166,-3.607383508064967,0.4967045321497635,-6.534210013130964,-1.3513459946609736,-3.8579314617065164,-2.3644929503617114,0.2907259216491429,-2.0302574165025975,-1.7282396435208016,-2.3732757365450112,0.8912247693382961,-0.2674698034649907,-3.600722374009771,-1.8867053960144922,-1.689715345473629,-4.783971615911402,-3.312407677998812,-8.320573154933982,0.26811890953154216,1.7008127916733562,-0.8710986828054069,-0.4613060110201342,0.7248210489746865,-0.14946412135494808,0.4570570713386053,0.7699735623636313,-2.456299217191282,-5.718563169280149,-1.3948478705785639,-2.509254503132883,-2.488834951952664,-0.5679294409399245,-2.423047248411891,-3.3982835662196833,-1.8445308669259433,-0.8686087926405027,-5.017813047415087,-1.7087964509807445,-1.9863679395497635,0.07259001666134532,0.6954858637507791,1.5830795381828717,-2.4724473739985915,0.16492557007575023,-1.7560589662928852,-2.6010215315282266,-5.752334982477903,-1.9865969862417427,-1.6277278818066598,-0.28606349922602003,-1.6639939488239963,-1.5532108391647703,1.4458549444581439,1.8279373374455143,0.12762218176026138,0.17786896172697472,-2.2670879585033368,-1.336988665910414,0.30761452663705885,-1.7013547589845692,1.1713751590494774,2.0311787841203905,-0.9637154631036219,0.4271599200725665,-1.3389045003848679,-0.968363310708436,-0.06251432080343747,-2.8267385305451973,-0.7300629572155155,-1.1106231698880775,-0.9664356098462525,-0.296502174020272,-0.10313021286462072,-0.19684295259051762,-0.44452628783470194,-0.6219003523214893,-5.1269479000086395,2.048731070343128,-5.5227079643657895,-0.3492967490149847,0.06774121917436003,-3.6219594957023054,-3.360547325827592,-1.2351228601877464,1.6073085093020136,0.7861002049880259,-3.480291683821967,-0.8259086569234233,-1.5373563900839649,-1.0776519962690334,1.0792324504163426,1.011703804188186,-0.9694088181998085,1.988666149006171,-0.7095242466616054,-1.3689381254677928,0.5329050862784362,3.7390473942199343,-0.9673431696776809,-2.0374435393520587,0.7348709572836989,2.9361643069058365,0.767754432459945,-0.9014022580501301,0.41783362990523526,-3.509868634765308,-1.7194555000567806,0.14799966972288714,-1.575968216541675,-4.210430969380739,-1.846739319387083,-7.198711069026287,-0.9584980162907802,-0.5690911829350888,2.3453032926356907,-1.454350636238227,-0.5385410005669752,-0.43446486507293064,-0.5360949180047243,-0.42556698285161215,0.02696448553660096,-0.7619371590427935,-0.5239287941928178,-1.5898961155320925
GSE14924_CD4,-2.045641549268226,-0.4623877185747574,1.583434151265558,-0.3288682190607111,1.0384568803556735,1.078608004825754,0.27100395743678135,-0.2223421078307069,2.414240693062878,3.0113769834183644,1.5939569451583409,3.6050573531759245,2.2893437861265373,1.553240638061803,1.0600224615910159,1.720092046816669,1.254309183750805,3.1033538186425487,-2.3597485191399272,-0.38565340458120967,3.0159477249343256,1.2004803352320266,1.1194849178572843,0.7545209567349201,3.0432421107031504,2.026338177011803,1.338981803697414,-0.9434796883035563,2.2336581856461524,1.5358273080474438,-1.7727783716937737,2.4326170291751845,2.2788852569727327,2.9277725518524895,1.7355362134898562,-2.5138860738004234,0.09417366451767445,3.713508997544711,3.6323364022609606,-0.3925172028854648,-0.5679822798466982,-0.21507260929867805,3.9726363911433453,0.9665038599764516,-0.1974665120158007,0.4255387019472853,-0.4101272088683508,0.5302029116782876,-0.34826122877146043,0.806559197266761,1.9754581777981048,1.033023889063433,1.081706738405646,1.7687283055234821,1.6219268858461162,2.2770845691280783,1.8114775473196112,2.239166143301483,2.5294520644197203,1.033001158047675,1.2948989275059923,1.79944846507111,0.1862614629799995,1.4015721039934597,2.4361726676186493,1.923099940917594,2.9259845531220208,1.0384165212912815,2.5514395309607036,0.5489859564723973,1.9864598748000766,-2.7634639356156345,-1.977907865429689,-0.10017000958403822,0.8479966766762668,0.2897198742521902,-1.921102217948244,2.8660710069560986,1.4512572873881093,2.5430185393843523,2.924317935001059,2.2071249881824975,0.15565292136304573,2.0847648025795755,-1.6590924325245247,3.6643932912223103,1.3739785737855141,-1.6929877431030498,0.011812257884197265,1.1724789311141715,0.06366583457392587,3.3202023714991915,-2.4901453947800323,1.1038444371361902,1.5473255477100551,3.2338727276253945,1.719356275777165,1.6380686929666473,1.4472638661791126,2.0694314794577133,0.18833716410263748,2.1757789049388316,-6.3754259692783775,1.2826211884941854,-3.0065249229961784,0.8853712765858487,2.0620696754628622,0.9079348042398211,-0.1055930156151752,-3.3070610258969815,1.8713870538219204,-0.4487202353843798,0.6164010976257033,0.44693110959831445,2.1193329368755194,-0.07483285017334841,0.8077447821208296,0.897721727363089,4.313351898967086,0.22543985871877675,-3.4481600695683663,-0.0843783551462792,1.3555866154377871,2.148983492693365,-3.249727754096783,1.911633307848148,4.109950615852282,1.557237922257628,0.13114243459492395,1.8203056364810937,-0.34393765014514044,2.7860291419742698,1.144853188494565,2.8508243456447717,-0.5665678312472723,2.6318674687786188,3.7714562071583697,1.1641184927125638,2.0265063806768135,-1.672692873347281,-5.145264301114442,-8.007124364253885,-7.266492254998598,3.186683635569108,0.025010408619400026,-2.3910447178362517,1.7004571901297088,-0.822936050354427,1.2020363146604338,0.27471450319404606,-0.28076392784983667,1.6247121563414213,2.538540087770197,-0.3881219455189725,-0.13716947379513306,0.45043280048303647,0.13946852934233067,0.24379467811056216,-0.4211210426826833,2.032901388188865,-0.23625026230259108,0.37947410493234535,0.4472364020588182,0.28237145009792175,-1.8047868768991584,0.7335305336985165,1.2199403092469943,-0.07035164737939362,2.694859050360653,-0.6431930361497026,-0.6832681163170785,-3.5910419656582344,1.8982602194727096,3.419239283958454,0.5098064012502863,1.6289066429619705,2.26297652949121,-0.3933648947060289,1.7760279163777788,0.5543781013641705,-3.5049920816351943,-3.9464968505137015,0.11503684666748376,-0.5281729440728073,0.9687922429025889,3.3018182575095674,2.0518063509098456,-7.612164191691911,-2.64814797006588,1.7442158751913788,1.8277985006093875,-0.5623534284509014,3.4488809875813193,1.385065787276453,1.1991414214088514,-0.21953305465135745,-3.1132211804615713,3.199212947615088,0.9065274891218018,0.3257490080506627,0.10290373835108291,0.19364094350556058,2.482405215589412,3.2359385091154653,1.2938586479611909,2.179307348287507,2.4423293281632326,-1.0409948043506267,-1.564632696241087,-0.8041106511268385,-1.1850141372792014,1.324642322315267,-0.39871517872188916,0.12358093508536948,3.0177271661513694,-0.9224011489143349,0.9977545910664769,0.7234870800716329,3.6444776462324335,-3.6033718221352378,-4.986479180462478,0.24409762940810836,1.364769696291771,0.5991216403101272,0.2736281466336339,-2.0611136772674405,0.3958824372345243,1.2322091316084267,0.37938767627681896,3.483478236791414,0.39069791276560684,2.0203318150383507,2.4072307034289286,1.5631583051828197,0.24697899341533283,1.9858721000137345,3.2376043505799545,-1.84387133518967,2.175704279250671,0.21639954590765337,-1.6215213353726716,-0.7058007326593372,0.5942150695289571,2.316154063615625,-0.1095999947200841,-1.4688280814727566,0.44728509635193814,3.882918149206901,4.498562020303527,-3.3781819615575523,4.173898602964478,-1.3505493573823435,0.8813441243704809,2.6387400001466195,1.4161986583414012,1.9322837999733349,3.9298615850335636,3.2071258580075575,2.7562657579001297,1.1552793496676146,3.4223650773030703,2.730078269453346,1.9220215434825076,0.11756334257650586,-0.16727416001023385,0.13003696057226796,0.19589946510603887,0.45435276410198716,2.9613474133092152,-0.02834228211474954,0.1708585737516555,-3.4741093720250684,2.4717967514827826,1.1723747779944882,2.466421682871396,0.4167591095868999,-2.062285046979957,2.8375275366886092,-1.0052979298474107,2.1649506254002087,0.6728672334995257,-2.278727218059546,0.08751621018656897,0.9771320816068098,1.3505760918747975,2.2914738502322454,1.1130531089382807,1.487432736584293,-3.0694892035541317,4.90691222178142,0.052523383975669,0.0066660004769065586,3.1676721502213443,0.3618706625763385,1.355870376705698,2.0931783340637025,3.365950450336065,2.516052487152391,0.9965541469861252,1.6494886199333023,1.4834834196778977,-0.13943384320377836,0.01778592003028917,1.0038425493753926,-1.8783772684818831,-0.5281761781680983,0.29294551473674696,0.3902580675354067,3.805815618374931,1.3637124254922626,1.9777419484746772,-2.091067667606145,3.0940649121518593,0.6894939756005135,0.1981224054145638,-0.05826756930378184,0.28691868269128495,0.5012523574172382,0.47339410043732466
GSE14924_CD8,-1.017651618800647,-0.842436809757682,-1.568227407321232,0.47810299377714643,-1.0770265173778732,0.09843967444150237,0.7924747008362395,0.7238912108143938,-0.4169981984358299,0.8269670231436808,1.1900349033565008,0.9716581324574926,0.6395412715239054,1.2742193134009059,0.37548889153141435,0.9211984072588968,0.6061424131183066,0.863095013866494,-1.6247866118366563,-1.3587721249921214,1.733771850784514,0.4268023524977045,0.14795426248168367,0.4859144291981225,0.30040662363582593,0.413585396664587,0.3523737663369521,-1.5063894661937398,0.46063130801646923,0.1938100959589348,0.5727851928085166,0.7486916786532187,0.8701782408169457,0.9545387626827816,0.8506247108525328,-1.075483050865412,-1.2104462465870791,1.2971381198126621,2.417318470112653,0.41036379817401947,0.3216557832407279,0.4341048931882618,1.063422162727258,-1.1668527166364646,-1.1959757403671238,0.41439217760384395,-1.3043732664643959,0.38801912528852117,-1.484746182432433,-1.9027560132446366,1.0559033019594741,0.4723542349034549,0.3271185128619648,1.2642158918286828,0.5904843355573709,0.6850212787574096,0.4915477191314493,0.5455077310907788,1.6202737511607266,1.0049579982465326,0.5358475365952726,0.4441100661406934,-1.8067722240834443,0.8004142862081343,0.6315099514207868,0.0888169194666631,0.6742122654714002,0.2895401239580919,0.21425164939047517,0.2455929119105458,0.9727442581584649,1.3773261904537037,-1.482264839582559,-1.4808199245129727,2.3010252268411615,1.023781641794975,-0.9257890977802214,0.6721135081780175,0.9301250668551326,1.5437955536372365,0.7417421334692047,0.6079318350149036,0.06362944426266985,0.7286157287081143,-1.1418141831278175,0.42101200533449984,0.5693110149784505,-1.2344605281471552,0.39077552243703095,0.7886150617187188,-1.2544056730910635,1.6375069097311035,-1.6841734398372497,-0.07696993392744257,0.7880720094025322,-0.07547792600166806,1.3632739950813866,0.8870627502587213,0.519247466643057,0.49485065949706397,0.0033371698295442485,0.3175773054747487,-2.248415667679254,-0.05308129685231365,0.5320778886718499,0.8573196764989202,0.7562753448666828,-1.8545728268885673,-0.11634476182945205,-1.3311878620229807,-0.19166480906286437,-1.1027617496194517,1.1946598045708996,0.6005707985060955,1.4956260152272796,0.11113679164751934,-1.0159177707973557,0.47039430655698466,0.9314905033339934,0.4036906658853188,-1.3969436836634095,-0.253575342918484,0.6573142850702588,0.5946218973382995,0.5322151868965747,0.6049534835881493,0.8719850573088399,1.3575515039300634,-0.9136071266141531,0.42999891427977444,-1.0965702291090271,1.6592186555923634,0.512807862722276,0.8524297968642169,0.9134321138576099,0.6893200002565733,1.5055148331414954,0.8447312530018014,0.4015944627258177,-0.7550198868669624,0.6092994749031927,1.0133817396080127,-2.4840939087473957,-0.032712589255959074,0.2161583997999166,-1.0249848710622407,-1.158152369152891,0.5702084530490814,1.4676806330287515,-1.8002362254682103,0.22841881553120713,1.3205199558541723,1.1238507642046853,-0.9172010179503979,0.7262585228317061,-1.0182422410086225,-1.1814036675783959,-1.3506102345183002,-0.7288575974363813,1.1836189138289592,-1.2438965239192523,-1.5321760198850356,-1.9875856020270994,-1.0764834496599325,-1.0653853435669647,-0.34033478247043075,-0.07342186206617128,0.004833643436737448,0.11598384712830619,0.2221232624854482,-1.060218041733274,-1.97778501704278,0.04308797137051968,1.4630863764765498,0.14737786913409603,0.4686384014548066,0.4609264703456322,0.7386092085278757,-1.4574644119285827,0.058017699470668774,0.8879543597956102,-1.402998691855766,0.5992358271926806,0.5371556304487418,0.1536964547094617,1.045282250654563,1.8748466087708762,-2.243856863439313,-1.170181446435221,-1.6429103943031753,0.6859074614302584,-1.1336898345501538,0.5983558221994805,0.3967400605983516,0.7469256064088936,-0.8328877167099411,0.9292249670012125,0.4344003369804173,0.7843529948466708,-1.0864776098942905,-1.5279582317329483,0.29131447927792314,0.38025308977008954,0.5721321292644864,0.24982316004730887,1.2944473147037105,0.40347928079933854,-0.10680582129983558,-2.078342493717605,-1.2892677338872531,-1.6252877050179595,-3.188717114784546,-0.04991448652065178,0.5405521278490408,0.38452702954962864,-1.8590511908071425,0.7628713458141287,0.05337519628834275,-0.26246857294692033,1.1731738720487925,-1.8365230792152125,0.6955127231238665,-1.980148863966679,0.3262938007605195,0.8038215906202041,-1.106543523339993,0.43355256355281185,0.2318381348224154,-1.2057051783988826,-0.11158229015377752,0.25023007726553703,-1.7786931582316736,0.6989612320302078,0.15160612955147043,-1.0957714177672104,0.13624838447428328,0.7896884661763025,-0.8903694812277047,0.4151566823564323,0.3539138202075468,-1.3342507175567673,-1.8436399269632808,0.1786564703235567,-1.7275729382166398,0.16171662162159747,-0.24428538547144493,0.3008149171363328,2.394790232445499,1.4641432202942057,1.064587058738122,1.1420147555185411,-1.7567069511321038,0.9227696856573734,0.09027218982323272,1.1929061173206084,0.5039989712676393,3.1022432074480006,0.6456505280707523,0.7675259067143864,1.0485366331630865,0.4859263950046504,0.3463186002129053,-0.05855111692666302,-0.8985776940745503,-1.1033162533953136,-1.3819687269248615,0.4171233624097629,0.3902996487409442,0.551653211662647,0.2126771225794655,0.6958582240899674,-1.6941458960898925,0.6714731649771143,-1.819585987335669,1.0354541384921476,0.6217306594910761,-1.3943530968527527,0.15368316672055207,-0.9560629948919458,0.9827276470201978,-0.2002025917789979,-0.9985945197821365,0.8499909192054169,-3.7309866267407568,-2.1677636261407054,1.9671969025961278,-1.1735333630905638,0.38116641301041965,1.5526618201504236,0.6613960371495156,0.062386650972121954,1.122324983972091,0.958982067970263,1.2905426483403448,-1.866176988436425,1.3253430481018134,0.9488373664666564,1.6313858767987521,1.2562098326603142,2.068188261932108,0.9935652846067966,0.42290761183120384,0.36154619245032665,0.5189343551726288,-1.1623588953902735,-0.8530648958285143,-1.8154044303555812,0.7123496750822687,1.6077106823871066,1.052863893872854,0.3112639696623284,-1.416002192189086,0.7585760114992559,0.538191272296859,-1.4271971266530188,-1.344418266216516,-1.4295112139673591,1.1553802314704449,0.6566355283804888
GSE15471,-0.625742389993121,0.7276154445645387,-1.675038433382698,1.3335414298455117,-1.165111482708911,1.4867571543015412,1.5980203391253134,2.0912632135611124,-2.0643419673600416,-2.1741832289180962,2.121560972548952,1.3383710405724896,1.9119483496551222,2.658688116997114,2.2740600730811664,1.2933718105794803,0.5692157737317801,2.2648289842152023,1.1070997892961434,1.1923481700398404,3.0433434145043243,-2.389617375298321,-2.467680817664094,-2.267752753907263,-3.279286471047525,-3.621770129213993,-1.8338276678648036,-1.4298959929029431,-2.3914511420605273,-0.9517251167464539,0.010017981758106939,1.6131033473695546,-0.4123505476088968,1.6678810593720945,1.698425873628218,-0.3893707582782134,0.5965642500256911,1.562317811459891,2.773597759748125,2.1542543367893456,0.8187967154532545,0.9871255797631333,2.003909134755235,-0.27988064262912715,-0.7509903662681798,1.3424706794566916,-0.5079088080606889,1.0999756392554785,-1.063165536502642,-3.3337278129919805,1.7514870825630136,-2.62937909203258,-2.690955582395039,2.147796179264899,1.0274190384931368,-3.120956168642799,-4.29981344018501,-4.203117077821182,2.696729263996146,2.3953366072028053,1.0679962362572963,1.3176721311245994,-3.8319173992986255,0.8368174881309933,-1.378605039331981,-1.8380150766383916,1.6981923048723637,-2.577461320563717,-2.897751138702697,-2.22248755642,1.5718649743055462,2.419367146483656,-0.585072324808684,-1.3313470849938605,3.307851675458264,1.1529634342676758,-0.7608304463271919,-2.1981790519794107,0.9922281419368788,2.3140958034758987,1.2343055211548182,-1.9920982274249643,-0.45385570528567515,2.170096488250909,-0.2528545008940491,0.7580050432550205,0.8591019158600786,-0.7655511174658355,-0.1794123133557526,-2.2875584221703007,-1.4582942002148314,2.5765129230626953,0.6433495710910369,-1.9885637611471596,2.3789538647437176,-2.881500198703305,1.340317308103342,1.7788420783015977,-0.864568686609524,1.6121940178417726,0.9196246408769924,1.8324017121922447,3.345792933621372,1.7317521820089146,1.7877774761891556,2.080241677986348,-1.8307114457111902,-2.579599373269675,1.0813113639821623,1.9877190334727457,-2.7414492483358868,0.8748230500738363,3.0763533128389358,0.604384259031779,2.788964736445697,1.1001161223648004,-0.5588433433151495,-1.6303243629563298,2.966662735090744,0.9410985998677526,-1.2103337853719887,0.8988988447303397,2.105086116283764,1.9002705382333875,1.265290353814203,-1.815262920232506,-1.799062135873105,-0.7825021437565534,-0.3936398223753492,-0.9366847735732939,-1.3583157187433115,1.561036870823208,-0.9000803617681357,-1.7226160309277767,-0.8361043572717755,1.879628651531723,1.9248545329501168,-0.905028725985762,-4.021345247503828,-0.16716864474796225,3.3838778578250475,4.259940103653706,1.5407970830030333,1.8388916756402247,1.2601919234393584,1.2211068544968897,1.4692615750740061,1.0788794372608865,1.7581536991715265,-3.2389683218733674,1.3760334756639172,2.6311636585300455,1.205226958385146,-1.4841666965645546,1.7265845394092958,1.0859346724533385,1.1191711506904987,-0.8989928854801262,-0.5285985307223064,0.7707000211230788,-0.4184283368294275,1.3647159726735703,-1.05223395733258,-0.9262421673862412,1.3457876055714162,-3.0308683665066956,-1.5694348843846355,-0.8807697486437663,0.493421796300944,-0.31216464973113345,0.9633454120806608,1.407641814474038,-1.3485698554833894,1.0015609615815122,1.1260899891259122,1.4054099409263123,-3.8186436207331442,0.9931677833870342,-0.8427806236880994,0.8459391059940827,2.8908466593980084,1.965439792180777,1.7611973884781735,0.954512553749427,-0.6307581162808111,-1.865168775453938,1.1419928284518803,2.6955451529847694,1.013324721752694,-2.3017724908666946,-0.9025620019327671,-0.38062697736777934,1.7463821420281853,0.6194073850258336,-0.49687397370105235,-0.9011419164596691,2.27154835554694,-3.8032514748662716,1.355668107351309,-0.8551270908673044,-2.313096467182461,0.6022501149665318,-2.994393593497967,1.3109825585984007,-2.3781575560227433,2.0772787950608107,1.1147524741099457,-0.4373388113217432,-1.1963345013327238,-0.6769920960331004,-1.4567430814768034,-5.069652227786872,-1.3299201369825717,1.233687856728204,2.1386922951369702,-0.4111442793924093,1.5061380383513354,1.008150140674394,1.2531261323312235,2.1560031615069177,2.9757703052666695,-1.4556623660179666,-3.4059334099991343,-1.0883815204350178,-1.293004401451556,-0.2183576316099671,1.2004919710762278,-1.6028191816563087,-0.4857001884565829,1.352842860893503,-0.5124470978435431,-2.7345835131153926,-2.078122074846515,1.3330317402071943,-0.2360412085018306,0.9990149397691961,1.745177984833255,0.7921347387472211,1.2443592425222245,-0.8125730384244595,-0.8902443857609396,-1.5901426426296572,1.0082483808795009,-1.9777776664625069,0.28012188596743104,-0.610919810194799,1.1194592123407712,3.0294173113993916,1.6341314449859512,2.070237415275723,2.79943650356855,-1.3734567673231608,-0.5010816868727317,1.475330136228236,2.9295959382674095,1.4372852333698862,2.4853614755765316,1.5432716402674969,1.600357464293292,1.2418443318664953,1.7149610590242863,-0.7917621239190381,-3.3388362402660383,-0.4971164087633759,-0.7301770771800092,-0.8788539824183781,1.6042799454647771,0.9860917658878857,1.298038255659729,-0.10255535299245826,1.071942968903395,-0.4342620821742205,1.0866072470870258,-2.4343391235166654,2.235135455132151,0.33772424106857163,-0.9108206754900223,-2.503019463830887,0.7901260586851271,1.9497421301428743,-1.0085826344940656,-0.7175994559436021,0.9796331218250086,-3.7792649486280308,-2.263331140636206,2.1411409933784373,-0.9726109727323132,-3.626605378595491,2.8071039737077004,-3.0407743199008914,1.774744952016111,1.3564223735586691,2.213640765891843,2.2072453680104966,-3.3683238939079203,1.2421375613087993,2.4517037910358352,2.8914163659826375,2.0153619956901894,2.972171702277628,-2.258109240260576,0.9955653418830464,1.7809666956230479,1.478289225274059,-1.3324488883872214,-0.24654580854660602,-3.9244241582746073,-0.26995081294802326,1.512927841469119,2.3372578315108554,1.7071979249849847,-0.2618961029098492,-1.516350969099019,0.9410851875749161,1.137504573581288,0.823860625757416,1.1449633817571263,1.0367021635622509,1.2023236929615506
GSE16515,0.21212910002449226,0.7179333725935981,-2.7997805128841167,1.7518397342713599,-1.5422602340889777,1.227049551501075,1.5006444268583912,1.93824450740563,-1.5871056297963824,-3.3434332503678053,1.1513658140141825,1.0026293304794016,1.0449887202175578,1.493128989127124,0.7798077042907199,0.37909989923519427,-0.8236451170352381,1.5912698306039077,1.14250595249645,1.3786180788457394,2.1662912158544194,-3.4479025884786187,-3.877237605393885,-2.9644873309523025,-5.17237200831831,-4.9726551713916445,-2.6340832499758995,-1.5716038005014947,-4.652512184729584,-1.7942821129085293,-0.6132340916563936,0.8795839708929607,0.7749570975576057,1.3305578586334277,0.3526305412392194,1.0561858619032596,0.9868790126424837,0.9113429219473617,2.8550373029752762,2.4776209962376243,1.2911259863563294,1.1121574308110889,1.1742521184019432,0.3758719992230834,-0.8081792319247744,0.9498662668155826,0.5386773312845773,1.3410605224112768,0.41675969120291273,-4.270873807868011,0.9317967153718276,-3.1629844676501255,-3.545147464960711,2.2981310054048154,0.523572585546723,-5.332104135315137,-5.724951590826755,-6.33261889131085,1.5846147628862541,1.2942235437026273,0.8709062451391992,0.9341652550125035,-5.260347145682074,0.4414923020514402,-2.612291333284376,-1.989077381328854,0.7101496576716808,-4.74104054416303,-4.6945831633447135,-3.274157255139569,1.1170957186373536,2.162959708824699,0.3119506988952764,-1.5268772151394132,2.8032687775183325,0.6751650817875939,0.19071372505226283,-3.3987789172499645,0.6060808816770897,1.9133180004888246,0.11277385016639208,-3.2151002623781406,0.576794324841736,1.275345302782203,0.5475593848830254,-0.13348573014132012,0.4945844903695095,0.48254671635264473,0.12357690784651207,-3.502774856260463,-1.6178167520344358,2.3417498391546747,0.8245993122761838,-2.7409692042680103,1.3417851891646413,-5.445720321747016,0.53162188311085,0.8038122332888614,-1.5394965961118996,0.7483090402073111,1.4794087285201198,0.6644915732456494,2.9543952898111563,0.636621531625683,1.5205308626067806,2.25891014560673,-3.21835275162242,-3.543874891763338,0.15005546833145408,1.5979703736389834,-5.655327866367662,0.7684963887705561,2.144694623540045,0.7819200375693948,2.0662160835751586,-0.15999642142467912,0.35153227042088564,-2.2641643215021148,2.3016152402050594,0.8972560520415357,-0.1096278011787143,-0.016991165858314995,1.7111161555460752,1.2349579078780788,1.2177978256868693,-2.437486468883597,0.851668815078952,0.6658708881211755,1.2489214937401094,0.7206968932436335,-1.879181485732359,0.9221587594305956,-1.7125482461069623,-2.740412168514423,-0.6101878484664649,0.9419161355761118,2.1826955675192985,-1.7519564427064795,-5.693158033587049,0.6131325088408116,2.942281063926288,4.860093353131127,1.05105829587823,0.8611868645609558,1.3004110589842224,1.643665177738587,-1.4030246425233188,0.7809922717675001,1.3359773136257944,-3.9590293437185213,0.7628987039396427,2.65568102082208,0.6968086087609378,-2.114348978421919,1.891139184989804,0.5723295389471798,0.7783171254508408,0.2456567556619285,0.34943110570224617,0.28256648815510316,0.5566402335942998,0.48308077290355644,-1.0912705129904121,-0.9481363002397708,1.3215465395091326,-4.3894666304196726,-2.1734201495018977,-2.2928645024560965,-0.5262320591707732,0.43404343609864826,0.13812696199581947,1.6435510708027892,-2.5265994826281655,0.676392743667823,0.10902364507852956,0.5420493594046392,-6.094192028890373,0.7855851586681755,-1.3649716005979804,1.1991872968692678,1.9825712445983164,1.4388941764713055,1.26822055737301,0.1974351861028229,-1.7599864799116187,-3.1251322975248716,2.3947573327568517,2.5915715394140575,0.7631382788443961,-3.271090507333524,-1.5957550924462318,0.7022627037144935,0.3738038718655347,0.08001304871610121,0.4081003407996043,0.21803415579425744,2.4935118663281632,-7.723344076710751,0.6729485759964191,-1.4189331706814343,-4.079153369635953,0.5940771894897288,-4.272777799846868,1.0225188680420634,-4.176282491591193,2.2467232320420405,0.48037917090670323,0.07011046851449323,-0.08413391348730676,0.4080992464786127,-0.015357352026890895,-8.87232193279896,0.7551981937101296,1.0522485837363522,1.0989558693454513,0.7842877375405819,0.742446919665167,0.42233005828133147,0.5988701984036605,2.5331316824213723,2.339509101727916,-1.5608424487464228,-4.523341494445104,0.7307408247936763,-1.414548437461008,0.6932643013027238,1.0367341432764794,-2.670037245850261,0.5225928072617332,0.36721660192921746,0.5085657939554923,-3.9469814725486354,-3.8128098975494744,0.9017706240110342,1.3564217519412614,0.6979000583988288,0.6983804208580371,0.7952588344648702,0.34297679529690445,-1.0464318290460384,-0.6944863635122358,-1.4123032133613285,0.3913665842801779,-4.053191615102624,0.45668274453269925,-0.054436042061971425,0.7627143301211953,3.2290390828334363,1.4324109679111674,2.1265757278698625,2.1420660625833663,-0.12034765005895749,0.102825462073359,-1.9784003221808406,3.149023145477635,1.808400916571601,2.655585556249464,-0.016830433850024886,1.1298751853442772,0.4319575710271906,1.0335800855706674,0.20377085394945596,-3.8936295341408265,0.4860177235289934,0.5764874573058113,0.41439859123057354,0.9347720721962398,1.0817002400341256,0.29453410174155004,0.6616967481106552,1.2249254922296302,0.9506355377157082,0.7984659612075827,-3.7844418888385083,2.660310671984587,0.5191958749267894,0.15971020130378863,-4.818187037266956,0.6440897078959481,1.9887322636203453,-0.26548465361237616,0.21744533365078653,0.9812724669920122,-7.5630609058205645,-3.3894095259062134,1.8465449647770613,-1.7079134083068306,-4.869238360896004,2.5518858725828473,-5.846535630294778,0.6601953888930133,1.1002786002646157,1.9518071962760233,1.7087467928372106,-4.245519719873254,1.2678003313562693,2.541378915084306,1.7361353989842534,1.0925859785919296,2.1891593842824237,-2.472582084084328,0.6222002419319071,1.2985674465833694,1.0460883493456783,-0.9257448451714497,0.4364629616657509,-5.349311447398428,0.4801261994658553,1.083681447283945,2.199656860766763,0.8926285453881463,0.8138347608388663,0.08078279925646835,0.35777556321094844,0.33618608935127503,0.5864052228483184,-0.8029897648219962,0.2953751460134926,0.18410915412187082
GSE16759,-1.6947165181566333,-0.22314120848894156,3.3110527455465464,-3.5556599123025214,1.1344438671552062,1.6558403221571303,-1.004455067426031,-2.74494720688583,-1.4081576818334918,3.446155345527426,1.841737334247005,4.175144359702505,4.334288870540425,2.351126151667195,3.5223674457739222,2.7276978533224443,4.9892551118281965,5.281427174050332,-2.718815345856362,-3.1499625955921617,2.194241815709689,2.9546615993052234,3.487145351015873,2.161175029504478,5.255846143389419,3.4027352825810318,2.2015668661627346,-0.41171527310401557,4.527936435865386,2.3183985643592937,0.6774909459787766,2.8925452172888337,2.707429954190357,2.633049357140131,3.06226169494506,-2.6123397006759643,-2.2366115192545206,3.399209874018828,3.8134594450416675,-1.3861238538678078,-2.288731203254501,-0.49537663967058587,5.223189248077893,-0.44743395321189616,0.7583516091465119,1.1467491924374156,-0.6618163100990192,0.9964734342771674,1.7323573955726899,2.5719965454338727,2.653336991939899,1.6134175659977446,2.349995709307764,-1.4663834273518577,3.1544779343862475,4.287048262999202,2.9099598554222785,3.2107292757789847,2.97521659365062,2.251753204828783,1.7848817734388782,1.7711167470266642,1.4521489619557786,1.5454564985106007,3.187713240445085,-1.377453730505739,4.4504547863019015,4.259269415645286,4.187945700351133,1.4374179208435027,3.0523467934283697,-0.31127308937247383,-2.187037513583558,0.08421748260040367,1.8368653804230675,2.143984257712117,-1.7740073119044113,3.589643460462926,-0.49553756116301506,2.4053471271510523,4.830086611199671,3.693866105524803,-0.14385893984131903,2.828773255063234,-1.126657519656683,-1.0192708807380584,1.355050633334845,-2.4740331202011268,-0.10731483443813146,2.8357860060107027,-0.4389156544130854,4.015363170130017,-2.2310440351447127,1.9754180565722927,2.940384104731264,6.118709701864725,3.1486868942166777,2.6913938415265726,2.4728990168131104,2.3589197301487603,-2.0685168717290465,2.972861014869523,-1.4333474770620083,2.7904302544413166,-1.4493869358577072,-1.1597718845819376,3.662016648739017,2.186111278162778,4.216126274712938,-1.8865993785312063,6.933300283274512,-2.8330323724706936,0.42589690182896145,-0.3724412143791229,1.3447157669216703,4.2005098364402995,-0.3636007971187946,1.5713763996034948,3.3560872327638056,-0.024082198160964085,-2.527012121765714,4.2027204348157055,0.26123451230206074,1.7209991625285224,-0.12553739691950702,2.151493909233126,4.297355976480785,0.8973730573716431,-2.4610956651245393,2.975605617954468,1.0698648587088626,3.2472213310499423,2.0899962270306958,4.707437210189438,-1.5212079314326754,3.817956816680424,4.321507826492736,1.8637144075500283,3.29818368643656,-1.4015431561158505,-1.349310658852825,-3.2997110003100283,-2.971859192446234,5.961009881178153,-0.6908463360085667,-2.7360866763563507,3.311177707457798,-0.40910514132270853,-0.47086075223774215,0.20383278725085544,1.390711839581256,1.3013475094364984,2.4858849381947214,1.1477912739263725,-2.559913592804831,1.278172282368012,-0.03721269607206821,0.11365176545554732,-1.1129783853366426,2.4974231428535827,-1.5249415713058818,1.5906031558948297,1.266702477243507,0.8347968330676728,-1.0897564151728538,-0.6369272460829852,-0.5778194573745592,4.337643277922784,4.057880169311135,-1.2628614936894302,2.296293747700011,-2.543530637241094,2.8556305374008533,3.937952088177231,3.0903816916588176,2.4075524144827796,3.9468283967423794,-0.1413395101510206,2.4745175608560515,-1.052283844677203,-0.6191883270265418,-0.38505799334179963,5.221814269119106,1.8476908658373328,2.199020099241148,4.3913111244687695,-1.261184463342743,-1.40023101119257,-2.607193930667052,4.1209498701439555,1.7668889911874743,-2.406146775138852,5.797527074582708,2.551025896946363,2.0771069105800906,-1.4677349487236115,-2.033393276819233,6.395226543162024,2.017332850243348,1.4833502472469915,2.46918273670536,-0.357849670549502,5.003875154731282,3.213982719652516,3.75543117363497,-0.6262567243901015,3.2861102515710106,-1.4811157030383926,-0.8902777545766072,-0.6162367850708246,-0.788746545840594,4.188201308741737,-4.195405734711546,-1.1713472558096276,3.87838836302152,-1.4638783752235751,0.9851654817316247,2.8017748377739777,2.892730998887171,-2.1561419094229777,-2.491108351265855,1.10664555814755,2.969815906573481,1.108346510745133,0.9837704138976244,-1.9342933203004709,-0.6069663970172817,2.378405107485426,-0.4583428153896183,7.661683752107373,0.7392893347453028,2.8614081083172254,2.678185671666862,5.937788589348858,-2.8749900113728906,4.155453162508722,2.8468856454681633,-1.918522626754007,2.8606224855154254,-0.06151270844304641,-1.4164351620397604,-1.2878220100347306,2.321042456973027,4.835302819230129,-0.6715716741438749,-1.1466484904523753,-0.2271379586668615,4.018317697127877,5.121776858091746,-1.8976690392530728,5.589240544931398,-0.643290682950927,2.2027679457796543,3.3102345662796435,4.806567103297052,1.4419583926954525,2.831787130864659,5.721290311410262,4.322710930707272,1.9367522404607278,4.286865462022795,3.3353150790281028,-3.2108362438974023,0.33688305442748767,0.12581873204101168,0.9928253894080995,2.063463002461757,0.7035229447349295,4.456151714413791,-0.9525641627723023,0.002720502760738756,-3.5349570429879966,4.510445413805454,4.236516006349899,5.083571610626434,-0.6059122896918793,-0.8026510283178859,3.4322657072326526,-0.42973463159829284,2.0678904655177206,3.9472147667296476,-1.8360286685170435,-0.19478843706643797,8.859848016048195,3.960518739062383,2.408714870758435,2.792681486326551,3.3719147528992885,-0.7536091932875191,7.565177190363268,2.1182981169834845,-0.30282114259946613,5.116721877914124,0.8902704153410745,2.528234139971757,-0.24419406328787954,3.4591700477956073,2.45202212891826,2.303493575990107,1.9705617468555854,1.8634180523546022,-0.03273125492709478,2.6216324850808226,2.8758180222128193,-2.379994472635769,-0.9687159683125267,-0.82316819584277,0.751782314265837,4.511391271018013,2.504483286817324,2.840251256551233,-1.867711142735528,5.806189816333215,0.7630412433602329,0.944062221235016,0.7848975889837907,0.8996536050810078,2.2736045688724973,1.6282435586732034
GSE18842,0.3843302411415581,-0.3294234948420452,-6.170163006371743,1.9143560786045906,-2.0206430118244887,-3.2842965328249702,-0.22394510012545163,1.6134461614662274,-4.562640981251836,-7.285690653334287,-5.947240684102771,-8.502235347443158,-8.202033820010866,-5.307900219455057,-4.701391653853489,-8.316295474283512,-7.593708804102915,-9.467608629526811,2.3333540368430077,1.3223835602020204,-6.236775961091432,-6.842237957228069,-6.564361986882365,-4.266754754924374,-9.305904145302714,-7.760523892699049,-6.028847970108294,-2.358436676956655,-7.9099007695467325,-6.248193866366384,-1.9994653002674758,-7.7228116890981555,-6.901738262096636,-7.821695762031547,-5.455954467984727,1.5726739347221532,1.0795132289623428,-5.911185706357525,-9.644988216626718,2.156058207371293,1.5265932643054767,-0.3217966606169211,-9.923622276962172,-3.886633477289883,-0.7505948035011837,-5.196574149214796,-1.2248532299776056,-1.3336501515016477,-3.0421763685608263,-7.1709949323109115,-7.191661136368498,-5.035448492913334,-5.746688365308831,0.7568616752764825,-6.679831536402717,-3.1062559768842397,-8.630408731924897,-9.002346107004328,-6.496073730363741,-4.7301941483475725,-3.3146701378414525,-3.87468768621626,-6.6737790222010425,-4.071711523039716,-7.65607202804897,-6.46731033762449,-7.7676881930478325,-6.618652297736333,-9.302213044552474,-4.86114362807732,-3.3289883280729016,2.4023237497708445,0.42819435510577236,-2.265798621871857,1.5164366612682822,-2.6136475642477968,-0.005904994009093135,-6.830295399714455,-0.8825155440876848,-5.219540149777735,-7.8917509263306265,-6.458598836465176,-0.5491368751202195,-4.566187375469854,0.6815439293241127,-2.388269465268911,-3.9590812188068165,1.480373573665697,-3.7483286772373163,-6.283542155349966,-0.8034929195024682,-8.469508519198182,1.449328193537371,-1.4228248995040365,-5.588495674563026,-12.004145590523015,-1.9297574394637715,-5.866694595026826,-4.395767737411357,-4.8705269968586204,0.4996895728695062,-7.667443700303808,4.066650254836413,-6.609749453733943,2.0440103831235352,0.24233592150649483,-6.820002958835819,-6.233744559958473,-6.607469568364104,2.617255590936701,-10.939116188274587,0.6781397826196448,-1.2938185543317915,0.26012321655342896,-5.86558292358829,-6.055384784873731,-3.0482589350362055,-1.9406942088841168,-8.192401313186219,-0.664135259796796,-0.4013602503761962,-6.405080053010252,-7.4948794410201165,-5.4428352526580275,1.5200449283289978,-4.433702100879732,-7.781542258077392,-3.540137746080737,0.80919805310794,-5.358684676222194,-3.0373556620143525,-6.710985722327293,-3.8169622942608763,-7.735512212810145,-0.979575766336818,-6.173878931747978,-8.131103494855822,-4.94118888446458,-8.395912181810058,0.22110357625181448,2.2556999261054718,5.494831462511762,3.267257431243209,-9.069453942893007,-2.22194567423601,2.0902987073704975,-4.99247495021759,-0.8091625369505454,-5.145235637431149,-5.6997203899258055,-1.8794809629444449,-0.06675278943740331,-6.331331525723868,0.04545332727689113,2.147522925649706,-1.0402741077252562,-0.2556521591989961,-0.6265654793643627,0.2808608349787141,-6.3731374795614215,0.2679757617853364,-0.9877551125920522,-0.32519011738503956,-0.5234538689178682,0.4719423558555423,-1.8510129118048757,-1.4175989175954515,-6.407082568479432,-8.909869124995005,-1.0333668557109414,-1.8887691151560733,2.3622867617888943,-7.925506511684893,-7.565174352944563,-2.8203395756141996,-4.987375384848407,-8.906325637521503,-0.8766892741243335,-3.7682266765251065,0.5027343293166772,1.2022910333470125,1.0255202256483373,-3.32077456723921,-2.00039626879456,-5.533254174419855,-8.087998799744925,-0.45434119764868697,1.1924520837228654,0.687837048387325,-6.6807970784739545,-4.448546268956556,1.1790517208952511,-9.333419075124132,-6.655924995938513,-4.136846342361014,0.02229491504722675,3.115447292076577,-11.468588333829606,-5.414336248644028,-4.036376675015211,-3.0600040654291156,-0.17861694617287918,-8.208139387189673,-7.5273145970632385,-7.273767567914706,-0.5056703554343002,-8.087258651741548,-0.32478886463196627,-0.964728783059478,-0.32329958258132796,-1.5087889733234232,-9.26653925853293,-0.971028534650439,0.3890535112589805,-7.60623494758097,0.5623864312186753,-3.3037213450024923,-4.447921379621739,-9.220732073914053,3.592280024778705,3.213850137536542,-1.9789719793611518,-7.560751065103603,-3.475762469942209,-2.0370828648834234,0.7166848463712521,-1.9968593800319916,-2.3579912145132833,-1.0152663029530669,-10.794931946378037,-1.7841475973350853,-6.860436639081391,-7.370711517236732,-11.294088002128953,1.082054851854347,-9.198864088927014,-5.874004740372349,0.9351690094812206,-6.2185183022345925,-1.4942541559942266,-0.0927045771852247,-1.5398082516948348,-6.189789972813762,-8.135286974958808,0.1263562446563301,-0.5705310516252924,-4.293952060819613,-10.06210911868185,-8.959914242428196,2.7019284837347324,-8.26040298553481,-1.6495618424955414,-4.803970097443699,-6.980674082259624,-0.485610668555544,-4.081757547002956,-0.7814698992030472,-3.682596692828593,-7.390379989472061,-6.003359801657481,-8.691606994603276,-7.314883868693947,-2.173580610605968,0.1485455882995792,-1.4932055084762181,-0.4151623318394939,-7.2213206613908145,-0.1404946428559421,-9.576914373010608,0.008791149733053562,-0.42155971196645226,1.2568864668427935,-8.055103180292758,-7.781037278607032,-11.468634054539814,0.47216794558613717,-0.3119425318745913,-7.469228033142932,-0.753105985553418,-2.10828358821282,-7.124260217977119,1.0006972954786657,-0.3034034477463339,-11.660396176606815,-7.660382428936583,-1.0291798400783987,-4.280463379913314,-7.4453308052671865,2.5449615600365854,-11.99241206693353,-2.1069139019224985,0.8856365393020188,-7.997823976046364,-2.551169079929757,-7.30782127482924,-3.486508711334351,-6.898537413987523,-6.105570644830648,-4.847468330172142,-5.677202896380393,-3.5282522284179145,-4.7794909769904885,-2.7156464076615863,-6.050757153948273,0.44286203655156114,0.710019621304331,-2.6871410129035365,-1.0386617572816006,-7.689709208401466,-6.49204146811936,-7.85615013979098,0.9801847425201927,-9.387223972781879,-0.23652116797559325,-0.3529808572286839,0.309404210483231,-0.7421215763139757,-5.050266052672248,-3.611207731196595
GSE19188,0.5250185534929822,-0.517236862692201,-5.449761743654468,1.4683332179667516,-2.010981515009737,-2.841667239993249,0.06845385620788834,0.8144292592131369,-6.911722997958416,-6.353368673146886,-5.384441164018926,-8.9752447573008,-8.478091251209941,-5.129890298877278,-4.619177467116336,-7.563137833040297,-7.134467713260879,-10.005041924847976,1.4692014166841565,0.5540644302256845,-6.217079985710297,-5.269461426825075,-5.5817054197654725,-3.372970458086968,-8.863425178604974,-6.367312155957376,-4.958394993441143,-3.2253622777630877,-7.018081040935272,-5.087974423661076,-0.7536630727910661,-7.267148414158802,-6.374291035973636,-8.198276998929748,-5.222302793536019,0.9549002734091383,0.7175171955049495,-5.661552573038567,-10.620718386613959,0.7546010805814485,0.422376995554253,-0.30281856528959245,-10.709101119665746,-3.1992169474091328,-1.7912991224117916,-4.85460260203823,-2.5991825516092995,-2.2367791908497607,-4.2105627940303565,-5.60791076709918,-6.7389458314318995,-3.2570227543385717,-3.8480615084965915,-0.3252855284215417,-6.806775122712665,-1.5669684089558245,-7.250415514828865,-7.179494704803247,-6.23741090334992,-4.262914076864251,-3.1884283919009615,-3.760855905363475,-5.139370224471198,-3.441736140167311,-6.902232373075436,-5.796879779970304,-7.190792515130324,-5.882068708704734,-7.452694956784103,-3.684630458695303,-2.925763956487635,2.264232643334527,0.2926335437886883,-3.182595607812819,1.2707550129235916,-2.2181188451866123,-0.1521437401915545,-6.090829772057822,-1.3440873968743716,-5.513827048625181,-7.7252169619470825,-6.090024331977596,-0.19985062733552,-4.6929484126688985,0.2528081122218544,-7.027391120383244,-3.5254755599116763,1.5337536702126922,-3.1508257295448447,-5.070778225110672,-2.198917432680098,-8.883381939552457,1.3222930105384747,-3.355352871646446,-5.299432576990522,-11.304822089963785,-1.2818155415425319,-5.189610798813384,-3.9501642111152098,-4.584757079366343,-0.12486521182253267,-7.253558653880701,3.12799219600859,-6.1631217766971025,1.3386748218456284,-0.4989820639016256,-5.911175061460401,-5.628555258539074,-6.392321244403306,1.5454200587575042,-10.75158516296644,0.473689433190656,-1.8720655114537383,0.1436953129355816,-4.867013678533335,-5.877702035277143,-2.713858513891848,-3.365006356844197,-8.961000092345238,-0.7745512996132191,-0.7705257614216993,-6.976420842479975,-7.98163268614213,-6.568966537686475,1.978657828501109,-3.7166247213553953,-8.268134585361267,-3.0371666110372213,0.09830775749015029,-4.943163795715977,-2.301561810834923,-6.215433096863039,-3.1252275216419894,-6.478601800479125,-0.597639181693925,-5.944574293297256,-8.079283383781819,-4.218813967974799,-6.371270151195173,-0.08037014830483388,1.9688569828394191,4.351661410310401,3.8281876563130983,-9.50107193096176,-2.4617339781643723,1.512589507912276,-4.17852226746542,-0.6800259998365822,-4.686609996272186,-4.5178056090788585,-1.2935838092773415,-0.517959933841195,-5.754917471691744,0.9733652407895669,1.6258453070069216,-1.6217857138261065,-1.7616060498862922,-1.0307420704767636,0.09918105740065336,-6.274806792185381,-0.18488463458903284,-2.0830842504911007,-1.5502056565778548,-1.2216188062552782,0.4508654511989578,-1.2913389586211836,-1.2535167904809024,-6.228977857606921,-9.354503673518753,-2.0354298507394692,-2.7052650487970924,1.7800808022859214,-7.190339227816423,-6.756501058344827,-5.829801271851266,-4.293137718959224,-7.931676673018788,-0.2325652756061328,-3.3498188695185718,0.14412255248701564,0.864437912471013,1.315674862618328,-5.830390339090702,-1.5828817102555255,-5.368717667689396,-7.231422934880305,-2.534319908421589,2.160782297383045,-0.13371868101461756,-5.702665546877801,-4.033607325813177,0.967388430670545,-10.366490501882826,-6.1544856617553165,-3.4982579157953944,-0.09056533273279464,2.7381139006761765,-9.691949703165683,-5.091191822810769,-3.8632538554759925,-5.768986911911356,-0.8120729689695129,-7.41155844266711,-7.220186720632155,-6.343711022242519,-0.808773756740831,-7.791662459547258,0.21633112188657466,-1.552327766320828,-0.9119882012465165,-1.8362510511656676,-8.947648751208538,-0.5470280338572139,0.2712508401964119,-7.917642264069426,-0.12204848183728974,-3.448417877460927,-3.855234860917065,-9.991277268814546,3.249589340609535,2.220898424343431,-1.5468986826726352,-5.767785963319966,-2.722565962630427,-1.6499940982354186,0.1195078215846521,-1.7737641483270024,-4.222799795173586,-2.1771841882768364,-10.81609656926322,-1.8946058845665326,-6.332763172873295,-7.008648674243629,-12.034583982556793,0.3836451258789728,-9.476257098328112,-5.549759426978424,0.698773647700927,-6.053467383876772,-1.147922903486024,-0.05987181794049352,-1.5923356089698262,-6.252588195667791,-8.776514265177493,0.20660415900423568,-1.0590861407194325,-4.103003160830486,-9.90794594555024,-8.98201560090249,2.6365192691876205,-8.437673579721144,-1.902916906835657,-4.03961953413497,-6.494072291778988,-1.7580815257258264,-3.5551854352026635,-0.7324651988510518,-6.259178330318511,-7.348156361625742,-5.673261223023298,-7.800623725041353,-6.685827834681771,-0.5570737718852212,0.0856126354681329,-2.7203522915790916,-1.5250542122663515,-6.598749050972369,-1.265334812678284,-9.446951146438973,-1.3315663141706215,-0.6250233281115137,0.6105841917127491,-6.977785304224483,-7.413990854115055,-13.11474255657094,0.4507965538823405,-0.1601860597005155,-7.230445556453271,-0.759285607379053,-6.08470642632551,-5.661006052975379,1.1053367903003608,-0.30761673383343585,-11.35426986093625,-6.516916240360899,-1.5956382797658537,-3.562429107329086,-6.273013358798805,1.9558678902636315,-11.10554025807189,-2.617661811023023,1.0817665913435923,-7.854206795207151,-2.1398948886112286,-6.135650192709551,-3.1374345248589437,-6.663006573808716,-6.25437367588104,-4.18327301022449,-5.115691770935336,-2.354340622798577,-3.96948459034655,-5.990177712848654,-5.6723597320644314,0.9365152158641907,0.42536854693689236,-1.6151520038425056,-1.5895519908771962,-7.358517367136402,-7.158359487818902,-8.028167900183089,0.9409858106712871,-8.730976762983719,-1.0169893747763323,-1.1891965949201286,0.005245385464983764,-1.575872526248973,-4.096969134076885,-3.3316290789515035
GSE19420,0.5913760318865879,1.5721546661747694,-0.29314936248213297,2.7467156153933168,-0.572185673937064,-0.0715674710992256,1.9771112239157551,2.6272283808306285,2.0124085022537272,0.3741226180045896,2.3106571323019156,0.690751298974925,0.7467453352621979,0.9342498138397962,3.162957342487824,0.4257733227009402,-1.3439314501202768,5.298715561824622,1.8584076069777407,3.3124386211730537,3.5780594827972836,-0.7598711511186557,-0.32710809563212356,-0.524311910008636,-0.6820555151066612,-0.4499642325607833,0.11366672785648538,1.026366523483474,-0.15624629820056193,-0.6414544398202817,0.17301679429482053,-0.25565374642174554,0.11058551796179826,0.5906592673450486,0.8911692557792401,2.287581933036762,1.7976012937673644,-0.39390396953515283,1.8133346938668307,2.9077327700665836,3.509627499195047,2.152554873144403,0.8953458957336135,-0.011352434983995822,0.30165394063767886,2.6236376052157286,2.5559588735577696,0.5592457524203803,3.3866780458748735,-0.706904753299034,-0.02130124910146623,-0.9599596391905707,-0.651492472438534,4.012754419143366,1.120463267337497,-1.9501835097905025,-1.348335711614629,-1.369658773415272,3.1477741712472924,2.428577421521631,-0.40843503950820764,0.015749951159612495,0.40380771395707976,1.8303161322177002,-0.3777794321135119,0.7679379989795599,0.014482803866117779,-0.10443353064336107,-0.4830998313288953,0.17745748057325758,0.4860738053820502,2.3267768063855283,2.154647773690673,0.1596970281623408,4.085873948504514,0.7886814613777926,1.8930123718000964,0.6661224063151997,-0.055163770386776584,-0.07631036611336217,0.2950681209231263,0.5289710907142278,-0.04155863883087059,0.6828461394024704,1.2950457234013348,4.792356974031009,0.26496879181069094,1.5459119121054636,0.7357150628524467,0.10703248859249789,0.6647317422328483,1.2804760112982854,1.4593620333727408,0.05782093598369047,1.0000505549074763,-1.2751961736275337,-0.2144824124597885,0.02853510489593163,0.19174589009655005,0.10812822219649339,2.779751939268375,0.2205266077922265,1.0260678147738835,0.5607769285900425,2.7145797069142596,2.2551315901807047,0.24419119695595595,0.016602350163909173,1.063325957374467,3.5887820923415528,0.5004839167018267,2.667515365058956,1.382259887046165,0.8438993580365907,0.7778915347642246,0.5134654040908104,0.14517926566055847,0.4471661256060045,-0.6742363003194118,2.0763750565019454,3.405878678687657,0.9437042295189499,4.038869916195126,3.994995601814315,-0.13829799631613302,0.13794105359042885,0.062365020445376715,2.243291385922015,2.222976934125129,0.6594286678328231,0.1537873123309869,4.295176127474087,-0.5820394134691877,-0.5599301564949398,1.5038181243413282,0.24496797561781178,-0.08513596593048615,2.562210567706337,-0.09138231755029082,2.1017387537862042,0.20577465873473,5.68658721193392,0.5408693552299664,1.8489011926801784,1.9724658269989146,2.4042191556897317,-0.555040154051707,1.6306848977248458,2.7805575940963587,0.05943913541075181,-0.36365477876930635,0.7187662633382413,-0.5770538623513354,-0.8371015831425528,2.737686850787894,1.8584940421989071,0.6263561913366373,0.4174046547181367,1.902783972679862,0.5108910676109011,1.6145385083277097,2.438809989446603,-0.6795258108434249,-0.02319036648900058,1.5164378359321986,1.3760055016775408,0.5258477953503218,0.6696747300217837,0.4560521612749713,3.042080918570817,0.671297441418311,2.6201942174979247,0.6367854847541439,0.42718871369812506,1.3884023814891664,0.9946064426909761,0.2497200781294858,0.4954513360909638,-0.8285749152680495,1.046376653532579,3.259631514830821,0.37310799957082325,0.48889732158278737,0.24053205682284293,0.4091191233666425,-1.9564285342966117,1.8274528549901872,1.474421478264962,2.9293251478912787,-2.1808931003422374,0.4405379903187672,1.5447097089673072,1.4648991957565043,1.5188026501211758,-0.4683280541627118,1.5271495751681428,2.993133525420161,0.9514297995334609,2.4150059274743416,0.6045772651061223,-0.33588022143818663,0.9196085083534153,-2.0078252134750807,1.5955903534606717,1.195176153351684,-0.2956079573510454,-0.631174460673314,0.695387390724038,2.6862750203767463,2.8346711408928646,0.7892118731725923,-0.029865370894473636,4.146025085382696,0.833337558118843,0.6929828132337299,2.1734701837676007,0.5060979972739412,0.13382110811842224,0.0019135412204093676,2.5013402649354406,3.2798137060513732,-0.47649226417410195,-0.5878383605783124,-0.03579736631144997,-0.23278222901256146,1.827642078384986,0.2753038055669084,1.2146388727856654,2.3629675825869523,0.9889493418921158,-0.06883646401400745,0.5937932942213611,0.31628430079628805,2.231862687238502,2.1163454570295017,0.17588798451621057,-0.6918242780559841,1.7875246358018864,-0.0058293658925213055,-0.2429735018125802,1.4017259825662547,3.8348935798383446,3.1056726173208853,0.1278993276282764,0.8178312559863211,3.5773663397575706,3.1514460663948958,4.798502797692404,-0.2934757611990881,3.0168192502945503,0.6876494762422821,0.9269227444260183,0.4317460531793283,-0.30528787981896477,6.45290624766914,1.0160011344562918,-0.20099276674841343,-0.6138203555670406,-0.6353015866233443,0.8878100949572136,0.8705772174346424,0.16271403477316818,2.1991394078276274,1.4474706535364226,0.5308980985935023,1.8917435420661342,-0.13672519732041952,1.4489290829080532,-0.6026352999794781,1.8539263833072628,1.9229230245829516,3.2008122719748844,-0.6119311911194601,-0.2830746810155411,0.473646733125522,1.2023001505249542,2.010667198270879,0.6390310075305582,2.434998889367097,0.7936965849771066,-0.6133196760163865,1.9207897370836924,0.42945274237361736,-2.991092305913849,-1.8040417146941463,4.555555642236814,-0.8041872494928406,-0.7065477171906982,2.193084981620874,-1.4806325932918016,0.23593922378585458,1.2148283498942796,-0.40859721960523093,2.4907721127967912,-0.024066563031787055,0.10722192809456554,0.9460032166030367,0.4439706667399165,0.8899504599026113,3.0681598766599825,-0.6710852899848743,0.9147718639127574,0.3873400196121828,4.166627097010623,1.6456561064480901,1.3172468364994772,0.6345204717486994,2.1361776781968334,0.4372256026762397,0.13903257747029965,3.3225405150027756,1.3677139035267358,-0.925962302298221,1.3876614670517122,1.7574217448741227,1.1639330313911238,1.6509525078783647,0.24802606218793963,0.48608892480916227
GSE19728,-4.016916018520453,-0.2599470314193701,0.29382387253558584,-3.637552737195614,0.013490908690127673,0.8408759014438026,-1.8620863083403234,-3.025421568929131,-9.309853860408571,-0.9339439563906429,-0.9094877704926284,-1.3397009737050718,0.3591735937497282,0.6273861644976323,1.7273320395686556,-0.5168411806032145,3.9261842296396967,0.2395041822287849,-2.253177816791092,-4.418810643337389,-0.6713502276650243,-3.385634982699761,-0.14585446477422648,0.22408218015863848,1.394841949368852,-1.4371062674521091,-1.238564616466726,-3.609751800254028,-1.5238801602028869,0.28808493560841153,-0.8109314724889527,0.05948233270303512,-0.6012217063938134,-1.2708788976151852,2.2742533381354684,-4.729415826740523,-1.901749272522663,1.6252535858468196,-1.9332602951972409,-1.730585932168967,-3.693714870010297,-1.0067706695798802,1.7398802252765393,-1.3149666379350786,-0.45789395469640803,-3.4661589917311906,-2.9175766242606302,-0.9341727032279209,-2.5576768224646758,-2.169060011268916,0.6105537440513731,-2.9523543020539975,-3.381221506908228,-1.5782561856405182,-0.2644874439715617,-0.334718943225576,-5.465326749059088,-5.15003629635493,0.34424635076274385,0.23411390630964088,1.7655517877881883,1.3126260375206114,-6.346017886292164,-0.5567101098375495,-0.10121316669147659,-4.777785851951786,1.6879721647520085,0.04924378738060907,-0.25413702893678597,-4.035148540923335,0.9823183087848201,-0.3972526774840014,-3.5586741836537152,-1.383419472111691,0.7703943765055188,-1.2779984979719747,-3.275987653985654,0.10573092439687057,-1.9876184548349736,1.7230019446722478,1.829604558688034,0.5177362378437642,-0.36691217680298627,0.31678414360670537,-1.4461750067535255,-5.8142470559854935,-0.9066938825591242,-2.918279202880481,-1.709353117471014,-3.071798222187017,-3.662100939044472,-0.48317824943043086,-2.5053334485510166,-0.2884697344291848,1.8443394873979289,0.32952829913273135,2.6159693279125222,1.135488555163404,1.8714415906376105,2.1822803972550266,-3.7475277597500116,1.4748571142814522,-1.4956108931479226,1.2243531583838236,-1.0611711771541223,-1.1225174486871023,-0.7828185024839073,-1.3454560802947784,0.5123766152328753,-1.5281775320142557,-0.9244622901703516,-4.171338459973313,0.04955023059956312,-0.1537195896668052,-0.8060095969205882,1.398041558779969,-0.4805339063759657,-1.6797545417029394,0.37966826239070456,-0.8115759551965528,-5.797476327686038,-0.03685995020832017,-2.246063559520112,-0.2978543851955753,-0.06036015953293703,-0.38645455979589705,2.742749531503215,-2.7751355458126175,-3.181532219381688,-1.3548083795524104,-2.7907691326924016,0.7024951526908043,0.4490834812891981,3.1101102577992417,-5.965229072402681,2.2932189639148626,3.243912045444119,-3.240168747554141,-4.053049952527369,-2.1018518358506166,-0.9303087954743867,-0.9286231263427507,-4.894236315893046,-0.8770216201487203,-3.05841719999588,-2.1244493596000265,1.870499590233946,-1.9538713214594146,-1.908927999027626,-5.305917283017896,0.6982712622410048,0.023508458813892352,-0.44612737700708244,0.408494298195644,-3.8459894000962116,0.3513975397163368,0.5099283052208824,0.327833623312842,-1.8935176562647433,0.3600015364593192,-2.0367129717655383,0.7575640669215089,0.5742253858783961,0.03253211294866409,-0.5513653896155494,-5.629546887226783,-4.470897374618692,2.1779287504845266,-0.26170409402531636,-3.4725979512275447,0.6528087235840393,-3.315499479945764,-2.344091299004279,0.16519127872897707,-0.8524087184092748,-0.15384908996098862,-5.109089993190056,-1.1962978047097124,1.4014622640896781,-0.49807140796137644,0.15986479272295123,-0.4001212715208428,2.2015927162939826,0.34268564115832745,0.23447703650949417,2.8746066864591553,-0.9599859743347156,-1.7150885908009497,-3.7773929173255283,1.4976257278983254,-1.3184821979291543,-2.505006289565648,-0.5419471613334483,-1.6167501463984715,0.7897926333612165,-2.5536501514350274,-1.91779660033666,-1.2039584955466989,-1.3068525391175092,-2.80756715658234,-2.013980173099469,-0.9903076369960616,0.10151222416967845,-0.6322227344594583,-1.6686221959376872,-2.062920752756882,-0.17800476350016795,-3.147340091394022,-3.936581987236177,-3.505089903377049,-3.7371329140580563,-6.753546335902774,-9.635540881906573,-1.5652443511533976,2.8483330119919907,-2.5614726995722954,-0.8746243167927046,2.6615327904452153,-0.7354693500031879,-2.4314689908634777,-1.6933643569356436,-0.6498407545270705,-1.2057205577194605,-3.1896179543386753,-1.8852359379173216,-2.45057733250496,-2.248907649416067,-1.2504938365875737,-2.3227110675184903,-0.628854464061655,-0.5318418809437935,-1.3095386722605495,-1.95358437685654,-1.3484979208502363,-3.495758752727227,1.2251511683395,2.290993096739381,-2.0083911484402535,0.5918435267267972,-1.3468109294973767,-2.2394810477294023,-5.848999682247105,-1.6560817102768401,-1.8833040091757853,-1.1170281929737778,-4.76084085336473,-1.546217798061217,-0.5808457950633473,-0.033275691816225764,-2.3763030924558706,5.178698586243084,-4.172516455475579,-0.25430911224954217,1.959957734168278,2.749590694707203,1.008355473636764,0.7451617863115243,5.664699121649742,0.7126507934919207,-1.2585122133295643,-0.16577518343733172,1.098955229959445,-10.053539589546139,0.17590640310453118,-0.9210916084728873,-0.02159921855368918,-1.1160846000737474,0.5322869037920773,2.1198107819541994,-0.8365115125716369,-0.18875179185564803,-4.969531278570901,1.8477582862026045,-0.40217257630339015,-2.869721207116155,0.07626192439659565,-2.622746382215202,-3.0870823302254853,-1.0990854148104805,0.5694061346610793,1.9984489642451262,-3.5580773047427443,-0.4868654711752268,3.7065388614566355,1.2301182863462101,0.06661441827314817,2.017743860932826,-0.4802613804312816,-1.0885854601128722,3.476092104097899,1.5379033706029561,0.2251821223080414,2.560811009724269,-0.1624868118594964,-3.9575178258747736,-1.2505923564591879,3.416575074639107,0.6913530690974508,0.09755099041094037,0.5471401289787198,-0.16085097878086463,-5.4355390653009765,-0.6569676780219832,0.49385480086029165,-3.536652234762758,-1.7475922310180767,-8.887949584635262,-0.2717191881062329,2.6485884931129307,1.4919316145245913,-1.2425045344126524,-1.8641510898904106,3.7320990937627787,0.8072285602985149,0.4073207621577635,0.5879211713198162,-0.5622460693899012,-0.1963612304493227,-0.7663521605519211
GSE20153,-0.03154556989384002,0.9836015027193256,2.605613331845381,-2.2460739224208575,0.5138349935984552,1.0247374006198642,0.5735327697445861,-1.4188091548407333,-0.4201167304463855,5.357050110261562,2.839991839903629,3.835088026798802,3.145064025164616,2.7252287086724922,5.310776797728246,2.8487805319118866,1.7021610494812538,5.001019882969035,-2.8340061187263452,-1.2788338153681298,2.652798283664739,5.160207068370527,6.22210869581071,2.3820481823738233,6.8799041590653305,5.834072220942456,1.5997204975076922,1.1862055964707603,7.080361493606822,1.1088694064510827,2.702968219830118,2.6954378187753623,4.665836917205429,2.7396915082345266,5.126514918646637,-0.9107660059564014,-1.1082587114263198,4.851707910630398,1.9629103759454662,-0.5616470410436717,-1.0204956804533958,0.3691132790281469,3.925153711295515,-0.7752705266702775,1.1064759926673995,2.1000884372868045,0.917328718805334,1.547776332385618,2.501560035479628,3.054324751553065,1.9708832427312517,2.0913331000778044,5.239667438285435,-0.7136583725209105,5.045708803653536,8.066965666462488,3.2771436037229114,7.258097843920555,4.373585842600624,2.4891160549748412,0.8667021621168731,0.6936304487832133,3.161414803752924,1.5482151977581053,2.0329883931249557,-0.9873403005616171,5.309128085054029,7.6553321488130255,6.274410813310339,2.4521379152710376,3.8851352100794174,1.733775829752899,-0.5235309786171701,1.2880465377272536,3.3755037360801277,5.478922649875344,-0.6669943779035962,5.311506791900368,-1.386014380614895,0.8122136918558571,4.118321017298408,5.2248995722418385,0.5996042956237995,2.8657794419190887,0.08779611103562462,-0.6172268059608835,1.1220541038648633,-1.0206897087288764,1.083742679493214,5.120115798328142,0.8402020084654328,3.3828262725788756,-1.0892726262520527,4.905409161435269,2.506609656518861,3.8257267320599126,3.4506736977931705,2.913597544995806,1.7597498175277626,2.181673709082682,-1.0982536045474673,2.1526807695228136,-0.06790085774132412,3.023836339076703,-0.22321859665574098,-0.723388189713093,6.259905666944606,2.2193747113629763,6.544246715310435,0.909572595559339,9.512753735518894,-1.3660532058436576,1.8941495732868867,-0.13235986580334574,1.0029640358646446,6.388500979120094,0.07216988521231095,1.883585594406485,1.0734598243416054,0.4505986230611919,-0.9541718021096016,7.086856105586197,0.9490863646015609,2.3489325108400356,1.6990787735091335,1.8250095640168038,2.19779905683415,1.6682531284647388,-1.7623115523741715,5.0848185992297,3.2963967739245246,4.299927899954364,1.7967723963678854,2.9228655602058584,-0.8518586105442297,3.1127665770119277,2.7607779201485343,4.913023900260254,6.199668698030222,-0.09399266358590809,-0.33318745757674717,-1.9918897428583546,-1.426277866572573,4.8353036615081955,0.8485425813916229,-1.7234369278176145,1.9168720565213697,0.3962590151899501,0.9446710701354109,1.4743734470894778,0.6025332738218715,1.790861096055557,1.7691440464589514,3.1909164381731485,-0.31190394849555964,2.913224826810457,0.5084950326484545,0.7657418439652351,-0.12383978606989879,2.058211479796786,-0.25610286021852086,3.429098485343597,2.4419361470419223,1.0710295645282666,-0.00814278159683456,0.32154365303407406,0.6845873130154817,6.975877709374087,3.054996828116951,0.6448515549938284,4.494891162652815,-1.6686174528556468,2.8593399108671456,3.1296423847515027,3.4167784845703104,4.583304500595572,7.927829004569274,0.4201296828264527,0.8589001122925284,-1.2771369679358828,1.4982441951754393,1.196819034393158,7.637873813436323,3.723821801601869,1.967669185040891,2.731482050944533,-0.7993100246702614,1.183466658028968,-1.0337075605201695,2.466833372053749,2.199119693315281,-1.7128829190307533,7.024379970463482,1.1002559147073454,2.176778459777898,-0.6997973915616303,-0.5082166962742661,9.551307849847465,4.472997994529911,1.8231077204848345,1.7938004063012845,-0.33890806400637297,7.950525695402317,2.045016143805252,6.804414936187163,1.0078675383549809,3.0430119446702766,-0.5090384652217996,0.203614239338976,0.7570677187876891,0.4093639909363247,3.444482084764665,-2.150538033115601,-0.7240054403410608,2.190365115740328,-0.5687137128851221,1.4561602094058932,4.803969594074335,3.317540965895734,0.27396437300798215,-1.975215342185086,2.5922937974412754,5.83176640499694,1.6919622156106822,1.5219342066732602,-0.9088850929816831,0.3606997957746388,2.7182779618822828,0.2645821756847993,9.373145586789247,0.8790928053326351,5.450642717956167,2.8922186624515698,6.090071812876172,-2.267818328976721,3.067203879659664,1.6073376501836374,-0.7914927497132271,1.2302495825039823,0.42469831394116386,-0.25515835868937997,1.2208076119236868,4.7570933022725965,6.8784901590307,-0.27867753586390703,1.1416901243949868,0.6157170056590137,2.8688431810154493,1.7357501368988322,0.6517933013682723,4.729830062349321,0.7747106160473927,4.338497712147071,1.4576646028277858,4.772788563595381,0.9626732398683818,1.7920529554052096,6.9618156503946595,2.3803944620347663,3.0656633774425996,3.1064079544558854,2.3816310341291507,-1.476188252315422,0.29811369974057766,1.0377068641961185,1.4928115330572096,1.524835001527454,0.627336073329678,3.6515162460289945,-0.418949568374255,0.6761534389623489,-1.8070849011815657,2.72019371188985,6.785679655477944,4.154791793559418,-0.17553251972504016,0.3741340008689113,3.2344435183235727,0.613847841697627,1.8528292131195594,3.031981745272209,0.20971128225996827,0.42780773772133057,4.287561815690807,2.504364807251577,2.9184332700165685,1.2213590730221875,3.335285967615481,0.6838152750506301,8.26361657453814,4.611853528117877,0.9069122668129577,1.432211244249262,1.5556764005476815,2.790908297973372,-0.5648696420378184,0.5425090896019439,2.742879358226165,3.9220870468557094,2.9906559854248522,3.449833347566155,1.2804518591328984,2.071600650813093,2.886885265566786,-1.1463585461109236,-0.016234305922848326,1.3717162359399502,1.1276802571985922,3.369729945948199,1.1241696398243617,3.6811774542143842,-1.1603251601172528,3.5362344571870956,1.1707662876917937,1.0296632703290818,0.8304965812535584,1.0522504582239105,4.577643106277746,4.059212705562388
GSE20164,-1.8662251178334526,-0.6627795914086062,0.1617200416994987,-1.630467929530873,-1.273873250524507,1.1269279111310544,0.20551111636247918,0.251030834776187,-3.230046512741492,0.3143702129834837,0.6074697317367919,0.747332866365001,0.6787051235816447,1.3554521573997824,0.5175460753641818,1.217733438381761,2.2465292448008505,1.5139758563759258,-1.4091684453512743,-1.558561079479587,1.2990740391815006,-1.38535657365998,0.19964945727480388,-0.12615105337534924,0.6083665536217358,-2.01697357355602,-1.0768225625959793,-1.4441557292737717,0.7472613247434167,0.1616308091940952,0.31998600956414575,1.2515777510230406,0.9669858084826213,1.1365344624408211,1.6966984719626041,-1.9081024240550226,-1.6093833453167203,1.7837411455874101,1.6439774081161296,-1.3655788248264016,-1.8496720675746625,-0.7074953824434415,2.04362973434117,0.3381082057561611,-1.5249675710525719,-0.9916344050023027,-1.8381200649457952,-1.3803352746951763,-1.6562243499736238,-1.8104561611803092,1.2964907561271886,-1.6812114801171667,-1.6023021014208525,-1.5452163306737994,0.8281313599843181,1.0727728525259042,-2.6624798125843565,-1.9261216725117003,1.6134543746945271,0.746957402947277,0.5597502995204158,0.4397489358977692,-2.152238325958074,-1.082728121782854,0.23837701675290943,-0.09975279794441805,1.6218797923112855,-0.19353217663073155,0.49908391970539867,-1.8581879677394955,1.109819849800046,0.2509884926247354,-1.9633503136444754,0.021067467417114044,0.9093525793742461,-0.048580773096461444,-1.9163237343518746,0.47098869888707323,-0.01377422227038055,1.2492440961899578,0.8555496384416604,0.546936731129245,-0.7426768185104765,0.9446669202044926,-1.1883066313026875,-2.494016788727495,-1.2912009162371165,-1.667069801417411,-0.0004241455663051702,0.5263177347086099,-1.8646337424713597,1.981323722288171,-1.7664431920012016,-1.1322606484413587,0.9128155875655005,0.8804939218396605,1.5919048070834185,1.8704072227076605,0.17223985175259068,1.152429572614127,-1.6894862570610818,1.3381787076173304,1.1214747378856709,0.8482000465095282,0.47596263287755913,0.3840142495663863,0.6865484521951414,-1.555510242333953,0.8118683027750382,0.7882708386802262,0.5520297246772289,-1.5263398789524383,0.6733866505411606,0.32494234399268646,1.1318603054169891,0.680004404832658,-1.3236494912213712,0.11091516318422817,0.4408446825933004,-1.7845183063928916,-1.70587201175711,0.9217019173896785,0.7325789527039516,-1.4365276411514483,0.8762617733496136,-1.7725363909400857,0.9668103442653992,-1.5415024042569372,-1.8812779511596718,-1.8211419210186504,-1.480351531931768,1.0076525430895553,0.6289324661387374,1.7745988924263527,-2.089340272626116,1.4615153338078608,1.085460573645291,0.8995328537567737,0.03519692690474641,-1.7343093847606164,1.8953306489098831,1.6425532646509209,0.6915573528327171,0.8987927249106662,-0.9030776197588487,-1.5824438602411413,1.0393505190674845,-0.7756836850673553,0.793719440588015,-2.5957151259777893,0.8630677811257812,0.30336204369892816,0.8082318005974962,0.15792959347290622,-1.2058012791241646,-1.5517220947108,-1.2268147707948016,-1.3037835609272017,-1.566800110781081,1.3393258960531915,-1.6419277624303616,-1.6945690192978127,-1.6004132659418027,-1.3143586282480717,0.25510965042862777,-2.044514735932035,-1.4919978628423018,1.5075741265642182,1.3524792954163143,-1.719886133828741,0.1246999596591651,-1.547869099330703,0.2235759545097988,0.8431786818779786,0.36640433083455176,0.5732892871851966,0.3572692600742512,-0.7989930787067997,0.5216109772474157,-0.9733195415794939,1.656666038884856,0.8571276286227236,1.3009090241640637,0.9043975855894096,1.145009781985419,1.1962319740611114,0.36973557581381494,1.876420066183024,-1.4052357710068542,-0.08578402121918922,-1.9611281637519917,-1.8142542323935205,0.5671671353503324,-1.5606596811891398,0.7383718769836817,-1.8131551480488417,-1.335847742563664,0.6399762353623248,1.0165286623212313,-1.3827077333152833,0.2934884871231196,-1.0193076117843913,1.3067360484818789,1.2063066227688855,0.23751175283236575,0.6209829889686672,2.1482863908393868,-1.4878192716908352,-1.6412360072282877,-1.9340331431409215,-1.6444243441807906,-2.859601122381971,-3.605775582627892,0.6163771583888301,0.9541759549118496,-1.5094505129095561,-1.2143262846353609,1.7383183091554397,0.7728219532863965,-1.6436083278388014,0.6097596328000896,0.07273859500704302,-1.3443612909569889,-1.1572043558536356,-0.7057180539820738,-1.6933422141742267,-1.3933001580815363,-1.8487654261552346,-1.3538190912403496,0.48850203545859044,-1.3638659541683515,-2.363782497602682,-1.9779739230718383,0.7254422573585827,-1.9132912167038252,0.688946752984402,1.4128888366590313,-0.8769031871622176,0.2306692740301994,-1.0242535693481922,-1.251913368641834,-2.4350832790647043,-0.18640806496386905,-1.7485393039433856,-0.7656032818816744,-2.567912749256106,-1.0759263239448933,1.8049021567816284,2.330913529609069,-1.8020116552121284,2.8904984254229324,-1.4723526561562443,0.38762848832030194,0.9085304995224301,1.4927350399298331,0.08660002785511117,0.824031538067969,1.6990716194476783,1.4545740792823565,0.5647140736445818,1.7848170096646068,0.9839457504518867,-4.153998338498408,-1.5130047335899426,-1.3976040438719217,-1.5558787467700272,1.7850475098386884,-0.9736857650495121,1.6364996397457299,-1.2674599495421797,-1.4226043031397186,-1.8526482659455739,0.7701064303647622,0.346725468644115,0.2361953736047583,-0.9159117728645755,-1.2327277652089355,0.20513611277327176,-1.5536176215731297,0.9673707055291446,1.2557814076016567,-2.019075282234706,0.07285749244763255,0.35391062327854383,0.3399055877857508,0.30175508625236114,0.47839320693665865,0.39536486030218343,0.5307573026450193,1.1944498787918532,1.2972622867538575,0.6436628929850224,1.298238421339073,1.0452335034939852,-2.663771378139423,0.5012436418830771,2.0718404156479724,1.5587744580651044,1.0612266011086684,1.3094719583308108,0.292754619309993,-2.079935663019839,0.5903965066303444,1.0038506434994772,-1.4624123402408966,-1.4713113637370192,-4.188927053798944,-1.0151610551791677,1.3877426351473794,1.9806585367530385,1.185398618513953,-1.5388260885912664,1.5210140829862384,-0.7050626710171548,-1.0025212620431152,-1.5154103151012885,-1.464665386807798,0.1807599951086554,0.20501612917690581
