,hsa00250,hsa00790,hsa04610,hsa00020,hsa04614,hsa05340,hsa04215,hsa00380,hsa05020,hsa04750,hsa05223,hsa04611,hsa04514,hsa05220,hsa04512,hsa04660,hsa05171,hsa04510,hsa03060,hsa00620,hsa05100,hsa04929,hsa04928,hsa04927,hsa04926,hsa04925,hsa04923,hsa00830,hsa04921,hsa04920,hsa04710,hsa04662,hsa04664,hsa04666,hsa04350,hsa00330,hsa00130,hsa05133,hsa05132,hsa00240,hsa00010,hsa00051,hsa05135,hsa05134,hsa00563,hsa00562,hsa00561,hsa00565,hsa00564,hsa05032,hsa05235,hsa05030,hsa05031,hsa05230,hsa05231,hsa05034,hsa04726,hsa04728,hsa04520,hsa05218,hsa05330,hsa05332,hsa04724,hsa04930,hsa04931,hsa04932,hsa04933,hsa04934,hsa04935,hsa04911,hsa05219,hsa03460,hsa00650,hsa00140,hsa04110,hsa04114,hsa00410,hsa05414,hsa04066,hsa05416,hsa04630,hsa05410,hsa00360,hsa05412,hsa00910,hsa05415,hsa04960,hsa00471,hsa04213,hsa04730,hsa04913,hsa04530,hsa04122,hsa04918,hsa05222,hsa04062,hsa05322,hsa05221,hsa05320,hsa05321,hsa00480,hsa04659,hsa03008,hsa04658,hsa00760,hsa04216,hsa04912,hsa04976,hsa05226,hsa00310,hsa04014,hsa00640,hsa04120,hsa00400,hsa05211,hsa05224,hsa04940,hsa04971,hsa04145,hsa00500,hsa04146,hsa04310,hsa04140,hsa04142,hsa03410,hsa04973,hsa05146,hsa04962,hsa01040,hsa04540,hsa05033,hsa04068,hsa05143,hsa04668,hsa05017,hsa05215,hsa05166,hsa04720,hsa04713,hsa00770,hsa03015,hsa03013,hsa03010,hsa04810,hsa04130,hsa00670,hsa05144,hsa04136,hsa04137,hsa04727,hsa04623,hsa04115,hsa05120,hsa04950,hsa00270,hsa00512,hsa00513,hsa00510,hsa00340,hsa04152,hsa00100,hsa00514,hsa00515,hsa00511,hsa00450,hsa04714,hsa04922,hsa04550,hsa05417,hsa02010,hsa05217,hsa00970,hsa04071,hsa04613,hsa05225,hsa05214,hsa04261,hsa03050,hsa05310,hsa00740,hsa03022,hsa03020,hsa04390,hsa04392,hsa04211,hsa05142,hsa04141,hsa03040,hsa00071,hsa05150,hsa04961,hsa00072,hsa04360,hsa04621,hsa04622,hsa04964,hsa03430,hsa04024,hsa04370,hsa04978,hsa04371,hsa00440,hsa04915,hsa05418,hsa04270,hsa04217,hsa04625,hsa00260,hsa00980,hsa00983,hsa00982,hsa04020,hsa00190,hsa00750,hsa04640,hsa00860,hsa04979,hsa04657,hsa05152,hsa03030,hsa03018,hsa00592,hsa04924,hsa00590,hsa00591,hsa00900,hsa04966,hsa04974,hsa04975,hsa04015,hsa04977,hsa04970,hsa04972,hsa04010,hsa00062,hsa04650,hsa05140,hsa00061,hsa05145,hsa00430,hsa00120,hsa04260,hsa04070,hsa04072,hsa00232,hsa00230,hsa03320,hsa05131,hsa05130,hsa03440,hsa05205,hsa05204,hsa04917,hsa05323,hsa05206,hsa04612,hsa05203,hsa05202,hsa05160,hsa04012,hsa04670,hsa04620,hsa05012,hsa00603,hsa00600,hsa00601,hsa04910,hsa00604,hsa04380,hsa00053,hsa00052,hsa00280,hsa05170,hsa04916,hsa04144,hsa00524,hsa00350,hsa04022,hsa00520,hsa04210,hsa04064,hsa00220,hsa00030,hsa04060,hsa04061,hsa04218,hsa04672,hsa04725,hsa03420,hsa05163,hsa04330,hsa03450,hsa05169,hsa05216,hsa04742,hsa05110,hsa05164,hsa05212,hsa05213,hsa05210,hsa04744,hsa04721,hsa04150,hsa04919,hsa00630,hsa00920,hsa04723,hsa00040,hsa05161,hsa05162,hsa04722,hsa00730,hsa05167,hsa00531,hsa00532,hsa00533,hsa00534,hsa04914,hsa04340
GSE1145,2.483709248872754,2.340385290282019,-0.648377588913785,4.116897390624108,1.413341234459297,3.377830476353614,2.9116435880297047,5.68865199797974,1.8828909348057603,1.5889358211305704,1.7093675471013297,2.5149796584551303,1.3804602336647327,2.527367563804885,0.8958630574223286,1.1961043735045431,1.768294087380313,1.1807102989069973,6.333911170643982,3.351059400735171,1.864145375264052,0.15587684605589225,0.20508838172297278,1.4886401897931303,1.0546037820659326,1.2128214197224378,1.4062723138740019,1.2369384736752742,0.7457184370782952,2.848069571537226,-0.7025132308199886,1.8299109263531534,0.4527265455855568,1.7861163612847228,1.870093042100088,4.417221013458572,5.28136112678725,0.9063754204808986,2.6745655979333938,5.176241589218577,2.9147057186742686,2.540401167570191,1.1618424757561936,2.963807108776217,2.292684856109935,3.7819764213948988,4.572849174894603,1.7653399366243736,3.9625264257104247,-0.3705803084245658,2.2558656386296283,0.9388024900917662,0.8164176551582017,4.524793927496231,1.9807836305648088,1.4686590540896558,-0.7552970325091996,-0.13904287947906832,1.7350026777580942,3.383033979754296,1.3725932151979887,1.6476850311831954,0.8980488614245031,1.1702778108367997,2.95016391111801,2.461550626480435,0.7161334223313305,0.3138553521712318,0.5933697332827109,1.740794447930526,0.673181439994967,1.2029613267934876,1.221971805712863,1.4811733679294652,1.8127036774588972,2.023191185551886,2.456929309353981,2.2434789978210388,3.1420522192910667,3.4985740264671343,1.7254190487708152,2.3043612998289973,1.6766964943183964,3.4250595799817636,2.1413313084939993,4.847067757656544,3.2262218603155386,2.386718646063547,4.571178015345455,-0.3278337712824996,1.5201121681858538,2.166156088254048,2.1344765465609883,2.44461874601513,2.682613967365121,0.1693733912610803,2.007809955518682,1.1799669386784708,0.6272376260476,1.7510593980849518,4.31010220006649,2.279686562769268,5.814007454840139,1.7652633044870654,5.033362556593221,5.607071760866359,0.657012893601746,0.26748047252083235,0.6174839168681181,4.344092489466453,0.10205569288287299,2.7604250904633427,3.2017051159277097,1.934648200641088,3.7309175514244965,0.33343094751643604,1.531626965297768,2.8051097589176073,2.3772051554581894,1.8374048228952973,3.911551587083085,-0.7579119694210592,5.032922881994962,2.2356452760900485,1.721016359855845,0.5789529748797417,0.7427526066371887,1.079141628795804,4.459096667221814,1.1030518722781735,1.3338506509248387,1.06468982062486,-0.40034567415850636,1.7461664840091888,4.111946637448511,1.9780598494913313,4.187653991456612,1.7660326876498686,-0.261092483355762,3.7358179859054017,3.703959854277598,6.52608540076149,2.8118862486117453,1.835611978893598,3.255660633706452,4.955425697105792,-0.6530907433485776,1.3529353596923839,4.587044992647628,0.8171232191657858,2.3174942822768876,5.046238931622224,1.6752303452162776,-1.474441602670982,2.7592233630975525,-0.2017619838067251,4.351431170363658,3.2495433507121687,2.2562232095697405,3.643719838893862,4.368578436588392,0.7467004835915727,2.0768844807834665,-0.2454389530145625,3.5088165464736627,4.262087181797023,2.9057023001023117,-0.3699140059343706,0.5687100184569301,3.3434337873782436,-0.3215834743748599,3.0209577876757234,2.5461316886989387,2.6524948530046424,1.507853835394276,1.1873947349130962,2.1700920871739853,0.8095134737676223,0.5681417878871597,3.8458456254836397,2.2495331994323258,1.7422619287052736,0.49833427580191986,-1.3770503944534451,4.199027257857385,0.6545195412395898,5.278235946358126,1.3753997964356754,5.160151584616298,-0.5973919241186011,2.6566286565336292,2.1353602294855856,0.31513421585076995,2.703309880369012,0.1580992615995013,2.398990533462223,2.9804439579713997,1.9176563446214387,0.1273407984805823,2.2615727496354268,2.2885148714974233,3.0345718917501627,0.09808504214913322,1.9388063644792797,0.7068991242935125,4.143639278783693,1.3977660885035936,1.685208896232984,1.8808038787867596,1.1532220331897782,0.8321862751919115,1.58250170627622,4.13188139914691,4.14568839041685,1.1159810503539966,3.2647968247364196,2.4595443072046046,1.5960567159046506,1.4882322809630901,3.0349622466486625,6.75424370179605,0.8472511796955199,-0.05178187317937927,2.470944398375788,1.3922987458320122,3.9225329976430854,4.602373950190605,2.0044036082492984,3.2737337146339764,1.4355968350563746,1.7827040484138175,0.959729872326141,1.8079782662315675,0.9338774639911261,5.30009967770416,0.4027840600926423,1.8624485333296539,4.0866809811712805,1.4613385281847655,1.0221077785787847,4.266453961462137,3.889058387689216,3.057424787656912,1.6066396682332789,3.123342566839538,3.925788094028813,4.886388043039576,2.646043672869583,2.262904031926423,1.6697929470107702,3.2413765976280713,1.7063536549281746,1.0821480291762193,1.415052305650079,2.885111089351968,2.5961442619889565,1.6465804918609188,1.055342871438198,2.1928047194162184,0.05608018667253732,1.7784483603144878,0.6394193292925057,2.5348412202609136,1.534806582307728,3.1340431706947824,0.9786268758524087,3.164529973780439,3.4303341155584537,1.1931435198767468,3.0285222800536378,2.523821305486022,3.944476275465364,2.1229120744160714,-0.03823805199736912,1.6001443271083782,1.9049950366956923,0.5831697035887985,2.6731934931014925,3.295255184440553,4.19298580289261,0.2520482824082073,0.6754557412333287,1.2946827776127479,-0.6593794489167273,0.25579724131075365,3.377071949141006,0.24225514533724285,1.5306454753459098,1.820969107933084,0.8275201369448708,1.0170108373660285,1.8997116022801508,1.8464184770781402,3.2455589827171885,-0.47412020085891776,4.925062696541156,2.9784480299069664,2.207788785899415,1.5544401404336674,2.2093744978998315,-1.858671888745956,3.657516431241286,2.357189481877261,4.467618045203239,2.2733659429641664,0.7016956240441842,0.7212668497719804,1.902109663993748,1.8170489299726555,2.462306167734717,1.697545864812057,0.9236002363899546,1.519874839249836,0.9578714577508237,2.2174449847619453,2.40028851365025,2.479039867167549,2.226055732955542,1.0229533458671984
GSE11906,0.6931714836041555,2.336349401699584,2.283428631470091,0.45722963216032886,2.0462419704471464,1.3747898234207239,-0.09719519909050363,-0.17871448046339355,0.9974619792020392,1.209502353264001,3.852218662916833,1.4473108312659997,2.2488626518997767,3.0029549798408604,3.54470299940103,2.4208539661265873,0.911428986342768,3.72670355775213,-1.2684452214635908,-0.17273546746450918,1.247453104847638,1.7524585229899843,1.6380639971747646,0.6014537628177509,2.7041451943746195,0.9348263204144854,0.7093946461119774,2.204354241658198,0.6398652093891005,1.6168136762628629,-0.7914918213794215,2.8532125883629895,2.1867250551569706,2.4876255835957863,2.013688572528892,-0.3983705232158231,0.7357890379823123,1.9195170394440004,1.1888993514795532,0.8833727335183842,0.7401253943887043,2.7343902802722266,2.1504980996685257,0.5237364127423809,2.579778140061414,0.8309734363889245,2.229912793640261,2.487762682152589,1.875232776458781,1.259130110101628,1.9620111419141562,1.189442278241948,0.7416272720437068,1.9782711527894434,2.5166125085813946,0.5567408304067334,2.0605247951489205,1.7701265697478996,1.483060608063124,4.479806994806866,3.3753639780843954,2.9027300530202136,0.06551977030372307,2.798534916049699,2.5689865869782875,1.0033376119911375,2.557758073406578,1.19158629146396,1.382230786930999,0.3641265505921517,2.516929826220897,-1.662322465403455,0.493268081458674,2.873439878123691,-0.12087635323144569,0.359629949879289,0.7073757696821603,1.9803235334064186,1.7606433763713873,2.598815300598213,4.0807654387951455,2.1546795022476353,2.2376953188734316,2.425895587699253,1.9260497600272153,1.8664789935621329,2.462071700579829,-0.2761009957424314,1.8552610583784694,1.2306014718357474,1.7871308165013964,1.9343629512314036,-0.8433990695599037,1.444195874196999,3.640604724026796,2.650228490699167,0.287277051904503,4.34831915711058,2.9307130707992965,3.4387540422099465,0.79150733073564,2.467483661974521,-1.8425853326341792,2.4713591770257106,0.46526752468900656,0.7664615039425807,0.9935475586475585,1.3435790932715683,3.126594600296812,-1.0751969359003832,1.4114052795408027,-1.0219367725418949,-0.25339457607968313,1.181940657675681,2.955989722143025,3.6966540635241105,3.049971092887563,0.1355463515889714,1.4660305794082982,2.015863017359161,-0.4795748239989028,1.1075899672031269,1.5749321073548062,2.33092692472034,-0.6089378208194951,1.4648954067216946,1.8485671826747223,0.011796493661821712,0.298850118133293,1.5163347853706812,0.13476724265960272,2.4517341929244285,1.6617051464417285,2.901799034310178,-0.9202764931082336,4.857258665090309,2.7264515843083235,0.9465616407001692,1.9889415100931367,2.1558056270870654,-1.654208779133342,-2.293050327083126,-2.843632189840344,0.6288051378692976,0.060085079399759,-0.8688656495790096,2.620883173375009,-2.262334527815102,0.3772814808683333,0.0918339095831296,-0.4191271321962204,2.697392482484075,0.6120538660007798,0.4765933900824046,-0.2445101272690419,2.6780269453691465,1.630776477916582,1.3289637112674928,0.7185479652202399,2.9094903689472935,0.5422652807663253,2.21556597007179,1.8365743842848723,1.8615021209755012,0.49308762657083854,0.32612146222622357,0.5786137117795815,2.252900702541109,1.713766197033015,1.568447307493653,1.6103710840341907,-0.9752182169577106,0.7079936241865199,0.935638421000793,3.270011189799111,3.6055014045789764,2.0881351435254043,-2.1615262032402076,3.3760507920970904,2.554738516065446,-0.6342658995972114,-2.6219469532290964,3.3284508020887342,2.367566764071998,3.1885772164999238,2.117527223382217,0.03737018872787045,-2.318597250979165,0.27875450329006046,1.293914527494253,0.7007323272078128,0.12673085142657325,1.7746210966043723,0.8416882494144533,-0.2724126690865649,0.8782409251110506,-1.2911420568628282,1.885360801051962,1.9727274160517294,1.330888551320947,0.6336471635621748,0.4594914730784924,1.002323405496783,2.884598585578536,0.26631903062340473,0.7077148871787751,1.6183475610057076,0.031445850334681065,2.602992942654745,2.381642762777195,2.5970258440595044,-0.11313026797752528,-0.5524012134874319,2.4635833339482986,3.35842014581121,1.5694813266854573,2.7946299230416747,3.150800421655066,1.9362324066972734,-1.169259836261732,-0.47230570146620326,1.1906205834928802,1.433706966681137,1.2483526214067178,0.22319503520466985,0.2784763358510719,0.9537034435048027,0.7203569276508481,1.8035491758054363,1.0701234805618338,2.4628479498156235,2.051227435808339,0.4695732871644252,2.112469860795135,-0.19859340720078603,3.258106359118776,2.5677097987499495,-0.8281432326639036,2.8192825382191,1.3272474565712493,-0.10891071374417198,0.6793182303108711,0.908653760541171,1.6996703911639681,0.7472717992872215,0.8276357757748674,1.4595246896272596,0.7048580153450462,1.8550483916797575,-1.4471791260961724,2.644942870902514,2.830786991648877,2.797045436844828,3.25124179422502,1.8211081586817426,2.3193655338566423,0.45519127640338697,2.8984612210169542,1.7263302203549034,2.811215732469111,1.2425605971249616,3.3130980488229267,-0.7409815002821077,3.4905925501487918,2.523341705795178,2.4745295328641497,0.8554191717359138,2.8010689502032364,3.1811087926115618,2.7052147760197385,2.8857368919925594,-0.45943589608336965,0.5301861651898482,1.5319362033533939,0.05212823863826807,0.6085438574340488,1.2577271667704806,0.6338549349902378,1.4943249048250882,3.2357918725362644,2.605222513685213,-0.23517960258417467,1.512516583178536,2.400896419300966,2.811779920833699,0.9702157855608146,1.217418441676467,2.1739468470174006,-2.830386483027052,2.9446751500361223,2.244694223793841,-1.0909712113594723,1.6785675941461888,2.0381048858770514,0.2183441194035974,1.0548231002708444,1.5069257052199276,2.9946268924610444,3.4226916652441295,2.738311692470401,-0.9698042513794682,-0.24074330607084385,1.1411120413465015,3.6853949737205403,-0.2629419278266773,1.2312642603824053,-0.1336604706348194,3.99040656918754,1.7983268601679663,2.7714357129448315,2.722579526532062,0.9047646467448711,1.8317811770011698,2.9383110097999077,2.8302130330305046,1.896768104923975,2.3778036286073276,0.4727907417574875,1.2126224171223021
GSE1297,1.0801915107730353,0.3349758560931234,-0.874094196103397,-1.6280215347050961,-0.4790455226689673,-1.1577933810293044,-1.3446596225326688,-1.725689566402194,-0.0717094031023132,0.6000401916800796,-0.8398813416223889,-0.9518491478562022,0.7780905114311714,-0.7021001304651676,0.5850406290253941,1.5997470437109123,-1.8240805532053654,-0.44588299803697673,-1.101074760377045,-2.046347546004321,-0.6189129389957438,-0.46522892527010085,-0.15817851764718469,0.9959899729406203,-0.41543263033650324,1.6993808524234901,0.2679729843870282,-0.5707894170322532,0.7113277174596392,-1.2344130013375596,1.615521473153454,-0.4157489940063373,0.40543378720177087,-0.5861348890683261,0.12682292049566612,-0.01915300889278248,-0.821607203378515,-0.17251687621087586,-0.3213195217163227,-0.3308318985092901,-0.30793817836702225,-1.3836182733595306,-0.14188573675147517,-1.782642105118818,-0.007003730914506839,-0.41572174575953796,-1.203016931802906,-0.18374418448900368,-0.9807941169276839,0.15410008293969743,-0.8142234065503741,1.1610123128815397,1.02868298623319,-0.2799590017363779,-0.19928112761615183,0.23408739044231833,-0.20717435092331465,0.3637040936069983,0.30273377689692776,0.035771120368221596,0.42297051978986155,-0.09495854259994621,0.9185491694287379,-0.09472022981199704,-0.7200300769880931,-1.4227983359160241,-1.5652261207655316,0.4618243038185259,0.017459092448235146,0.401320784018985,-0.9503535318329756,-1.0705157885407135,-1.7934098670993674,0.3394065846300639,-0.1508893411634544,0.6759940674175207,-0.3201724800079743,1.3725211048819215,-2.1382481410713723,-0.8390177129459969,0.11123114020600235,0.9093142187869188,0.2853620315660753,1.1749558404226765,-0.4734086240550795,-1.3925917646798616,0.7109531064113769,2.10393433244521,-0.4507502337785421,1.0176303055325537,-0.4654615801652554,0.830440832570352,-0.04547115476655222,0.6375053061954201,-1.0092449596570512,-0.2410207833791006,-0.24477122050380293,-1.399431062662212,0.38896903268953154,0.47265034322869454,-0.7566466389321552,-0.4730828427807182,-1.8868462823455916,0.1303816784344006,-1.2344967213814664,-0.5921376500694271,0.3195879672156196,0.7380643308039303,-0.40871046602167893,-1.797889616607922,-0.03354057500347418,-1.564291374481512,0.051663659546121656,-1.0380115112859325,-1.2025863803164738,-0.19936997647654411,-0.3410432281200905,0.7835701873345534,0.3376413883795588,-0.600384460226341,-0.010633931547533865,1.177005136891821,-1.0768498348314173,0.2842811046669821,-1.2470056089626704,-0.650345361729692,-0.020306316270364555,0.5841986935105109,-1.290869727346013,0.46160004678532984,2.0319293726370757,-0.18994856202982122,-0.3929825996860898,-1.157697192932559,-1.2985809937227113,-0.6588591930530412,0.13890066315440283,0.782390098800607,1.9247906826185228,-0.5579002444499936,-1.7023478797234837,-1.9934806472609632,-1.112443343825899,-0.6291780970093529,-0.4082127500526686,-1.364767816685293,-0.3026502496797015,-0.7132715713953703,-1.2286778447490385,0.36371884687244316,-1.3742866471511923,0.05150728111276021,-1.2864914641305973,-0.6580863226360908,-0.22835066643295063,0.6405454207975171,-0.05321766545682905,-0.041640841817902674,0.5654610392096103,-1.3560469152485812,-0.7678820777335812,0.7561212128707974,0.9550306506284624,0.03153365260471063,-0.6827304595525878,-1.1628824326899563,0.4426642615538592,0.44614244747146287,-0.15849982715986632,0.6276685662742483,1.4407581276877017,-1.349764601143364,-0.8989081140373287,-1.5844949939797843,-0.7971420189738929,0.2603734388028939,1.6398236893132143,-0.2503612572859705,0.7160586858453846,-0.07552729550490016,-0.5207859088791729,-1.423798863784651,2.031534036044875,2.212094284952071,0.023288211987045282,-0.2241472157533548,-0.803143703828457,-1.3973406310189411,-1.6589809157563293,0.01044369025455698,0.21083714040875912,-1.3903133655134368,0.4638843680428257,-0.45905523427295325,-0.97477113807452,1.9035467513477253,-1.5593504253354427,0.27540224252852763,-0.8798358489552033,1.4304438526684273,-0.6113481071566439,-0.58722488449843,-0.08956892929117716,-0.23772175554479585,0.14207308012263437,-0.9791644043741605,-0.1378050608735115,0.32363061940778837,-0.4784518482649716,-0.24472031425905347,0.307855169129376,0.6620965498648075,-0.6140987942725731,-1.9581470700203822,-0.552192169791751,-1.1799348678674888,0.21181500175859935,0.03704740835997944,0.10987727657635012,-1.545874095065634,-0.7049278550136391,-0.7594365511353216,0.8235799566098557,-1.1308133702484235,-1.213951589244557,-0.3322240371792526,-0.059037289742110526,-0.7216409442098689,-1.193624999737922,0.1426822744013693,0.9391028784707169,1.0445306488537518,-0.7824631361445947,0.2037246217991193,-1.496444068250001,-0.4261391060051328,-0.18418040720451434,-1.3154459106566159,-0.6073355631357441,-0.24274830120103089,-0.9596520107703548,1.361520359595631,0.06374555674923511,-0.8620756286525797,-0.20945694864993236,-0.11307199000176345,-1.4881219829783565,-1.7080794283316139,-0.16980981606078263,-1.064867170553662,-0.36021882133915384,-0.689744553538424,-0.8026954003593102,-0.7799677217413802,-1.6436898223693563,-0.21347349468090637,0.12280631891046934,-0.10800005533048758,-0.199824919425045,-0.2968261354013746,-0.8886419763385844,-1.123668305736536,0.1763978677358891,-0.9666572902589256,-0.4919753587835162,-0.06802110151096961,-0.6562583232774551,-0.2269632304809341,-0.671608304636776,-0.561864421608694,-0.2978296183039521,-1.694179671787673,-0.7424648880533027,1.1561041770248277,-0.4303647334806138,-0.6627066206529025,-0.6438101127135659,-0.22988789488327827,-0.0223405855150295,-0.23752398781152298,-1.1974032659981315,0.07786616045091165,0.17795555626278806,-0.018127896419687903,-0.37142855395200286,-0.49301596446707857,-0.2304909757809113,0.49491628459661857,-0.5063211284792867,-0.1582040624160024,0.3892085186443867,0.5320730927733475,-1.5044605792077457,-1.0563110868850067,0.2822425775104879,-0.5662744156581664,-1.3362000769832594,-0.9374714293916203,-0.44530254766899297,-0.905640129866953,-0.05765495666025447,-0.19850616917730915,-1.0089937200110224,0.8821658011642071,-0.38411106123587097,-0.19440108203741008,0.27664894788423716,0.4542463644875289,-1.5792697700129614,-0.9908305969663963,0.8230790843509436,-0.5632723135560114,-0.5026789427506254,0.7634252985013399,-0.32194452284198843,-0.23447077390410528,-0.46544851754661587,-0.34047935935015566,0.7259990984329495
GSE14762,3.041798714041899,2.6308571632903295,-0.6027894117260433,6.11204225863633,0.6793302237822045,5.215674201553866,5.462256174235495,5.525806446619356,2.1980983983506324,-0.5197677774764159,5.5780555981822895,2.0272444109483736,4.375870417871547,5.279509476638671,1.7312615751243954,4.714084599822914,3.3003564324944543,4.882467628886025,4.818696379551157,6.37170771962144,6.672864071581483,-3.2108405734425327,-1.9128163461515462,-3.7283192752348975,-2.960007949655922,-3.6740710964470455,-0.7221675423975021,1.1310898172579154,-1.8898983564436485,1.5292747298321208,-1.6534683997086161,5.47093565590825,3.249482983836506,6.292414643353506,-0.7523452985571396,5.2260653665538594,4.883270857802077,1.2686476928392985,6.097999557642668,6.02332682837651,5.815571776675992,4.452045215593331,3.8588496516470507,2.6439448432448334,0.34949482537588805,4.4555890871139345,2.9276157787531174,1.6662830043283128,1.7908876185677982,-4.763078698280587,4.894035032279716,-4.060485359663746,-5.205113459478266,9.126288341569717,2.2845399801909836,-4.257118048310144,-4.756976917129511,-5.349429909324643,3.5684167382597165,4.613435604372407,5.396928895933497,6.512310392372271,-3.461309494712352,3.4804145008788154,1.1116094823831781,2.574409220534116,1.8063570981904267,-3.6081491052969583,-2.0630079201252682,-3.305671580611253,-0.1600601129779598,4.506207831612429,4.117369540236468,1.4720555835781957,4.721621755727899,0.4221237016495418,1.154634638349369,-2.3610897782543234,6.644333329470265,7.9818390861984865,2.6490745280767225,-2.312995618368702,0.64979297011085,-0.36660582647806444,3.428774294396583,4.120762159275,4.591976212687545,5.483701292053394,1.8679865088194192,-2.9315150978971847,-0.0024778076209548156,4.106225864102026,5.3418243482292125,-1.6208793036161062,4.778102808685333,-0.4429399863562678,0.5496121805893015,3.6121906687681924,2.5227600846224534,3.6977024839336448,6.478696156550757,4.186092710205293,2.777354143597983,4.746313619133181,5.347269736702216,4.585151198356005,-1.986600734878052,-1.6658220888825164,0.9066465081370046,2.533250158732686,-0.30356308055902176,5.521025660986739,5.932911113224553,3.4351876299942075,7.73740316950863,0.7063871554007497,6.514122422274146,-2.0485952266312855,6.1930478398442075,5.024992833561698,3.5748307618148254,-1.3270866030780009,5.230556547549969,2.1533583334188138,-0.060397842402805865,0.021256196555029406,-0.16506108374044376,-0.1328858233564236,4.903577286340278,1.93319752380234,-3.0375063775610016,3.3931801696943595,0.10798638038666533,-1.068957660462179,-0.13272837047754998,2.1984077042508785,4.414623881635343,-1.8689209319040727,-6.545062891812119,4.377106816457611,0.7795810210028115,4.356986449165084,3.463343046019223,2.1503101055860685,2.4587077377330986,4.4105587293507496,0.7909077460892847,1.5901414257143096,3.6240008124422727,-2.348144976641459,0.05033673656547578,7.338559988658937,4.172836308542827,-6.88175192681592,3.984861916732919,1.1589468340006595,2.8803645462968883,1.2268062766629266,1.3043199704984025,1.8662660609522954,4.009870528647675,0.5985842886605175,-0.7966231968514553,-1.2085640179137311,4.567043010152446,0.9735020512425704,-0.7733863094353665,-2.3631631568910767,2.7293540820955826,4.349845652355606,-1.8945995952215948,4.877528735161166,2.322606883640946,2.8707212939333533,1.842707539301908,3.7883075083420343,-3.5067144433963033,0.11597837149440271,2.659382603267587,7.016692798395451,-2.6361733806626586,-2.275391651642072,-0.4178299563004861,-2.96169439826269,0.2414571783017089,-0.3555771522363805,4.607339906169837,-1.3277929437572693,5.437110183190687,-0.2994819747395546,0.430170787357856,5.953555747524203,1.9362671945683325,3.3596145400054853,-0.7027551490859483,4.033561156489316,5.904724706920242,-2.2615453774084666,3.443605606317843,-0.15023139413350087,-2.527656536974368,2.9490036748587944,-3.5364802583310366,3.3436742545119458,-2.769676216129513,5.828788318775572,2.7862644563137975,2.954710989425563,3.3764872822806886,3.3606756966738005,2.4655187008084596,-2.667411895901662,5.359407259251901,6.7824798825782375,5.7926397700987975,4.84953669557708,3.734519436865749,-1.9900557876879994,5.169019700705034,4.9976236451045715,5.059319516910354,-2.8152050102091106,-5.0605712522560555,0.6408442374216788,-2.916426118106276,3.6346974880615956,3.605674420996117,0.04653208343395372,1.8552889395508818,1.5606936578082602,1.4172369691535622,-2.322379480510331,-0.3451235044810669,2.5325930229669424,5.628249871741346,5.67983100168907,3.497082046941254,5.824588129215005,3.415380326647684,0.5682666779849496,1.356990628816962,1.0126473321883565,3.2211697747202526,1.5032204328643917,3.5190692976381683,3.782250376861295,5.127810835292368,5.11994007978032,4.624100688034551,3.5518831539002713,2.407043580429911,2.4156612702534597,3.564488673616612,1.908262543613323,2.784905067096791,4.256883714211445,3.636429494267889,-1.595505784182531,3.346372047537712,4.61307552105109,3.38182807413189,2.4018752159191785,0.3529954168922884,-0.30052904281780474,1.2734168338338094,-0.4135298161876719,4.493359170364341,1.3483539882411297,3.1361024582120067,4.967892781383654,3.654493527808174,6.914216609251646,3.82159382364289,-3.8548010962704717,3.9350002235532546,5.093938857456549,1.725209652988349,-1.4810327348330914,2.1514535988295025,6.454444063202711,1.3130926062107093,3.439753107959097,2.472107263889647,-0.49983717331981925,-1.0491685837097702,5.380777646941846,1.376997173616212,-4.494042641461576,2.877982934703058,-0.5034123973324881,-3.0140539349992252,0.27607855139128296,5.517088573373896,1.716695187813617,-3.007718709105876,4.826600160209307,4.503473370121521,6.862638036839556,4.5182744488256725,6.391486008732321,-5.570545693209329,2.5187543628738767,5.197697297264688,1.888446520675129,2.4117688446457923,3.8848818083812575,-2.5105747023178853,2.7519235244401714,1.5610738566883935,5.692085060716587,3.3840215358814785,4.7490212514119685,0.1572273162388873,0.9431913284235556,1.2103588372011012,1.2842574885523956,1.3766432431133315,1.4501200572713864,0.0766749903715689
GSE14924_CD4,-0.8938244831486939,-1.0517760680479227,-3.8797540836861875,2.415791745845548,-3.1421245299652316,1.8686265680997023,1.440615256478002,3.9331257044942984,-2.3451610931310074,-2.770903904570247,0.5196714359300959,-1.5953575838281298,-2.094236905447547,1.1559639127915005,-2.188740483657084,1.1691754468533166,0.11176442151650534,-1.604554015936165,2.5468584657471833,3.2196023408505527,-0.17558454534169962,-3.6968724611172425,-1.9609332358510505,-2.461854561178924,-4.564900229941477,-4.238575318136983,-3.526894075178068,-1.8669499843445538,-1.5671349498822558,-0.8428601615421215,-0.26513603250435164,0.7398910775654014,-0.43221337422934786,0.34184618267675515,-2.051211411312729,0.8899771053948806,2.015133658157759,-4.049246647604882,1.0742526253935705,3.1976752688385948,1.9964247050676966,0.7679144967673872,-0.6624679468892802,-1.0092845276535984,-0.8049448286311972,1.1389086524477616,0.35980601810011376,0.09582212864190583,-0.9596753339157519,-4.296481328095747,1.919870607862453,-3.860816805948605,-3.0561713688487853,2.4709075331657493,0.7047901578420077,-0.07383979127791472,-4.808016683528878,-4.267172227253205,1.3842142710066891,0.12485404858294083,-1.2436036497654963,-0.9255853173028771,-2.839397631763441,-1.4841185074448495,-1.4895038874697897,0.11037883393530631,-2.5324083421501946,-1.8636658586176549,-2.1691907069334966,-2.0281155163069213,-3.384541199969749,3.2641477646775674,0.13016593280078195,-1.7323941412726107,3.7894029875234927,-0.12446933150230285,-0.532290868025465,-3.6987994819421575,1.8470782210337593,-0.9167729252102229,-1.3169158358095234,-3.148470554179336,0.6881258028939359,-1.530521230233615,1.2069808751579056,0.13373090384274317,-1.045024021799538,1.1920698639369751,-0.18869248870892638,-2.8359738539795694,-1.4499239792166223,0.283294443596268,1.651635789343632,-0.8782519417468594,-0.5644879368060306,-4.038563729605153,2.677441323647428,0.8924286735334181,-2.342132547795548,-0.7973033066445651,1.926118212423934,0.2473035177450516,6.17307517781888,1.7460819486949974,5.2269349109728775,1.2765548175241095,-2.7264714065686797,-3.156276093284,0.10814545913593795,3.821391639163861,-3.6996707577001406,2.511879251147824,2.266295360223751,0.07734795821577058,2.1241989899616764,1.2333345647533627,-1.2466210482948306,-2.437604899080821,-1.6730581128948432,-0.5425595240348486,2.8226713461186197,-1.6411326280701364,1.0606502521706682,-0.6177882852299448,4.2555884153420775,-2.625325795859339,-4.33245961743255,-2.173885162607641,2.6296279464426444,-2.0429299731094517,-2.8189981162865383,1.2391909265601095,-2.6015009943006273,-2.2030381791914966,0.3688249166357839,-1.1508150661601217,1.4642926370612597,-2.801693998945463,-4.6301942325242695,-0.4958821140949863,4.642690615795539,7.211188657859703,5.166561702293733,-1.9727226445161434,0.46973359818224236,1.8706269178263735,-1.3969364076342712,0.1072844877238633,0.6389771702292804,-3.237949407699104,-0.1129977959468417,2.131127529890658,-1.573245812313093,-0.9522527322840919,4.196471198006291,-1.6409713607814072,-1.2060898086045773,-1.17541480793644,0.10789543495007312,-0.19573882925615232,0.3389416971996311,-3.1178825416468587,-3.6858307802412704,-3.5618308966958447,3.1004523130938884,0.018428070460277005,-0.04209208566356943,0.4105251630915401,-2.5810074074976805,0.5197370299310717,-0.9844339272278202,4.940708450586265,-0.5577020623337923,2.8818615198170088,1.5132923181294278,-1.2083304944923143,-3.4615313745200433,-2.455431757544502,-3.0310572420537434,1.4190595814351332,4.045343032157021,4.24222625541884,-0.4342991403850395,-1.6716035003622176,0.050167276766921974,-3.312476479190425,0.9101680714994135,5.9130248072055585,1.9053879737442538,-3.3008110458173103,-2.677879187217386,0.8243044313589094,-3.5322389793017477,-1.7462077786735328,-1.6101593400729217,0.43779803291535657,4.382504879797175,-4.0321693297341135,0.36648380060801833,-1.3574694831337075,-2.3008209554832875,0.8854163441174476,-3.5460887305003244,-1.2622783654470584,-2.608658787750829,4.4992064567344165,-1.3439333252019237,0.751810258763142,0.2454818970793232,0.25456424817524054,-0.43761625084408884,-3.187625277701529,1.1647746053395098,2.406652742066995,-1.2711109428355658,0.21683969354042826,-1.933468463992249,-1.474561656864847,-1.5576498955097255,4.267420094697427,3.728846855987106,-1.7969616092733947,-3.666757545732645,-1.4411197952987476,-2.952491509469231,0.8630491362775852,-0.6380204209109284,-2.338301487997151,-0.7412900588649122,-2.2923895772014444,-1.6290232246631835,-3.287976710336928,-3.1193440475662895,0.2837150753961816,2.7246818701788,-0.41547876591897626,-1.644066912381711,3.6680575425900273,-2.133151424376458,-2.7479714152755177,-0.750513781468442,-0.37870146513789077,0.37861139412907013,-1.7521137343870339,-0.10832166509869542,0.6582821406074338,-1.4025729967512441,3.016643125854306,0.058998841807724724,3.6266317027885466,-0.7926010234993993,-0.6252889524758688,-1.281587691997852,-2.2486066875594974,1.3212072998355808,0.6198133879456988,2.1956571137969862,1.054898923155374,-1.6815647313128892,-0.09149782901287323,-1.8641463450984972,-1.7712032491848326,-1.6862181938655287,-1.8980627036836204,-1.2010452827984723,-2.4517834089129242,1.0702174041629067,-0.8976536394908864,-0.4755586294522174,-0.47614774939109483,-0.32698224926284125,2.5055110340544835,-0.2610994526670554,-1.9754159951243582,-1.190576624184357,-0.5154467921005519,0.39126585472661957,-1.9489806552525712,-0.08323453375364318,2.4350890696555894,1.1029165895522122,1.2377843044002736,0.06589431003929329,-3.139560509080826,-3.6716329984592706,0.833180259627396,-2.3009080674256173,-3.2517917749963474,2.3187824765644165,-3.8561494753294863,1.3877204103096763,3.9369471476159035,-0.6897207026356117,0.7110465278313709,-4.847147074977431,0.6119298248374128,0.9979340486327319,0.7003714306497997,0.22844451656189943,2.0128757638658406,-4.876391974709653,-0.9580568898175789,1.1962817914275765,0.6499565704280952,0.19872228734794103,-1.264533430738103,-3.4662782115381243,-1.5166808597487864,-1.6450988651386629,0.2976821381130674,0.15953211047433016,0.740426885605467,-2.9823075908877175,-2.164688419960615,-2.6572532430413096,-2.1553782115765077,-1.8401469886629294,-0.7614964546581159,-2.710137603336244
GSE14924_CD8,-1.0325235421983365,-1.7874002225412955,-3.1067562255756336,2.362036198459379,-2.4847009992251547,0.10073666220842814,0.41868736376183807,2.2080784707531365,-2.477907853822149,-2.122240197145899,0.00015697632588481062,-2.7469705460117333,-2.5187595682141426,0.7825274908563485,-2.5291709920665024,-0.802202669169389,0.6775687074535254,-1.3325942866200773,0.6649676000065707,1.7877894360700917,-2.0460018833665528,-2.0161048307238603,-1.4731380424755172,-1.7129876495502734,-2.9719521925466044,-3.0010215628674612,-3.6300595806377,-1.2342491854121675,-0.7754070347844311,-1.2534065235927025,-0.30190526995038436,-0.4163462637285162,-0.5879832419048275,-0.9333443012585741,-1.3003378318335164,0.285068908834753,0.4047531676641319,-2.331598537742848,0.4113578912424257,1.1491970566268503,1.1377823401088853,1.0765793429595638,-1.9213088791690736,-1.5751222757464511,-2.1028279714937903,-1.9363559259556573,-0.63288412802983,-1.5036238549596062,-1.5808183261362507,-0.45354850071892333,0.20472780051246584,-1.739348320109348,-0.7543727883063004,-0.029236545850642226,-0.7481360374051774,2.5823409824309174,-2.9465934509368314,-1.5957127147334542,-1.513733750070915,-0.44344825608059757,-1.6206591363135543,-1.5328858355082045,-2.511640903974106,-1.1538150285922912,-1.0616896103276876,0.045987684633026334,-1.4604666592405071,-1.0916342214717236,-1.9308390729777398,-1.2299779326580718,-1.7866013703827448,2.284209132499414,-0.93931500028353,-2.836703297632018,4.114822587216179,-0.6117914097398437,-1.6217466246053236,-3.059888404877195,1.7794693769942738,-0.8158525701854017,-0.7387780095612718,-2.532521146335251,0.0840533645827605,-2.228655408201269,-0.5852092080302529,-1.8562695998765875,-1.2935316700044692,-0.06657238585676765,-1.5975607727098513,-2.1746917775987624,-2.086549478197672,0.9569076942799074,-0.2310759213978286,-0.3576978491118997,0.39722054683486,-2.588275014809573,4.5630028684653325,0.15816716265567857,-1.7772132351972405,0.12095837321729724,-0.04545172381338568,0.29970131419864493,6.386943300167277,0.9733166709951163,4.157362722409867,-0.20635909787067652,-1.7952039890493678,-1.8586911240388486,-0.7448360707578383,2.7369598334282985,-1.5035344230861714,1.4281487881271253,1.6132353545818432,0.9710366403449399,-0.20342852242120552,0.04082813733572512,-1.73425303789996,-1.7561982055162892,-2.3494339376936306,-1.1115230471062574,0.45455741713819114,-1.118619142921034,-1.144817449387665,-1.7216097142662363,4.5195823069524685,-2.4414657454923736,-3.341613082247277,-3.152378336805579,-1.0938487955864948,-2.1986858756355634,-0.6486407748441296,-0.7711857666192714,-2.17500549744952,-0.8828913093025272,-0.3697319302303384,-1.3917426749894632,1.4133123000636443,-0.9782384232948295,-2.1937959105052927,-2.0044098799478554,4.624441394338067,5.106797248152099,4.261979152836778,-2.4815293250271613,-1.4475977632756123,-0.4290474798912516,-1.214299343123881,1.0659411381075674,-0.7234767232789633,-1.845570495719821,-0.390355519616014,1.0654001551762955,-1.9254262242236024,0.1758372426925389,1.8832685668783058,-1.3099126415748947,-2.0062747883336693,-1.7665056221415996,-0.5459679346181503,-0.7687674110899093,-0.7550620497769208,-2.4057423351088905,-3.1031868485755085,-3.1868025957035693,2.3943762748453614,-1.021267875730747,0.37233926694993696,-1.2900691256690928,-2.073956428308986,-1.2413237130263048,-1.063918023418717,3.1846274476460894,-1.5342660776165948,2.6060283800497452,-0.2347228166029791,-0.6942959716714665,-2.5865483168243686,0.416197173764414,-2.617104818283957,-1.742600628121286,2.982182833573838,2.487941744967202,-1.024137123934813,0.017590209036000757,-0.3533111076642516,-1.7457289473112558,0.18628093292650857,6.085008437242806,0.17271201852856807,-2.234853239159291,-2.0643720839938675,-0.7991123767178501,-3.3058378450125674,-1.326751567710975,-0.2556670785248054,-0.9532960994324758,3.5291517193762196,-2.5752709755336283,-1.1072208363796139,-2.383785868509061,-1.1032802574596223,-2.3601984808483394,-2.232855560367606,-1.367428244264147,-1.7882982398575236,4.26909562043293,-0.8359183390535566,0.08608437500263987,-0.936534361954181,-0.5245534881581628,-0.817424074174818,-2.9596473234570317,-1.6764112234311856,-0.15267716708065276,-1.8730186152965753,0.022925556834782944,-1.400612673988764,0.3324315720011962,-1.6061759028028826,4.828101120729539,3.7139002035243895,-0.37002942648954784,-3.4373530482320724,-1.3396206023969142,-1.3301123437556404,-1.482270459038816,-2.36463447313594,-1.9245457848892713,-1.7733338938757863,-2.6359886312445298,-1.7437810948289987,-2.70419781471837,-3.2720567822600413,0.5024185107012538,-0.15610666978293847,-1.8860348907319544,-0.6966179533390228,1.8068896887839347,-1.8397004358348452,-2.692492195710639,-2.1067349728448543,-2.134272149561983,-0.7673098336145823,-2.348231963026177,0.3178936667449025,-0.4137061900267283,-1.9319615619280233,2.2284765297316405,-0.3393313462578431,3.06710211357618,-0.4681292660440427,-1.2990621546520935,-1.19129249287168,-1.2486349697552819,3.10352635550434,0.22850192279529571,4.165927741497097,1.6268369303265657,-0.3583909589543166,0.6974820432620755,-2.3120182765040207,-0.6694516592244832,-0.03945639720549902,-1.2894398016086859,-2.729094645939515,-2.148337310101424,0.540738397995838,-1.3588484665197733,-1.3183818403150431,-2.0575827958498114,-0.4862169740707205,0.3068346056643365,2.0977736491271894,-1.7323268895238013,-2.072058532499716,-0.7551314194201351,0.22184935670247005,-1.9668968895949335,-0.4589924571567827,1.5927926494252191,0.7212194430537417,0.591498574414992,-0.399368025143987,-2.284154396343423,-1.8963878082407375,-0.14823599628501202,-1.1770973880741233,-1.2411082237661601,3.047836539208953,-1.4913268384719796,1.2423885452029308,4.8215809444242455,0.9814977760913244,0.5799910689291964,-3.163295442631156,-1.7086976893798151,1.3479921181327486,-0.8993613702772498,-0.9680862638969272,0.6278948615170132,-2.145677970311203,-1.3053325838075442,-0.005586756945475545,-0.2124883874286488,0.4293472774339584,-1.9927156775211319,-1.6967222875960755,-2.2925423154234648,0.0553694471904664,1.2422118686073973,-0.42658352956303813,-0.021947996742417247,-0.6825081032411222,-2.019307569966381,-2.8360722145312396,-1.6281996514342123,-2.4132147050615744,-0.44072355046383566,-0.09670144518062761
GSE15471,-1.8476848040139935,0.6919983705014549,3.7103289812393037,-4.895396929675258,3.000684998005478,-0.4001440347306631,-1.8257452126834173,-5.236550381882401,-0.46857519237982953,2.7597041245186014,-0.6662136319552073,2.617444573238424,1.5291119230465315,-0.4706409693220645,1.4807088786804563,0.1534522506661621,-0.22160956400493817,1.5095674062107047,-4.87010341998559,-4.5145342316467545,-0.27520846358967926,3.2493175647674937,2.335541540959195,2.871072218136677,4.319775424359714,3.6912281715288007,2.9840220823161987,0.06234393614634273,2.5574340086093486,0.7589215923585023,-1.2502499368152724,0.33695589449832825,1.719824668169496,1.4410827170246425,2.9065011974709916,-4.404294863181273,-3.814769758143218,3.8802237965489317,0.005728452129027606,-3.526808471065089,-2.2424646068489733,-0.9797483317889726,1.0710195306108052,-0.506267951387086,0.47161318028128757,-1.8271908744877694,-1.5984347350767782,0.36848412084584087,-0.11098315463998415,4.540735291388409,-0.5355598713620257,3.3528487107314326,3.473643893743972,-3.2469388184464827,-0.291270932410503,2.2829087706641027,4.347998078374347,4.644360578585959,0.9330960902508951,-0.6045840804679607,-0.5102144917882492,0.31401378324592344,3.051653365409555,-0.37818000893045384,0.25236600898245637,-3.001823294607786,2.2856482868251975,3.0261442526862217,3.0681872979163494,1.376074504170656,3.8876553483283733,-0.7077771913430442,-2.84326213394858,0.8500849349655479,-0.708140773445202,2.004071634640217,-1.7180637432738064,4.33928858704951,-2.539185725344732,-0.879808271102229,1.6668247304866728,3.674772728958387,1.2660960936500234,2.650337770052566,-2.0929825398839768,-2.0482941124275063,-1.1128407515950853,-4.281735498766561,-0.06619714312829734,4.859695284425288,0.9439166915370831,0.6376606548675027,-4.677952917113731,1.0983620675426335,0.13819737507755858,2.8063219373947783,1.050206722514536,0.07631799596375861,0.9134043828869192,0.24008604134887307,-2.152385975150709,-0.8363897580498855,-3.8056265784230296,-0.17865831434410065,-4.67183848900438,-1.8275101557452578,3.574088855172756,1.758520618337467,0.8333574300393726,-3.5947963817053403,3.2238822717263873,-3.9475583282418465,0.4920659779656647,1.6245181562857725,-1.0158396468132032,-0.0157592442474366,-2.0206301759855227,2.6090305003186045,1.6804794097990994,-0.02880097957364232,-3.2085638445550373,1.1188610899194562,-1.3028506940854794,1.5460966210718614,-1.9035920327558118,1.170103321576728,4.4778851379736375,1.2912049198794062,-3.2712114168041806,2.0008725903854914,2.472852194879668,0.5106815854393093,2.264546329496289,2.3147120504641396,-1.752589772181492,1.1823735281726346,0.4937529039093972,2.5850176609073467,5.063898415009458,-2.117266543335077,-1.1342575021488268,-4.046544604122584,-5.266441392271179,2.1936980185455437,-0.20556747620899316,-4.653588959804841,2.5492526186935547,-0.3703259396715997,-0.818260726384889,3.1442713921715506,1.4587317136199898,-0.4239594405976919,2.198878561594669,1.7231814931188347,-3.9405015390599663,-0.04797420438234219,-0.8964134531559919,0.2060442042183602,-2.6418254272731314,0.9141245854541422,-1.602619934462544,-0.18532414246847645,0.3209174742166263,2.7331588642079057,-3.6440902483485114,-1.4989244698613162,1.0252125722518715,2.507501439607851,-0.13830958327223833,-2.0590642741995193,0.230297570820188,-5.084429875281059,1.0886306274281705,-0.9742581776089881,-0.9915519961822647,0.05061804767080861,3.4090898017439097,1.9758047569983124,1.3024011558611042,-2.199877811249035,-0.9281349632442659,-0.8668525059033577,3.2587295015462976,1.7837172046314183,0.673821826076025,3.9505553155335695,-1.7692069322108568,-0.5152140869721372,-3.369480386877371,3.080583733578618,0.6015005089400133,-3.3779212696473966,2.087153806608793,0.35201354119288375,0.5773029513343111,-2.9300698024957876,-4.9520940754998435,2.364159975571309,0.8012863471776801,0.719500521078544,1.6135161725418243,-2.2981315223995966,3.491581925651975,0.2947592624584503,3.386526499111104,-1.6166541827380017,0.27596840577248366,-0.8613807511843775,-1.6258919648932044,-2.4727762567494818,-1.5056487138107637,2.9666486905440705,-4.085383302863399,0.321294382411724,0.6569525539731916,-3.652090773646845,-0.3124893857798047,2.8416524025804932,0.6265111863381746,-4.148334615282325,-5.126507827709832,3.9132319457529876,5.16236640109974,2.5869512382006747,2.9815800747217427,-2.1144735848385525,1.2562248629935147,1.8297621948704705,-0.8988679320845728,2.0300337466192855,0.1272693645243848,3.1913748722096287,1.124309649366397,1.259591030429933,-3.838210956251014,0.8199416466748646,1.8363135179303447,-3.3894885539950392,0.7650233525317951,2.515548818906537,-1.5320001195291766,-2.328425397451227,-1.8401582305429702,0.9285461147061355,-1.65638937706444,-0.6112893764324162,-1.7690632935117914,0.29492701289547546,1.1162201786380406,-3.747733510550595,0.9588812133836314,-1.3963681594231263,0.9557570484769419,1.6982255976104863,-1.0608304729843003,-0.5400198790241428,0.3092342553330924,2.0007946060073,1.0255102012497084,-0.6495949314134782,2.6947625868350884,1.5595337349946101,-0.5118103933898043,-0.7932623708252271,1.2738881380122828,-0.9648962168955155,-1.969376763443379,0.22402456530972512,1.466272864964012,-1.9450792341110752,-0.5898111713876298,-4.461988345940953,0.7874260977907094,3.3397895835703006,1.7761176269497012,-1.9593046625077244,-1.3783045968829886,0.6041272108822328,0.2530644576203898,-1.0014180542918985,1.2673619495373074,-2.9665496010034693,2.0709993063520558,3.5103251183818935,2.698752346818731,-1.0207740197436,1.2102020073454836,3.9793125653110395,-0.4973971751234811,3.5327428560212866,0.3992550225462084,0.924159513265101,-0.07605715041453338,-0.18182688802460403,4.2483174251237035,0.5576435766953162,0.5404772924883692,-0.06069440969757376,0.08851090818396104,-0.29226204868725103,6.407811101342548,1.0167561396161842,-2.1816808398674947,-0.6808253536892961,-2.7011179955274103,-1.4539752213852135,1.072577789645864,-0.38295472201420233,1.4515164930620548,-1.4593763515383031,-0.3286287461084667,-2.6924115968545173,2.2030947984139186,1.17343768378369,-0.10056430895624369,-0.36690741229237706,0.35434877910463686,1.042138828548418,0.7107864587561751
GSE16515,2.8559930935244733,4.661075958200836,3.6868866005172483,0.9555647381650425,3.616517694678733,1.2648188979194597,4.698955687300078,0.9115695733258523,1.0863526911390877,3.893945364753556,5.0551647010077865,5.569972808401128,6.0062704059276735,3.6532394297716704,6.060089539530398,4.2374538511664595,1.764786715107887,8.077233080043364,0.19586096455981045,2.0684809238278796,7.228999925487734,2.0597382482702993,-0.6109788577567393,1.1232652122919977,2.172395450017556,2.321033531560214,0.9934586399705648,4.523917859694561,2.9691893243826324,1.642981004286526,-1.736362780711946,3.8333884044956448,4.783119349025363,6.489125521991136,3.516250276818114,2.534076712292483,2.5898991678090306,5.104624638410699,6.016987154337217,3.9572037729529743,3.84141338488098,5.2609577453224565,4.008058598782277,1.1860597715359575,2.570040461482288,2.701364432788997,3.6752685896282498,5.623644494126971,4.523207589818836,-0.1294889803462481,4.2123843686350515,-0.6645820265061988,0.2328410318167281,5.467977443444312,4.961060064193273,-0.2796510063298466,1.3949282516600512,1.2854097348228988,6.460955608800365,5.53885689139366,4.23936363251775,4.089596110672236,0.9300254030275292,4.413702015137921,2.1079439112746847,-0.42376841566571993,3.942003530247569,1.5650560488306695,1.242151209448978,1.1142929459672213,5.68245761621494,1.3443317501698868,1.7266955442701784,2.9180529071448884,2.1741915471865867,3.957980726631565,1.4594860547605866,3.6186369541276835,2.8875174309342198,7.372268508141902,3.872049059876332,3.878351138062798,4.723879526393167,7.701411551939579,2.919233164464678,2.021838512344076,5.454958003542573,0.1391506717134709,3.0903113189360902,3.8707786259564396,2.0331571150398555,6.6979704532859845,-1.0158205000614322,1.1197078194391652,5.227271799305962,1.271791558523223,0.28748510552477874,4.213974439622251,3.319072192938682,3.2310980627346146,4.718782057627237,2.9155553887735963,-1.9941178012287146,2.046222231716359,0.7077988745496214,5.235885495746873,4.1421179495365354,3.162512379134686,4.585154772511797,-2.5471865706477903,3.150255624424623,1.800845015276807,1.631345365132045,6.576547120371781,4.838332774146623,2.9404829660211265,2.604797825671754,2.5392355385830387,6.1219811754516975,4.913130184566847,1.8338324919324456,3.342532961475561,4.949978705338414,3.4888506965031594,-3.1638672989404837,3.316885816379921,4.4026182816804695,2.6336121291980796,1.523292370959572,4.409180416862086,1.5200711220457717,4.8723774503840245,3.0367247152258554,2.722724090573042,-1.190531171504943,5.293312321386968,4.515127202566983,4.020375160591826,0.40553455981653247,2.292334966163173,0.09011330649189975,1.0336154898994339,-1.9987539616581012,4.963517318796392,5.085335998852543,1.0588319630953742,3.2659893668855675,1.9213142777504173,3.371157438274611,-0.2634991733908479,0.13175138459134347,9.315901104025624,3.505615471397768,-2.4011688960048483,0.603736181332043,3.1411575259472695,3.4115554153680256,1.933725221478328,1.7903243209640838,3.9918512814753093,2.0342926655540707,2.452789862634919,2.7356788704331287,1.9126503911570134,-1.4052339640227915,-1.2878912268009208,1.3754128816037154,1.4386947073648753,2.932012770717342,2.6706866323541103,2.6674686480501615,-1.7164522820895847,3.805623261602149,0.9413621755980399,3.765941246293383,4.392962009602718,3.246945374493159,1.388700181331286,2.391156706352649,7.153355639825314,-2.81606003653621,-6.3076083740782725,7.1310429522871,2.0688838844442583,2.927801101864431,2.55013887251321,4.970359843605815,-4.553214168453852,2.861202924044532,1.1879308709563876,2.9131975285902816,1.8549994618185734,4.5092899890020295,0.9271455080189692,2.7676895951300087,2.9244125947898727,-2.5261473523949407,2.642456740892526,4.35224594941363,5.644008441204184,0.894396346264226,1.8374044676342398,1.6499681536436104,5.7397355520181765,2.195270209674302,3.7911196264428733,3.475733152215783,0.797469997666184,2.470008476919072,3.318315124613366,2.936096520999047,1.008185339219174,-0.7331578622902368,6.973806140453667,5.2343335592563065,2.581240715684389,4.374337383754365,3.151535129301947,3.274952854777804,-2.7473321840925156,-0.1813492525198906,3.5557649830037503,1.7714256072899452,4.787078712447789,3.334735005538049,2.247618815546044,4.426063700216412,2.5527389446411775,3.495781778273068,4.3458287752182425,3.367287854670184,3.6592157945874826,3.248811672568531,6.064063964971764,2.420728520435156,4.21442860070686,4.1469171131763165,1.9312300244668728,2.9942515321667993,3.261951765066428,-0.2199746527117571,1.4339797030491324,2.420145514545173,3.2289083781318353,4.762052941346158,2.3310926751916807,5.060734245150423,3.0434181610198268,4.60251205935522,-3.3435549590600244,5.814078635119359,3.0492011923321045,2.6687014738930204,1.6125040810889912,4.669068047492661,4.115996431213074,1.283332995700281,0.8826045617698385,5.398245517914174,5.123552299039651,4.964339686291553,2.1200260163380236,-1.2754553982662273,2.374573868594863,4.300245467301124,2.5771366483348124,3.9327217642177597,5.900876357311813,3.744575316682674,4.330606496215255,5.466935440420189,1.606770292586323,2.802474786255551,1.1415358071761093,4.938499909828372,3.2617369991594973,2.193140019192809,2.030332142510927,2.136731320125525,5.380960282851216,0.5760183676408553,1.3916554051311223,6.047334546116619,0.7317253692158631,1.970149063710898,4.100217670835076,0.6226283228663949,0.5417175876338785,-3.108629969985308,2.729655100508443,0.4833579571604618,0.16033949738800332,3.3424603935838406,5.336105448679172,1.042328239068637,5.005602223030358,4.506536370834436,5.832185635400042,5.907614055082147,6.458715182195658,-0.7179935458278169,3.4062206839529745,4.344495557319096,4.007573863157386,-1.2931902725495694,2.1977185819259963,-1.7605899634712803,4.14990687157075,3.681245913806858,4.738052079475432,4.751080261788963,0.22550386418081697,2.9556076383335084,2.741861547181895,2.1098448665185248,2.867475005277512,3.18875426712895,2.51794031381557,1.951503525028334
GSE18842,3.848846975052831,2.8406558019761627,-3.3678697863690026,6.535122189149202,-4.001056717037553,2.8822462632632377,4.412950707388333,8.50260092163721,1.6026913056564174,-3.265456208195355,4.32187198322812,-0.6600002040577846,2.853993503710364,4.067580947659406,0.967278416834433,3.8876911972287154,1.9596100533601488,4.024405178863319,5.8457118993151145,7.081897513842475,5.206166782831685,-5.642897374692309,-3.404536672092058,-4.523729946778219,-5.485656878473605,-6.099550276701846,-5.25111909829698,-0.16426591556235168,-2.0701052048613167,-3.634241719752395,-1.561582193274882,3.5812284275316753,1.064623298296139,3.4470713127228616,0.39329203051364314,6.258515302139481,4.162659362273284,-1.6334866739114178,3.2987543748039787,7.920759238563436,4.251413442370846,4.576086463945533,-0.15806204796202525,-0.33500165384880115,-1.5829516558700618,3.979981854141626,2.307659758909704,0.6421227007456352,0.1077302936422855,-7.324811211078899,4.42314618763025,-6.877181618834984,-5.762000424315673,7.911751554090333,2.6601594646949773,-3.5815896200703925,-6.349271829266474,-6.751728342699545,4.59582051413999,5.1364233124357686,1.4699480976764505,1.5033277808029906,-5.599460288269429,1.5609222149534523,-2.071251044783953,0.048521811624570685,-0.2579478174084373,-3.4728615589535123,-4.502856407416436,-4.102740146485827,-1.2575605400177605,8.257105557426138,3.9828845292383535,-1.8447193042957704,7.477303582400864,1.9807243447951381,1.9677591236990344,-4.257098813021234,3.720628176282832,5.741666039257272,1.3973583291847869,-3.9937358427953185,0.23952197981666074,1.5203261709734255,4.527525759260787,3.458310323831688,2.692122386663667,5.912035495954733,0.7949805741408006,-4.513320278254233,-1.7693808358156073,4.5540375179127075,4.988174454897607,-2.549282397450735,3.3262589156145443,-4.500467152084613,2.298766593233074,2.9835504831776696,-1.4779173353350812,1.6400836666017413,4.202871060882965,3.6936158382882316,9.687826587519728,2.8557187456591433,8.313466147751491,5.9301873030091174,-1.6497851562099963,-4.574531074962648,2.4905513434311164,8.630329266124546,-2.37497478847683,5.526192332645355,7.010206178280888,2.8717089701241356,7.663701717507548,2.3907282872833315,2.5723431936702,-3.7682658828156304,2.6160661826358016,1.7455432071713655,2.606680016029006,1.7918544722661875,4.459959660965125,0.0010681319610975635,4.502105584413636,-4.761635782568141,-4.1906290912874695,-2.293578777133312,4.653980310403008,-0.12336288390476427,-3.4101269322422003,2.0275388510608687,-3.2358940367526676,-2.6662483097990006,1.4615214788305528,2.0116160607735885,3.6603604716914506,-2.0436714324381553,-8.508572912936637,2.398988801406566,7.466968547159971,10.269051625204174,6.504641436469789,-0.816346101714341,1.4997905962927818,7.263257075131015,-1.7490712358869653,2.739532837029177,6.22654151022859,-5.67457394278607,-0.6007786929562856,6.453727650152108,-1.4312706641156523,-5.199806052098494,6.974256779385203,-0.41019260025275217,0.6778062943719934,-1.1156977095168965,2.9426948283074736,1.5328230740000353,1.2254713035208782,0.23397010061281615,-1.9929644647397544,-2.5691252348768066,6.40495275885275,0.26686241442214476,-0.30564892280016154,-0.4521374989772427,0.745907780073238,1.8102278519631054,-0.3448831813911571,8.102888831855783,-0.5528305956954195,3.3014385077538866,3.569165780757047,4.180503925474217,-4.627711909041913,0.9879900590561557,-1.7083123955142878,5.304392050199041,5.337364853029068,4.0940696271717005,3.09059031319821,1.5508138877218824,-1.212290952720658,-4.9353582092668,5.41134574917753,4.689282529282543,6.2802340466915805,-3.578803660683459,-2.0673693321415327,5.018590204676833,0.19802860829737773,1.8245510361799568,-1.6978849834565037,1.898297761247024,10.147852076504666,-4.894008981479708,4.102507823313898,-0.5781105601939726,-2.0767875649847136,0.5541302245565101,-3.1719495086806306,2.2710678482641127,-3.209693456366583,7.1503053981775455,2.2392660476660193,2.2358915408735083,1.1488755042279137,2.790288890853141,1.377582702542522,-4.999991239705386,3.0632548789389036,6.845173989645418,2.9121093377827445,5.201113411575795,1.0610121642853692,-0.5736950326464253,1.7681598186133978,9.825981389431966,8.254537991653402,-3.6393239000803637,-6.834792108565634,-0.06700308220320539,-2.2894320361039133,3.931066833869048,-0.14792532221181395,-1.208756501420978,1.4318760977625244,-1.4705710987036835,-0.8706728515882526,-4.549842124266529,-3.4121673900327063,2.9635722883404534,5.025103456561944,3.334316818095417,-0.15141254469820334,6.064388956478224,0.41715963778308063,-2.9430628442936473,0.37187588368936275,1.813425002700863,2.583237129468451,-1.6753865997289927,3.4376129323885967,3.2460400265478206,3.8787509562403724,3.717285987376818,0.7164175538897797,7.596064326686978,3.8622614428156754,1.2746565044603038,0.5671923001571274,-2.3553723238063538,6.960270240970637,2.37724454010749,4.338687383758302,0.9154229135809502,0.9713487051811189,3.6079466208405826,-0.03159516129513455,-1.1716975738248327,-1.0765740384507438,-1.7148704639522983,-1.0776733039196549,-2.7297448590903577,4.701854787679953,1.024326311542194,1.8039042946175203,4.232290026030777,1.0038117071585024,6.837786108625957,1.9085471697699035,-4.5160417516145674,1.3392772410278895,3.919707617492374,1.3863726765822622,-1.257597465271073,0.5347685143638874,6.665286838261998,-1.7441213623382317,4.301611208859642,1.9452556683709514,-4.102526580193238,-5.077242825505138,4.848039634608363,-4.206366867279731,-5.90962773670812,7.788035896399053,-4.351553948295657,1.3055011765965732,5.527394926476747,2.000036961458717,4.602873323562422,-7.47746734775491,0.7841038683208943,2.996791318937301,3.8209565832558217,4.241648656908854,6.583775272770168,-8.819961701394556,0.26357689534818635,4.751625112357321,3.0363901267302,2.2192040178782366,2.932648716337036,-5.184445001625586,1.4509216804293408,0.6158106199302631,3.555097387859346,4.196473506698819,3.728198196734244,-1.4822185710336993,-0.5994822383664501,0.07705658977565052,-0.8554302164395888,-0.22201072625250093,0.9749848437687902,-0.6611970499779538
GSE19188,3.162531949134506,0.4992879332282139,-1.1808789262954207,2.649750211348084,-2.094233197204024,0.272759853905366,2.8783746299024497,2.571908908925207,2.0226169528322173,0.7257428445241776,1.3399586416755216,0.6211042086053655,1.0797585377639078,1.104389835993223,-0.3744272505806379,1.8949085260580316,1.192910674888058,1.9978803943465164,1.0062834060229278,2.9862982007994074,2.3326651613139253,0.2557201150021757,1.0461401957454486,0.04948408114935615,-0.6064048169036851,-0.4690412584688287,-1.413497812182298,-0.8040302175242325,1.6347980194197127,-1.2269522006572338,-0.08270734200773418,0.8208381978659124,1.6197845701146034,1.5140739176718006,0.8565433308509655,2.94849315429529,1.0912844670460802,0.7032495319749364,0.8865774571903127,2.3284034754590026,2.405197391465519,2.4448797791451318,0.07581416468330196,-1.0275471797901774,-1.9215076729431757,1.6954684344989408,0.020633297542203523,-0.20243405821299232,-0.27142267711347107,-1.0271350408449311,1.9259334617750854,0.18362148003131606,1.1202021699918272,2.9346527084585188,1.710919778270688,1.1981860891532596,-0.6438555048522647,0.20697835720653976,1.2351720825623014,1.5542970735294361,-0.08059601578345081,-0.47497505275332486,1.0444782427101578,1.7715224598223387,-0.34216170652867534,1.3277607953146067,0.8997359749717624,0.9791541465586429,0.7397449663452659,0.5824482336716814,0.30806753837212847,6.052688853706578,1.1195237123978974,-1.5498280909454476,4.2513948450521575,1.4581686789183739,-0.2531249266435058,-1.4289823317506198,2.6522676560355607,1.3766661890505347,-0.133495890924858,-1.4099967616556601,0.0800386303435213,0.8111762942731714,0.9659203011284211,2.9716695323875317,1.159634177688815,2.879059804349375,2.0071852659897025,0.6413132014079123,0.5611867576708441,2.0695571051176342,2.7415618646576205,0.2656857805025676,0.37976060166324876,-0.6101213685901443,2.6187109535487125,1.474633835593294,-0.32169923725412913,-0.8064485681538556,1.64050568655812,0.44487672078825397,3.3412266189455164,0.464408151875138,2.9179046022273845,1.4761498701465208,1.639657539421465,-0.8283073187433254,1.4642601493814287,3.397453812765306,0.08431822612440366,1.2754476983427436,1.0909665488233595,1.404581563408122,3.0123672569644926,1.6814623814611378,1.05013170663242,0.48255325381990827,-0.45949159102833875,-0.4781199176123577,1.4134478443357654,0.41882368017511734,0.5197259694329145,-1.8128993079728533,3.1900744969452766,-0.8176930644858942,-0.910150139738773,-0.6229942904049214,1.140950721583827,1.3251234075645704,-1.3794287811152852,1.6837119823550597,-0.6363369233476622,0.21850356836756984,2.582209688887652,0.9883680597792321,2.5357025729978773,1.1298048048480858,-0.432853022881247,-0.9421328681545592,2.8233505783117026,4.501783331341961,3.298773895342644,-0.0888596174513806,-1.0417040383285985,2.1805728097198527,-0.5035061894823784,-0.7603150211750527,2.2664493006064075,-0.8054542402914668,-0.13955613488924012,3.148373090006392,-0.596104109045059,2.5662778603421494,4.130956669675902,-1.6369441945169934,-2.017524689074791,-1.7203687038196154,0.9966858911097292,-0.46942782856830917,-0.5733790165139886,-2.1158511840262215,-1.4983804363639543,-0.8116440346930812,2.0872476656062333,2.7675043451409014,2.9034734955341173,0.1088902316212623,0.4555299928207741,0.9112491422489531,-0.5125024421165111,3.688075379270583,0.16928813879695737,2.4773668232723254,1.968842688054275,3.0562959721962732,-0.04054023379512979,1.5345313735355497,-1.530251334064615,0.5909589203749751,1.909291369020063,1.664039518155553,0.3027121580609126,0.008800735289726844,-0.11429186332038908,-0.41237644310737054,-0.2996019791662701,1.9763914988965214,1.0833820636478204,-1.5556522569838298,-0.49549974715327194,1.9930838210831279,0.022266257055826227,0.3094982305447204,-1.304044311771986,1.4997604877573445,5.432155982328005,0.8623344364647758,2.0320783149484742,-1.3514047974924683,0.18246760894083686,-1.5274709267027262,0.24075567023923913,2.1283871285458025,0.8977663652788568,2.109465330653642,0.9670531164149655,1.3565598631116274,0.5121062348810176,1.1774548085027745,0.34204203967298846,-0.5032005841372109,2.6401258331622683,1.3721409501087587,0.29649222221848864,1.0011929342928751,-0.45942786104832556,-0.28394172827201664,0.5558944413548886,6.276541358738493,2.6407426987046634,0.3139313394232604,-1.415001070906647,1.0714843880937293,0.8542100557145557,0.8398275096316221,-0.2901046239143374,0.8935383216700651,1.0944057202445374,0.28414264349035745,-1.7956570237318026,-2.191633754049173,-0.27425263900083946,2.4145619982592645,1.9489985742819211,0.5826300729376319,0.29013945729161894,2.409013037489543,-0.17965160360561305,-2.0098493696903845,0.07644370857371231,0.5549659046081801,1.4951576393702888,-0.40676129926086024,2.216471675607759,1.212592800721973,0.9541998660859005,1.316910446914324,0.10122429693440295,5.19503907004299,1.1355640855769502,0.38598614405615606,1.9569990803339379,0.31366566980005434,5.143473502833972,0.09673396303683937,4.360668010349825,1.0791407230459573,0.3361160876384626,3.8530000166375484,0.6222376293831792,0.13825989041511463,2.451773102479481,-2.398633443146933,-1.400686231063308,-2.8191653397726704,1.3729368677789329,-2.4660856885609763,0.48488962859010853,0.8541080467538049,-0.16514968643279493,1.5372827775743678,2.1156444973886495,0.001864320476657314,-1.8838427323068612,1.791754301535839,0.7208867911356439,1.5359516646672875,-1.162079408414191,2.371268908986885,-0.892779330092382,3.1726746774193484,0.6748671648304104,-1.4283344391331796,-1.6380084541804816,3.3742480845632152,-2.307984901867545,0.1752778168839106,3.125963699506649,-0.2616571798290971,-0.08245436086502003,2.5257361808085235,0.7473381261448789,1.9441555300279711,-2.3851148510615783,-0.4553204464047141,0.7147205923235552,1.4590798309942354,1.787328171968476,3.335061096835231,-0.39535203261533264,-0.1404204601003849,1.2982085766443914,0.8476196179333901,1.8430444967551278,0.8104524310853218,1.2340818642330438,-0.047887812306302506,1.1418973573849378,0.4810119017281317,2.2748861863864973,0.6032591220930371,-0.19565329550738736,-2.019730104985264,-0.685016125348686,-2.3278319890369277,-0.7204705965927387,0.9376152467342134,-1.4808917744968495
GSE19728,1.3316058139621911,-1.9574440679589145,-4.992184841362786,0.6752862779954641,-4.286129643645141,-2.9452183404182772,0.2231093882545529,0.6997719083983631,-0.29649620144213046,-1.3689852847476007,0.5371674882461848,-1.752444891870083,-1.4250904845261239,-1.6380840799552343,-3.88874136090491,1.1511873013270277,-6.048980412940177,-1.7027684335273527,-0.8710346837759413,1.3645257313639494,0.6716470965661773,-1.1398958612488468,-4.43403347232081,-4.2724635622901665,-4.791018691297091,-1.1664121267026033,-1.4538538611641993,-0.10021029189218676,-1.1153782208093104,-3.864719177844034,-1.0749349893068287,-1.0018692719591593,-1.4094389321498189,-0.09228765427577028,-3.4133116535298433,1.8939371632296194,-1.012700375928839,-4.587749474387338,-0.8995470394241325,-0.44923134285649585,-1.012855128212062,-0.8374544962390235,-2.4097546670631873,-3.0698498785380046,-2.365952687347902,1.4502269827226197,-2.2739555098477786,-2.3133340361961814,-1.0293570708711248,-0.20680932324161044,-0.946319177863963,-1.719128900467546,-0.6171085180697625,0.8823723182570005,-1.4552703579004864,-4.376042388456583,-1.0173081111818485,-0.9155595648252469,-0.2914125459280767,-2.385250569298941,-3.589797778256935,-2.8974184740022064,1.770390667451871,-0.2523093608623487,-3.781016159449431,-1.3689450255424171,-4.245062422551339,-3.479869930527645,-3.699476616536605,-1.1470201482756535,-4.161099799923762,-2.9503311641375167,1.4783397545188683,-1.9542238339413647,-2.415469270884596,0.7690817546323612,1.3996878669769202,-3.21920526353814,-2.6498039182941757,-1.7278114776875437,-4.030949655358685,-3.376503719823333,-2.802557691533558,-1.8982772660795686,-0.8808618278987294,-0.5632659525064262,0.6710692678820329,3.7473710461997203,-0.5220127914908885,0.122410681795856,-0.5769340170165885,0.07537341097146454,1.464258432695447,-4.491566182105235,-3.855746207352122,-3.749290450441104,-5.261483132086533,-2.4699843453024313,-3.737638193954727,-5.271227794019659,-2.1276117682132387,-1.8821164553898633,0.8162510191912971,-2.0155381730943644,-0.03137161441542366,0.2470712927256571,-1.9055780140710392,-2.321390341160364,-2.3969476790097537,-0.34567337967121387,-1.2464164453715383,0.9298186019813613,-2.3262222904843366,-2.3184710867492355,-0.486238521697253,-3.4235922445438756,-0.9155874218679699,-0.2241792277190663,-2.6086804085746538,-1.9669269129223772,-0.966382671798034,-0.9396883532206073,0.04303596979862985,-1.80856466717873,-4.487436369390223,-3.6091607675308865,-5.5103447861185755,-0.9731853761843556,-1.2076247783022185,-1.71180035706056,3.7621735006021346,-3.362081018135542,-4.053060720579084,-6.731578688592446,-0.3356088152133386,-4.412822679382698,-3.4744894127832655,1.9752446218736668,-1.191029338821699,-0.48822842843573167,0.9058802115745314,0.4083247698986665,-0.07953460522289824,-1.9701463138366662,2.517242619998897,1.5327786192196218,-5.581402870688073,0.735913595464815,-0.6901744088988557,0.9023857257598463,-3.849650417775569,-2.4984166753696986,-1.4909151029438368,-4.509825410549829,0.7193500962373388,-2.4218891073168134,-2.207433550556658,-3.2486214421052,-0.6256443314456416,-4.981327370703806,-1.5769363980764073,-2.8862147152653463,-2.255699940933922,-3.4078482989148005,0.14295870700502813,-1.5540190141381265,-2.639951144732308,-3.793798767990795,-2.1014801774934315,1.8890704031263212,-2.16028049711637,0.11893873085402565,-0.8920282599633965,-3.8394294952235635,-1.4049797272519198,-0.27052858732022367,-1.371677627317067,-1.8838226974253647,-4.306037232662163,-1.8336690930333257,-1.1004763650272689,1.2753944835808149,-1.4074675663741631,-0.48541659657419955,-3.5134675528500208,-5.648802390141839,-2.4572152952194863,1.1405217692891407,0.3449776798261815,-5.658746388511428,0.049983414381190944,-0.12725863792384362,0.059319091949491067,-2.5013395728753527,-2.1494256421871585,0.9291420777539428,-0.7634968469607978,-1.6807910316860155,1.0356342053045786,-0.6663498900219674,-2.2779014887675095,-1.3707182797787811,-3.891063091436054,-2.89596588753031,-1.211983458804025,-2.0878486744101363,-2.279166848739674,-0.8939062211419987,-1.2781086291780461,-1.828265767385833,-1.8572533309650527,-1.1678246570296453,2.954992744047114,2.410076853143876,-3.741178002510223,-0.20219969845913632,-1.5725677234589062,-6.845721622501021,-1.6268269032553415,-0.8007582563174408,0.3621741121514546,-1.4970737095734754,-2.2198058013736497,-3.0161481319224674,-1.3202986958796386,-0.12696834322168296,0.588939772103833,-2.399506288937078,-0.454958276823986,-1.4358867512182292,-2.614518657843771,-0.5861380774565256,-0.739369706248256,-0.8587884384365225,0.12773380888903116,-1.860224353607139,-4.994712640552851,-0.1173738791755898,-2.8369306692169505,-0.43307658758487666,-1.3256490954505427,2.7518354821259017,0.7170848104920781,-2.380272128918655,-2.211882979378731,1.3230136710074336,-2.1540362632381562,-1.5128405241274372,-3.036096959901404,-0.19995101489275374,-3.560168137511106,-1.563384604813873,-1.841666833955115,-5.05676546581339,-2.0190440144299857,-3.4355999215877695,-3.693759068449769,-6.0652547703858835,-2.5131400649140776,0.9519211329015261,-2.0241297735449924,-3.654928706987208,0.06734896787910619,-2.344148521284238,-2.627643479886402,-1.4951247164483783,-0.5370710618745427,-1.931734982871243,-2.988254975935852,-1.541637952468135,-3.2425267121616246,0.6023976343829328,-1.1241915831820077,-2.1183802473032496,1.3910590123200728,-2.593373024278702,-0.9914319923558345,-1.2665927939379218,-2.5958991603924875,-2.648956685370391,-5.7346752868953095,2.6706535776966756,-1.4688332858908495,-6.074788323263168,-6.198265496428855,-1.0812689112296534,-5.656778454788412,-2.4165870071650306,-1.8710941574659679,-3.240840294204546,-3.890082862766852,-3.0071991325090655,-2.5381668416795895,-0.7060007190706864,-1.4942775130551957,-1.1147075474436534,-2.4237041275212334,-0.5946161685474293,-1.4253426411404384,-0.5561333843017605,-2.04601270096101,4.366501596989393,-1.167317381186866,-1.279236458331223,-0.07102815710034942,0.726647440877247,3.077783225865506,-0.8693687563585283,-4.023635834047923,-2.54038940336919,0.28831000027457304,-0.40525979537933493,-2.7459655262780984,-4.024209778658023,-1.0084317212751788,-1.9251856561018392,-0.9219539287298656,-2.2172947952701727,-1.03611988384859
GSE21354,1.5917754388902534,-1.3161158949256764,-2.71110534254522,-0.1443478060381866,-1.265856076693253,-1.0494109181490352,1.6383559620635055,0.16270673414879314,-0.28633968175786306,2.0395014776896327,2.9767953617789553,0.9683576901825335,1.2202653310589118,1.9513849662069158,-1.6088368340168648,3.872506829216869,-1.8527353239060629,1.5432985851679384,-0.6985567207589258,0.6825722088806397,3.5945706994322837,1.803903977247637,-0.6024163191513399,-0.840708853338907,-1.3500339321039618,0.4247491162267762,0.6148465919561684,-1.6305076051269116,3.0728383462324165,-1.8403854576439256,0.4622063781899255,2.3817227205348557,1.3577810059154625,2.285657709535685,-0.13182018129614095,0.7699268344643528,-1.053176245789224,-1.2579439400759722,1.8614450917209986,0.2570638267780781,-0.8890354093662208,0.47020755807411596,1.4104167005079842,-1.466040350102237,-1.8004622085084077,2.36159885456878,-2.68055692859754,-1.6465505213872347,-0.8245178392084745,0.45247044133489844,2.2956257598799157,-0.08558537629490454,0.5670679117427533,3.544061989005685,2.0207945217158887,-1.6279942338790843,0.008348274677706479,0.23667758848207107,2.689035027130559,2.2562761617028233,-1.9238165650094243,-2.443192790477545,2.0253804617136657,2.191712055855868,-1.4102916260783585,0.021133141693342246,-0.07191387886091107,0.19705940165255248,-0.16354907825458007,1.2483056523550538,0.45905028733227154,-1.877221657589619,-0.26828219452443625,-3.2821756275731038,-0.13524305941968948,2.0561033045162183,-1.0179921415388522,-0.8416598088270814,0.8495943572730628,1.2555486503716928,-0.958935982426271,-0.9662387189412927,-2.5373509887747887,0.5909568109467968,-0.7367455594209765,0.5744555121755233,2.455056264843106,2.38877997409958,2.2172808236174997,2.607175099292393,0.5051495198604015,2.8804820243739235,-0.10304223831068333,-1.9158797931689941,-1.7896053444924036,-0.7986097392661526,-1.7957126602448752,0.7996194072101797,-2.1524029436955776,-2.046758794921997,-2.158367661992554,1.372864043802193,1.2017422362787509,1.3123195072243155,0.24324460121004218,1.110634497042994,2.6449361191611858,-1.766512833459516,1.646661506639827,-1.9000612274995676,2.1803176009716774,-0.6427403397972657,-0.5506666547201415,-0.5346548305378567,2.8573147651709236,1.2151972621834353,-0.4765065648689378,2.5309501788412825,-1.8312075314473375,-1.0011523486904252,-1.669648151281403,2.191222799105205,2.0986422073068014,-1.176670971929869,-3.2322580313647706,-1.1644933570318672,-2.7104718883117016,-0.6075437427172381,-1.7193401797988341,1.449563480178489,2.375311835110327,-0.05271074557558912,-0.8431127341954239,-3.238879187534809,1.736149850050243,-1.1134809135100143,-1.8523309508858183,3.771933484620448,0.9822136670527879,-1.7197743136088262,1.8142893364303065,1.3806292775788032,1.9593239349724068,0.5459075431666438,1.0434274197212037,1.353669927566244,-2.471372362328981,-0.07284574806429481,0.811955257344814,1.1062976867718957,-3.0531620671831106,-1.4198791504591801,1.7111948406629691,-1.3753614970005592,1.1725842689341202,-2.2522424668509484,-0.9489157175216577,-2.638369232120335,-1.8180921309444622,-1.7393973928656326,-1.9866848751902635,-2.578685124651419,-2.252878580689003,-2.7464434148369565,1.2667920291290669,0.9156396449106922,-0.829900948183386,1.0332465621681366,0.4101268925910265,1.785070673720683,0.2363587092248988,0.8910101707720356,1.208310815280759,-0.8507880013841674,2.6758733069147858,2.7145149774095647,0.5297613609270025,-2.6150766541932398,-1.608399522066296,-2.190845508654802,0.6456174083514311,2.0483114263169897,1.6925239480511953,1.8727222479084775,-0.8857429038747314,-2.0864710893736707,-1.85557326855014,1.8129024258042072,-1.4056351586931797,-4.173946856621739,3.065600217770047,-0.8417577482713755,3.5003082539367343,-1.5294868826392907,-0.4365071048118314,-0.37236753163529085,-0.8750885821775821,0.9702703998581348,4.208229185900308,-1.6077268737568184,1.0256333726324225,-0.5216958302065092,-0.3269337888649648,1.2340306240049996,2.2514134272604767,-1.2186008098095535,0.8264917379574226,-1.2939278203899194,-2.8977307918588724,-2.2024769045879746,-3.124798183754345,1.0468885970059778,0.4700208942553042,3.35900167899698,-1.3194514116512503,-0.6225483348152708,-0.5192195850823283,-3.2088624352236623,-0.7451810665909343,-0.4761392254293775,1.596734407227274,-0.21771071023476848,-0.2754098579826742,-2.5436984342647118,-0.3899439990132989,-2.012287975410998,-0.21661088137791523,-1.7032093673333177,-0.12181978133152367,2.9258231842010343,-3.3621019394364993,0.8760659103065077,0.7538358758082404,2.4313933680300335,-0.17065708435356733,-0.024400285820389153,-1.759892788251216,-0.6447072498782507,-1.2331888480428173,-0.6948587982180983,-3.096316797220189,1.123337012605871,3.358154118366989,0.5281645880480266,-1.6655608709107061,1.2533195369951082,-1.7508457163783622,1.2514713994559654,0.9273501774689132,0.03184749171923329,2.060290627188807,-2.81805328927951,1.9375308186094267,-1.7395453124757756,1.1488210379233612,-2.8605453179442626,-1.4405030271672732,-1.607143588632051,-0.16244637679429985,3.7666707791114864,2.101662556063412,-0.3246865431956787,-0.2966388274617117,-2.3130725241784384,-2.741047344994579,-2.1279779813226787,2.314648953287858,-1.0620663463828157,-0.35998728603783703,-1.1510984714110828,-1.4145364000469973,-0.8845429652948201,1.1870144262119928,1.3331290143073495,2.385657001809798,-1.911126881236395,-1.9832184101740724,1.3757111334943082,-3.9778956098816147,-0.10390238582540703,-2.7086121413251267,2.8670023912464666,-0.9905765791089689,-3.963262927059012,-3.7433492831804482,1.1737126597003613,-3.0404609108151037,1.048414591972045,-1.797461840961236,-0.6390565815686494,-1.0397468169635602,-1.4171974254532849,-0.4720448396482889,2.4895703895414227,-0.2815186174295918,1.2068091365357372,-0.017376595914039308,3.332459992444102,2.436628620425003,3.3183247575647945,-0.41861453897638673,2.834413478813801,1.7551794963583705,0.6491481075442689,-1.415433803542971,-0.026083443214984344,2.807556410150987,-0.7396822059402567,-1.5082312232925188,-0.58812179550416,3.4042819120615087,-1.7246636907206065,0.0352854018670269,-2.681002683441059,-0.499391829968706,-1.3438465542314646,-0.40292494898699477,1.0557239061247201,0.6669913696505613
GSE23878,1.7051753738725486,0.6500619611815595,2.181536802460723,1.430462689466538,2.551771678544417,3.136242134641553,4.858467417246902,1.5770107805822275,1.1060693357131997,2.2458890637842255,3.3515393824887703,4.74497385965929,4.394070460105815,3.791648410630586,2.9345242277482417,3.3767181935357162,2.1439225964709316,5.252116754399456,1.3087304501450305,1.675195331017182,4.402529707431541,1.045522896684017,0.9705213619988908,0.045240975189239446,1.235206159672257,-0.567543852423635,1.9956438922180508,0.7826876988210159,0.8253082242088076,1.6102637202940544,-1.712389007936815,3.598530790568715,3.034188930229814,3.333978514880626,0.43878432838631903,1.8394076708682274,1.5617936191255106,3.2259604555478556,3.390452307457363,1.271017912908216,1.5795567682943563,0.1309943046261982,4.106824675128677,2.7521405891248314,0.8238178246245754,2.6917952800754126,1.6366896936884554,2.6310691835055633,2.40226826835833,-0.8136638184264272,3.511592116538176,-0.18164580589496082,-0.3799844915370593,4.694659327382073,2.867363365256035,-2.2831412643301383,-0.2569336610855755,-1.413014550484725,2.4025513788439357,4.751271249222747,3.822942789631994,2.899918018091884,0.6265776147328178,3.1894420275748994,2.3557255275817712,1.7878082253968595,4.829065268587451,1.329645632743867,0.85648294457292,0.46523183290981757,4.183700906629776,4.295597570133564,1.7396017123949203,0.7094362300136863,4.756707308331879,0.500339538505996,-0.14441790249553826,2.5878261460435943,3.3385751150341165,5.6372973416442695,2.2808470424926126,2.4168601750190892,-0.11895178494999074,2.5625739577466495,1.789880511893012,4.311030637917454,2.968577766663481,1.9864896865679293,2.2757936816587345,1.1115062312776247,1.7422294850352342,2.7699992170760646,1.148684821685751,1.154899174145831,4.7620255258637005,1.2082800866680892,2.2893703418784566,3.5176630780659535,2.8282321344991823,3.6450019550318067,2.784555434197366,3.7800243044893507,0.9390561905877988,2.591050197977107,2.132468469507491,3.534224699204642,1.1652125900001935,0.4091345866470503,3.807455846889993,0.8996152524200947,0.5308949015429483,1.5415450604857759,0.6958289974062504,2.2712757828353682,4.513763399209452,2.285249163432786,3.6920498966929234,0.03325670187710117,4.2736122426626295,3.744788473894767,0.23903045654462549,1.391689233308136,2.3792436861023765,0.45133440473304054,-1.7478580014134835,1.9635300749901508,2.665468746141264,0.7763999811571894,2.500510432126953,4.3178785422207815,-0.9227921002239128,6.175401456772437,2.6977880399264293,1.9784007295207966,0.4974255503785165,3.005243246477277,5.5705684892583465,1.2766254106931136,-0.7904556245718192,0.2895063548271048,-2.036069183338903,1.3413307405168797,-0.7048981998933663,3.83543950280364,2.2169496104213087,-0.0020537230172567003,4.969496466780606,0.3181566659478348,3.256665452122718,-0.4515129017909304,0.7087816156964585,6.58258984570066,3.862188859081147,-1.8427853363029842,0.2821780305317548,-0.2755539332997406,-1.3116362738411842,-1.8261823438859563,-0.4316899901586264,1.502062272628006,1.0085564469344521,-0.6542377132068936,-0.939248640402644,-1.485986043366914,1.1548371934244053,0.6386384690734873,-0.20677094233478713,0.36609867360072007,2.071702298248524,1.8633247537506608,1.6976182276318637,1.5974979549877855,2.657807364404493,1.438374889403082,3.1852415416048845,1.9348055704758829,0.97169124525664,-2.803115923592455,3.6251465915254935,4.665726599255245,-2.8887116510924544,-2.2311009361870906,3.1291896826648915,0.2835584754272682,0.9682637538291389,2.2780920994982647,0.6373705316334407,-3.7756228518115895,3.615630625695389,1.9737892609105647,2.3201133715737132,2.2376397618606125,3.4359937804043015,1.9626974692730543,-0.009537237847967162,2.296486008804449,3.5170045637571583,0.9605592297468536,2.891867935460555,1.1005817276848504,0.8493851849220122,2.972941152659957,-0.730356504976713,2.9897008271064256,1.0280498499607371,1.5834092639661532,1.7123061500925725,0.7113099371166067,0.8695239025686974,2.4653056567087943,1.2782066144768824,0.19153184467894893,1.0241131845687341,3.372731317431166,5.646791576319264,2.275633587409235,2.18079082031539,1.5313399002087347,2.4059244084029165,1.6903696147732188,0.6251098254366704,0.7720864533944027,0.03966224662093366,0.7089881528951899,-0.031055545788641465,1.802767804218141,2.1882839148519997,1.6670433451328197,2.2750694774497826,2.76860923541773,1.7859065054202825,1.296115506230099,2.3114147033997106,3.9235432616299626,2.5472278018122374,2.774091471406875,3.7834431512816864,2.600559068586976,4.301805000689606,1.092893164258078,1.2829162977680544,1.1143667635508898,0.17625601674374866,2.587854431375356,3.0500893338393857,2.4122513511688424,3.9805158323999064,3.272167544091537,2.3765139230925025,0.7628473306300462,4.532278405224918,1.1047602147028808,3.0694039223556766,4.541690937787938,4.7509612407273885,0.8745806129781907,2.131050675101726,1.8015431051386404,3.077192151164659,3.3352369789184,4.081897986400924,2.489046944163229,-1.1075367085157015,-0.5119646499706195,1.153936529159657,-0.957672138007208,2.0935781964738545,0.5207740149576949,2.662484492071339,4.0645058272933445,1.8747538331815286,2.3757105092960766,3.808234960070686,-0.058858164693985505,0.8473255447968803,2.9218159866718483,0.0633813843651897,1.2430565284874138,0.7484833015963509,3.8656396773583634,1.9702304847792733,0.15156563793578087,-0.07344825292411379,2.1031487058991596,2.354167781958816,5.804993990975235,4.461025408053833,0.051513017248080425,-0.8401739066905879,1.3741267930782854,-2.021512932650963,0.6442830746013859,4.437698646296063,3.36176931232072,0.9494788164736793,1.3811910886889343,3.7720930408631443,3.9521532175678633,4.378610130949191,6.135004445937736,-2.6344019595902424,0.9276785329211343,4.10064021811553,2.945550287054855,-1.0457075485456264,1.0343567548368118,-0.17335417615836982,2.557068621855375,3.6335006731393436,4.863355193909154,2.097574472211201,1.4562888412163801,1.628232431898355,-0.14579295110487983,1.3625275638312646,-0.21818519960387533,1.1993090833665363,3.318026500785429,2.2078016935617293
GSE24739_G0,5.94005442646692,0.48344611488440575,-4.576439361809902,8.311574701564982,-3.630015599191672,-0.6422525162275847,4.437901599161781,7.418401355236507,0.579243752933756,-3.730545746229447,0.2915432681826819,-3.496164440972306,-3.160416950296159,1.5432510817132397,-4.395652058226231,-0.4143932190167704,-1.8043496562136299,-1.1617550504281264,3.0224420824202483,6.176294660389024,0.07947071819725735,-4.076847726043936,-3.69330748603968,-4.146418838548088,-4.446717184823054,-5.764978977842632,-3.0243389204039017,-1.6845897484092123,-3.9632795506798324,-1.2820993851885563,0.34525701793213337,-1.0307018891294901,-3.5502053750536646,-1.05339328729386,-3.4796570462525245,5.839557233517092,3.6628169585834884,-4.1957355292054475,0.872953167413315,4.210524310686976,4.142737426980133,3.070170520603618,-3.0097447839963745,0.5813342540704379,-3.307918925170254,-0.3701189811432934,-0.550541493833206,-1.6992891706971422,-1.4408137158726904,-4.476788002833699,0.762568004652697,-3.5725174748055837,-3.9320610531234004,6.268036923545888,-3.0349853946394147,-3.689758034549769,-4.937620942314566,-4.835146141643011,-0.5783075587786574,-0.28108312818306697,-2.3968491502637868,-2.205410039386726,-1.8990057633510669,-0.5444049568464491,-1.3891803082030867,0.8349023685006665,-3.2256115215331422,-2.7873619367836806,-3.602942408878285,-2.8717472723367683,-3.738381454477383,6.682709331228435,4.482184464513799,-1.6451580950976947,3.612993019536356,-0.8032677352855971,2.8391579589995932,-4.957719255160872,3.0589081837415653,-0.9566965435542265,-2.7860784608333202,-4.424704976433452,-1.2787126519901721,-3.021958133671774,1.084001460058923,2.1618427615135913,-1.3060009006512208,5.414038495538418,1.7473750425684986,-4.095556184453782,-0.45440223332805846,-0.2880381855999279,8.05997834095157,-3.685370482086891,0.29085059266921237,-4.761067232216509,-2.7708353813721605,0.1269377279788783,-3.7848449338787935,-1.801042573874811,3.567430381137775,0.0005114673395503873,4.5052069109083215,-0.6891058192953247,4.105220798838401,1.5622403533452687,-4.394580381066307,-4.47476921278259,-1.9518479314650374,5.105284733467357,-4.455937425341989,6.758923498227117,1.5638501696987532,0.8147842190772299,2.1092301635759414,-1.6009180126824576,-0.507787798279171,-3.2916708653983395,-2.3947309143209874,-0.19440839153580955,3.2535465483620998,-1.7040889086941031,1.5806996818763464,-2.9671914498777645,2.1422381799532597,-4.785810165233805,-4.584516727791213,-2.4782114304375695,3.868806344035091,-2.5023093221518287,-4.68283934956845,-0.7005160674289027,-4.072890705309851,-2.9366131165954505,2.2866715020268704,-2.4305062322010214,1.0188188085789438,-1.6833760343144855,-5.324198444514308,3.455622650244529,1.9993217057974688,5.926969929668329,4.2228028664412784,-2.5748289372153548,-0.8079368917086681,6.609689804450765,-3.771375609190446,2.7667917517795195,1.2553599852032624,-2.1408416705822324,-2.207664791922504,2.458756481127394,-2.0493019228644815,-2.901759147509847,7.221479595076461,-4.0261169221977,-1.723183273931551,-2.0110078988823283,2.761473273840361,-0.6005141045223289,0.4510206155929313,-3.5340733210710273,-4.037173120374864,-4.265041518076687,6.35422588457434,0.004548991819763176,0.6265737504318374,-3.732869604624998,-1.5949157576506672,1.6878040398337224,-4.046279007080452,7.894090139568021,-3.317844594923964,-0.9274924727765026,0.22884372924890586,-1.9404062968020972,-5.593251490303352,1.2577673069891733,-5.449945102599311,2.6543099156884398,2.454922810391493,1.4654669635465616,-2.8748976534159922,-2.8746715247395405,-1.2465238501954352,-5.121868845179664,0.484524886285536,2.2359302844259896,4.702420855963711,-5.8433039055128955,-3.141336447322787,6.709321326490877,-3.3698053196253532,-0.043844489760907844,-1.0413765126622507,1.273435996263496,9.144650528593724,-4.380462751419162,-0.9935092165917441,-3.0827748742041496,-1.2904646467684022,0.628164169714423,-6.015887694517006,-1.5596967880710473,-3.2593591843444862,1.8584191018224696,-1.6744741964361542,3.948175690730402,0.9496565935130785,2.6570820890673605,0.660658966440945,-3.420454705359162,3.4179217251833993,6.43518615909841,-3.0318755349409137,4.13389157109201,-1.8913569574436553,-3.8481127881351505,-1.3756271689283237,9.161085984437687,4.3596410284387765,-2.3012061614520394,-5.87750471070376,-2.3135874520357347,-2.461279804788521,4.488014220785861,-0.8305687144413725,-3.7436499191214163,0.7446306915753689,-4.675694607170156,-2.6213371112853165,-5.508652578975793,-2.807968425788474,-0.711514805192915,4.036686071726324,-2.289287633455729,-3.0095927141414474,5.46412200192394,-1.7521963306531412,-1.7528320749832094,3.219031026748153,0.6299252357828174,-2.3229646017678927,-4.513722473627199,2.9146295221838456,1.9078470758179311,1.1033280403053998,-1.5478826904015925,-2.341537864817454,8.178542973887044,-1.610363635913283,1.6899679465258137,0.11541741731922116,-3.8248692534194495,1.6956512859193453,-1.0507382048108016,1.401040475502631,-3.1814473517600264,-1.7605475661560877,0.6055512362343949,-2.319244985638571,-3.365271253436227,0.5651360823085327,-3.3724263817421454,-3.07771532844835,-4.9781899450617955,0.34814419779208977,-3.7709507322670435,-1.234213500897929,1.8307487934968503,0.2331924874105211,7.341168099602977,-0.7349980909712692,-4.822182157359923,-1.1211092051652094,3.166545390358198,0.33087373582090557,-3.302884119769781,1.218247824427328,1.9781248047111117,-3.224890128212684,4.984106123186,0.10833750999027573,-5.195680505591833,-4.970120651839015,2.495998773133519,-4.348933471063056,-4.121791937063141,5.91621247057911,-4.575881837272787,-2.962220696714233,4.43892679005191,-0.34646521142064535,2.1113051890077386,-4.576077955290268,-0.4762345472703404,-0.30997062186799407,1.0259773703310366,-0.20113705116088187,2.1330191962851677,-5.622269278473131,-1.3722635309281102,1.514592200246072,-0.958207260541196,5.727852492308622,1.5234427004198137,-1.5804415886316712,-0.14738279940087706,-1.3382643097785016,1.2540787153632975,-1.5862423466149782,4.129441806236172,-2.5001709927473637,-3.084908272717304,-4.177051417785154,-2.9989945824654405,-4.612571978077756,-0.05568045984963855,-3.5357220574597505
GSE24739_G1,0.12568738729586224,-2.0534220717965654,0.7026475629668182,-0.7171312090378145,-0.5742454394821854,1.7630435085130725,0.21094991379683606,-1.2296638050358577,-1.1389666813099053,-0.960630488065962,0.16416609675318597,0.4191889731806627,-0.06066189301544902,-0.13544278099583307,-1.2150539092874042,0.3747795775849339,-0.5712194906428386,-1.899444182674372,-1.4438220641023165,-1.0294291791509451,-0.03347882595554187,0.663298308536352,-0.4306919991537857,-0.06504681827326013,0.6572390021456579,-0.5198207805835957,0.49612932720299874,-0.4092816674012896,0.1624687657866372,0.05568691668804315,1.1532831596697162,0.7862365163154201,0.9316690149518198,-0.03046331246411868,-1.2403123936176028,-0.589433894001648,-0.9803871584839582,0.2231908056649547,-1.0061911222066298,-0.9508485651223971,-1.9122356834617522,-1.382241244421638,-0.6791796539039793,-0.024224662212561504,-0.41545103236151354,0.7939287666281711,0.1207555985265877,0.31994019788087635,1.0570021180542584,0.6241989448266131,0.3543592958927196,0.13649575948262027,-0.7576351850456902,-0.6454574363040222,-0.9487312535749082,-0.49878621598442396,-0.7038662227600134,0.42732623644787177,-0.2530231883792523,-0.025784148539516646,0.04666883796307062,0.11974226576524995,-0.35447740119158216,1.1409263562862408,-0.40680284314880155,0.10262949545328408,0.1262450045242022,0.5533138019260893,0.4370259656010574,-0.5159468854979933,-0.04997823597572033,-0.6736839098249312,-0.512650112143151,-0.6913935188233984,-0.6263850308865302,-1.0876784110449116,-0.3199065191084491,-1.346271369573165,0.025609980377859033,-0.985829053297504,1.0263692262176614,-1.3351863814427978,-0.3481404928870825,-0.5830395259350063,-1.277706403778796,-1.2640687295839586,0.5505712239862715,-0.4512786033132804,0.53343284375543,0.06865324229434591,-0.6094823814088653,-1.5454289657399982,-1.3308139503061225,0.09028834031903127,-0.6345591321981024,0.39158344558131436,-0.5620005581416614,1.41961099756596,0.2705127701842418,-0.30786299643707077,-1.1806762126511428,0.5442552390559859,-0.7371631216433688,0.45229708260094487,-0.9233307907944533,-0.7109819219452181,-1.2728905838428723,-0.7873441624761897,-0.11003953978556594,-0.9359806365794879,0.045276529912432306,-1.6261472773723546,1.1137827087717616,-0.04310849139903638,-0.8074521634557934,0.6011057703946833,-0.24539679354426897,-0.7980863734213169,-0.5095004177574226,-1.2303011075114116,-0.6083807526008237,-0.3430187913377372,0.5860866914828544,0.32020392454417246,-1.5822534656198595,-0.380803057173656,-1.1036729215095167,-0.7601903967811188,-0.33360865802867573,-1.5328023606629746,-0.3671637787116791,1.071916514453664,0.19351445205999762,0.560655571291744,0.17525764600461455,0.14206263393224572,-0.7177552767965072,-0.6453451568091808,0.37436841036226653,-0.6863279225137573,-1.0262861748250534,-1.505292089858006,-0.7558931512328775,-1.4295166859616146,0.8635433726962765,-1.732907483665197,-0.7317638703595056,0.0734257712949392,1.6111766883413268,0.2637927475610983,-0.7362485966172901,-1.6031440457277162,-0.31820414394247465,-0.30571428777839427,-0.015926079193291007,-2.208703825950326,-1.5655614963567928,-1.4108686857718975,-0.6753447532053487,-0.6271970505833019,-0.08544150590626849,-1.952339132202099,-1.8666406475374977,0.2842269068522316,-0.8081727514434297,-1.423554707328841,-0.7816071526926224,-0.2504784297979571,-1.280922974831114,-0.29504224584454686,-0.36561134288159014,-1.1648191920994981,-0.594885710911148,-1.2399815012202977,-0.4049378044453045,-0.4329865579502635,-0.00690967557427583,-0.32265800500654385,1.2253735685855747,0.1549846023595102,-1.2778585214373546,-1.8180525904736802,-1.4517049138590488,0.6766647918186349,0.7280729441641356,0.5156205037424401,-0.3684403616633509,-0.5769863108643806,-1.6058155791708175,-0.24157492147331533,0.04653811018947201,-0.14008027442346727,-1.0455073077834285,-1.5362033339050658,-0.8741842891474735,-1.1733721148568792,-0.7494093242781579,-0.6016621565315698,-0.3059448745645477,-0.20629031770006911,1.6443369799576908,0.8996629522054584,-0.6372148364033456,-1.094967866851455,-1.494077908743246,-1.0435113533752993,0.06543330153194893,-0.147664766653063,-0.4836752638226519,-0.1599556918553132,-0.23811578706628664,-0.7953469361406801,-0.9549552392404641,-0.150670118031302,1.4679352818482088,0.29240511050652185,0.3544925217410112,-1.1911815099477503,-0.4755789609985028,-1.434326617739354,-1.0517533129570842,0.8285305606711026,0.4694643296096191,0.11690648892142151,0.4537503141902206,0.10112718125233379,0.9311056093982062,-0.0473496888614671,0.8331943910255574,-0.5078918471316151,0.9683466582568098,-0.39744500264268046,-0.5825358877208215,-0.948978826228728,-0.5613641930105098,0.3138397622306224,0.0974489155694536,-1.0509681539340126,0.23633381494724473,-0.6787676137129389,-0.8443484616889707,-1.4207765293180044,0.24394753128760752,0.5654803001028595,-0.9105532439185952,-0.3163350351146075,-0.7314954311462467,-0.7137194815637887,-1.6041706357219112,0.1867369584215035,-0.7538707675060687,-0.45099442391434874,0.7138528716182972,0.6834033127499326,-1.4045823056708193,-0.1209062365927906,-0.9414585179075109,0.481326977621071,-0.9045266398104801,-0.45668248992851596,-0.030164755450166912,-0.030037350977595634,-1.6704815034409912,-1.7941580834511035,-0.35788644354601956,-1.4390575344109622,-1.7092664762143805,-1.357923407065443,1.1325906378077648,-0.2462145037778047,-1.6084453060256052,-0.878306108420828,-0.9330859772639415,0.7037676604871741,-0.7514034397985815,-1.1424892159040678,0.49616209293986935,-0.36546248761723654,-0.7338057315131993,-0.3648209383145996,-0.051605734444584994,-0.11418144610071661,-1.5606315296434858,0.1069408819154345,0.21274750251608593,-0.7095184349911227,-0.3863028272958803,1.3107002218787709,-0.7964208186895039,-0.5258879241835763,1.5594021037595176,1.4566598847237644,0.4174136404263442,0.1819631775353488,0.7184359060595519,-0.4752082856057587,-0.9406542972063927,0.24693724170976442,0.5341768188529875,-0.07535183774895972,0.013376075928021898,1.2199493732177893,-0.52144852652209,-0.9881423859211057,-0.6371311188641108,-1.5697334217497345,0.8062910101130495,-0.6974777982187368,-0.7468915844155517,-0.5988090497118758,-0.5460003927167307,-1.7899396156134106,0.9490040491728096,-1.1899575995457503,-1.41221912519867,-2.630562345333886,-0.711280146977762,-0.7131377568651412,-0.5802161588695902
